svm_type c_svc
kernel_type linear
<<<<<<< HEAD
nr_class 2
total_sv 57
rho 0.59437
label 0 1
probA -9.43245
probB -5.22664
nr_sv 28 29
SV
0.001 1:0.1090014 2:-0.79328136 3:-0.35935659 4:-1.8138387 5:-0.24350674 6:0.74524224 7:-1.1714368 8:-1.1791835 9:-0.82333711 10:-0.40110749 11:0.93379318 12:-0.87475118 13:-0.8950832 14:-0.59079198 15:0.16332943 16:-1.9164874 17:-0.53934428 18:1.0896996 19:0.5604375 20:-0.058448687 21:-0.59854783 22:0.45415064 23:2.0648345 24:0.72037975 25:-0.20876224 26:-0.27693703 27:0.6154516 28:-0.56231216 29:0.14870952 30:-1.4375564 31:0.22405272 32:-0.6218353 33:-0.86945727 
0.001 1:-0.99440357 2:0.38103817 3:0.58056282 4:-0.88566359 5:-0.46532631 6:0.83472874 7:-0.41997114 8:-0.71902212 9:-0.99457917 10:-0.85854767 11:1.3452374 12:-0.99208265 13:-0.94215047 14:-0.64245108 15:-0.045435126 16:-1.8797255 17:-0.53075077 18:-0.93824198 19:0.0040313284 20:-0.14672874 21:-0.70106409 22:0.33873871 23:1.7872357 24:1.0179927 25:-0.42314481 26:-0.56796819 27:0.27607497 28:-0.51381478 29:0.15783242 30:-1.4607032 31:-0.1046135 32:-0.55379981 33:-0.86478945 
0.001 1:-1.0829183 2:0.48581037 3:0.6757573 4:0.28616602 5:0.068475184 6:1.1817611 7:-0.23873777 8:-0.8211519 9:-1.4435848 10:-1.5061764 11:-0.05729704 12:-2.1214192 13:-1.2337642 14:-1.211122 15:-0.053053036 16:-1.9397909 17:-1.5792356 18:-0.89219054 19:0.071951579 20:-1.1382502 21:-1.4684311 22:-0.69088739 23:1.6733966 24:1.2468471 25:0.1521501 26:0.45320073 27:1.1716218 28:0.82891925 29:0.39347611 30:-1.2959124 31:-0.10220851 32:-0.58619272 33:-0.98603342 
0.001 1:-0.99063935 2:0.52509492 3:1.2742334 4:-0.15495189 5:0.27127044 6:0.89820853 7:-0.3856908 8:-0.90724821 9:-1.2757848 10:-1.1450531 11:0.4624263 12:-1.6840317 13:-1.4246708 14:-1.2893929 15:0.0006006936 16:-1.6306168 17:-1.2943503 18:-0.83055749 19:-1.3169585 20:-1.8011876 21:-1.701278 22:-0.21236879 23:1.6234048 24:1.2249307 25:0.16684726 26:0.49122776 27:0.90116246 28:0.27390019 29:0.41365486 30:-1.3258913 31:-0.095932219 32:-0.42721105 33:-0.98342322 
0.001 1:-0.087249438 2:-0.73652617 3:0.88073188 4:-0.087679785 5:0.56487247 6:0.90507085 7:-0.038922235 8:-0.64476873 9:-1.2094572 10:-1.336326 11:0.15542284 12:-2.1947639 13:-1.5281451 14:-1.2422918 15:0.022019499 16:-1.698138 17:-1.6779139 18:0.2706651 19:-1.1078379 20:-1.749095 21:-1.9016135 22:-0.21021701 23:1.7205673 24:1.176726 25:0.065447374 26:0.24301048 27:0.76443428 28:-0.1789703 29:0.19629316 30:-1.13371 31:-0.058874565 32:-0.56253402 33:-1.2199623 
0.001 1:-0.23866049 2:-0.47023232 3:0.90423957 4:-0.59772462 5:0.75741309 6:1.0196001 7:-0.029262958 8:-0.45994153 9:-1.1551986 10:-1.3192059 11:-0.50429965 12:-2.2531065 13:-1.2385732 14:-1.2528413 15:-0.68784758 16:-2.1332354 17:-1.9326038 18:0.19904995 19:-1.1219814 20:-1.3072259 21:-1.6831184 22:-0.31427863 23:1.7166836 24:1.275189 25:0.081233946 26:0.23194332 27:0.51999225 28:-0.27578838 29:0.5827973 30:-1.1616434 31:-1.09274 32:-0.78313833 33:-1.223269 
0.001 1:-0.33829271 2:-0.42221532 3:1.2196925 4:-1.1022654 5:0.95354003 6:1.0003681 7:-0.18068605 8:-0.65551387 9:-1.4692077 10:-2.0019674 11:-0.73396758 12:-2.4372552 13:-1.3283465 14:-1.3444054 15:-0.85193999 16:-1.564229 17:-1.7894309 18:0.25099649 19:-0.96764844 20:-0.77809168 21:-1.5148876 22:-0.36063653 23:1.5074845 24:0.90119387 25:-0.82036889 26:-0.41850379 27:0.43846919 28:-0.47513865 29:0.6013237 30:-1.1458675 31:-1.1644022 32:-0.83176153 33:-1.2654692 
0.001 1:-0.65758118 2:-0.0031265411 3:1.4310289 4:-1.133635 5:1.0007226 6:1.1636548 7:0.023190714 8:-0.80722087 9:-1.5766285 10:-1.7664057 11:-0.11020682 12:-1.8001509 13:-1.777673 14:-1.93008 15:-0.8022699 16:-1.216903 17:-1.8341655 18:0.087569514 19:-1.2931887 20:-0.77355689 21:-1.4773285 22:-0.094485259 23:1.754292 24:0.8248232 25:-0.77796665 26:-0.35526905 27:0.77088087 28:0.20405622 29:0.52770484 30:0.32673677 31:-1.2121756 32:-0.91105055 33:-1.2692901 
0.001 1:-0.68525402 2:0.13656972 3:1.3466185 4:-0.96279267 5:1.1093769 6:1.4749936 7:0.32659104 8:-1.1664646 9:-1.8344554 10:-2.005526 11:0.094251633 12:-0.91174322 13:-1.352034 14:-1.6546129 15:-0.41264663 16:-0.86234032 17:-1.6739186 18:0.099223671 19:-1.3127169 20:-0.8202805 21:-1.4189095 22:0.022203713 23:1.1452545 24:1.1859057 25:-1.3158308 26:-0.70130764 27:0.64474619 28:-0.26622968 29:-0.45384429 30:-0.35363559 31:-1.1869991 32:-0.93945576 33:-1.1310684 
0.001 1:-1.0693932 2:0.69534902 3:1.5892209 4:-1.2512353 5:1.2720782 6:1.468765 7:0.17123725 8:-1.2812651 9:-1.9239488 10:-1.9168546 11:0.71479204 12:-0.87407347 13:-1.0672357 14:-1.2599533 15:-0.25832485 16:-0.98278828 17:-1.9122381 18:-0.67449856 19:-1.5519526 20:-0.4977636 21:-1.3456061 22:0.015015015 23:1.0650394 24:1.2640529 25:-1.4430441 26:-0.73096027 27:-0.059969931 28:-0.29441517 29:-0.079284006 30:0.4679294 31:-1.1988738 32:-0.91742266 33:-1.2347723 
0.001 1:-0.88796574 2:0.69971524 3:1.4551573 4:-0.87001474 5:1.3912393 6:1.5296495 7:0.37969244 8:-1.2579595 9:-1.4666217 10:-1.4275233 11:-0.16134801 12:-1.6900749 13:-1.5177984 14:-1.4553628 15:-0.45378532 16:-0.67983275 17:-1.3819812 18:-0.78297951 19:-1.5933204 20:-0.6570683 21:-1.3593425 22:-0.11350737 23:0.9067354 24:1.2601461 25:-0.42004608 26:0.56741021 27:-0.77147411 28:-1.9718107 29:-0.46714563 30:0.15020948 31:-1.1706633 32:-1.1395499 33:-1.125197 
0.001 1:-0.65947441 2:0.44215385 3:1.4980607 4:-0.61182657 5:1.7589773 6:1.7453473 7:0.23792863 8:-1.3397528 9:-1.0853016 10:-1.6094934 11:-0.89223941 12:-1.2885338 13:-1.1937969 14:-1.3228544 15:-0.39926275 16:-0.42563128 17:-1.275258 18:-0.99361922 19:-1.5423985 20:-0.69237379 21:-1.8995017 22:-0.57974032 23:0.84481528 24:1.1806098 25:-0.45105724 26:0.53146629 27:-0.85091053 28:-2.0098456 29:-0.81247366 30:0.09586812 31:-1.2043632 32:-1.1909954 33:-1.0661664 
0.001 1:-0.45459979 2:0.11474433 3:1.3819188 4:-1.0416126 5:1.8771578 6:1.691433 7:0.32172446 8:-1.2136036 9:-0.75304552 10:-1.6350415 11:-1.582325 12:-0.85333769 13:-0.56561487 14:-1.0359336 15:-0.40620687 16:-0.43556323 17:-1.492623 18:-1.18136 19:-1.5677858 20:-1.0676392 21:-1.9182818 22:-0.55547257 23:0.82309479 24:1.2120877 25:-0.40439856 26:0.52517307 27:-0.73310327 28:-1.8871099 29:0.31063676 30:0.86533072 31:-1.1995143 32:-1.1796377 33:-1.0314158 
0.001 1:-0.56930278 2:0.63423334 3:1.7414389 4:-1.2104403 5:2.3184154 6:1.733827 7:0.38553431 8:-1.1627169 9:-1.1724919 10:-1.8667831 11:-1.5115083 12:-0.52262006 13:-0.57191475 14:-0.93154691 15:-0.28846058 16:0.002792595 17:-0.84451487 18:-1.2235132 19:-1.7370905 20:-1.117886 21:-1.6410608 22:-0.61193235 23:0.82694757 24:1.2722273 25:-0.75699222 26:0.19730256 27:-0.72230777 28:-1.6423305 29:0.30642004 30:0.9042236 31:-1.3406615 32:-1.7399843 33:-1.4251813 
0.001 1:-0.64455933 2:0.73900553 3:1.7651794 4:-1.0940272 5:1.6521722 6:0.96329268 7:-0.37500698 8:-1.2134299 9:-1.1198923 10:-1.9341042 11:-1.1119909 12:-0.5136031 13:-0.98939105 14:-0.98151688 15:0.17088824 16:0.47671535 17:0.12881112 18:-1.1907348 19:-1.7369216 20:-1.1317225 21:-0.79920553 22:-0.7246791 23:0.95040625 24:1.2389293 25:-0.38553054 26:-0.0372006 27:-0.19628692 28:-1.6331723 29:0.40333728 30:1.0087899 31:-2.1566917 32:-1.9360601 33:-1.3744853 
0.001 1:-0.8584803 2:1.0489559 3:1.174384 4:-0.70428074 5:0.91260554 6:0.48147449 7:-0.44531381 8:-1.1695449 9:-0.9277845 10:-1.378769 11:-0.72756334 12:-0.11216097 13:-0.91900347 14:-1.1349623 15:-0.39913535 16:0.63226128 17:0.67867727 18:-1.2371012 19:-0.22134824 20:-1.2050146 21:0.092997305 22:-1.4176702 23:0.93660417 24:1.2021985 25:-0.10095672 26:-0.20500146 27:-0.11339502 28:-1.5030233 29:0.48859039 30:0.9778874 31:-1.7888488 32:-1.8823625 33:-1.1002836 
0.001 1:-1.2387441 2:1.6208339 3:1.2847847 4:0.40714788 5:0.9119331 6:0.74683986 7:0.58169498 8:-0.10632156 9:-0.60826183 10:-1.3946221 11:-1.3263408 12:-0.78486591 13:-1.1851086 14:-1.3315688 15:-0.62126311 16:0.34108492 17:0.73585245 18:-1.1135853 19:-0.17760911 20:-0.44163903 21:0.093937736 22:-2.0355779 23:-1.0718811 24:-1.2962209 25:-2.1249621 26:-0.19339691 27:-0.23131752 28:-0.87813356 29:0.68256621 30:1.0186528 31:-1.6091444 32:-1.2248148 33:-1.1777297 
0.001 1:-1.1788002 2:1.3239822 3:1.3612041 4:0.81653638 5:0.9434535 6:0.93339644 7:1.0712347 8:-0.09358391 9:-0.81897049 10:-1.556742 11:-1.3593344 12:-0.58840088 13:-0.96158396 14:-1.2618313 15:-0.69243836 16:0.3606392 17:0.31257049 18:-1.1744128 19:-0.14425839 20:-0.56113728 21:0.10698656 22:-1.6083621 23:-1.3612054 24:-1.2973289 25:-1.6451947 26:-0.0596091 27:-0.21778903 28:-1.0638447 29:0.69985544 30:0.95908516 31:-1.6366031 32:-1.2333464 33:-1.1076439 
0.001 1:-0.80530308 2:0.73900553 3:0.69111876 4:0.64519039 5:0.85236655 6:0.93434018 7:1.2938414 8:0.031388379 9:-0.74346676 10:-1.3875312 11:-2.5002047 12:-1.6887618 13:-0.91294299 14:-0.89132316 15:-0.39090735 16:0.31965572 17:0.071748466 18:-0.89677594 19:0.25094303 20:-0.54310298 21:0.0731404 22:-1.6071978 23:-1.0808022 24:-1.0511991 25:-1.6092318 26:-0.23746427 27:-0.23802564 28:0.58214221 29:0.64843115 30:1.0847759 31:-1.5874507 32:-1.2079491 33:-1.0941533 
0.001 1:-0.77330723 2:0.51636821 3:0.64208623 4:0.53895803 5:0.45327624 6:0.6343127 7:1.0182244 8:-0.24418815 9:-0.95207365 10:-1.1741204 11:-1.6288931 12:-0.51566604 13:-0.64532546 14:-1.0525105 15:-0.52813087 16:0.56760338 17:-0.30435377 18:-0.92915529 19:0.2140842 20:-0.55592504 21:0.12244716 22:-1.6136818 23:-1.1360492 24:-0.94907785 25:-1.2779507 26:-0.37121466 27:-0.01619092 28:1.2106084 29:0.42632437 30:1.1352565 31:-1.5752939 32:-1.2006517 33:-0.89749019 
0.001 1:-0.39267647 2:-0.14718903 3:0.13143418 4:0.42812095 5:0.62900598 6:0.66874562 7:0.87078618 8:0.045610287 9:-0.44968677 10:-0.51039024 11:-1.8138053 12:-0.91188938 13:-0.64166096 14:-1.1058544 15:-0.33064903 16:0.65946664 17:-0.54285653 18:-0.48727146 19:0.47591397 20:-0.65473384 21:0.022661604 22:-1.6879399 23:-1.0695232 24:-0.72563763 25:-0.18195403 26:-0.57441818 27:-0.050279203 28:1.2937071 29:0.42685988 30:1.1069219 31:-1.2158177 32:-1.1071171 33:-0.91797849 
0.001 1:-0.39279602 2:0.0448962 3:-0.090686272 4:-0.0033558268 5:0.70863352 6:0.64273218 7:0.59309795 8:-0.30735507 9:-0.33047967 10:-0.27050059 11:-1.2757228 12:-0.41076527 13:-0.50752597 14:-1.0748461 15:-0.25688795 16:0.75866374 17:-0.54357937 18:-0.48715274 19:0.31089185 20:-0.86304701 21:0.008569155 22:-1.6646227 23:-1.2020934 24:-1.0553569 25:-0.14104849 26:-0.61175428 27:0.17699217 28:1.4387277 29:0.42214004 30:1.1224465 31:-1.0912744 32:-0.9394031 33:-0.91838403 
0.001 1:-0.28639711 2:0.027431299 3:-0.17432087 4:-0.31496595 5:0.93986718 6:0.77905499 7:0.76988343 8:0.39703875 9:0.20943612 10:0.60972715 11:-0.12631383 12:0.30823299 13:-0.32642618 14:-0.79194097 15:-0.38982935 16:0.4133604 17:0.099819022 18:-0.55364409 19:0.24026099 20:-1.056118 21:0.10998669 22:-1.4799889 23:-1.2255216 24:-1.6025535 25:-0.97536792 26:-1.8947082 27:-0.83577847 28:-0.14789678 29:0.18269651 30:0.52453176 31:-0.99244546 32:-0.53612113 33:-1.2372077 
0.001 1:-0.74030222 2:0.51200198 3:0.22616316 4:-0.75809842 5:1.1576802 6:1.1052172 7:0.54700089 8:0.20795187 9:0.46698269 10:0.69418581 11:-0.33820413 12:0.27366552 13:0.13665437 14:-0.61130031 15:-0.55524144 16:0.033793613 17:-0.1331637 18:-0.32569134 19:0.28173911 20:-1.0121166 21:0.11034904 22:-1.9557958 23:-0.99665888 24:-1.3245363 25:-0.36227196 26:-1.8018001 27:-0.78116867 28:-0.11421328 29:0.33469486 30:0.63778553 31:-0.98061079 32:-0.47304239 33:-1.2119225 
0.001 1:-1.559809 2:1.8041866 3:0.7102042 4:-0.86717276 5:0.87965621 6:1.0307901 7:0.43531333 8:0.61938364 9:0.74909624 10:0.64990539 11:-0.36046317 12:0.37317492 13:-0.098375829 14:-0.86224127 15:-1.0757427 16:-0.37861634 17:-0.22414503 18:-1.856909 19:0.23212091 20:-1.0915069 21:0.2563894 22:-1.9223991 23:-1.1053612 24:-0.4480328 25:-0.40698303 26:-1.802713 27:-0.78671716 28:-0.15389173 29:0.17377931 30:0.25105773 31:-1.3986694 32:-0.6529428 33:-1.1977361 
0.001 1:-1.8193037 2:1.9875337 3:0.75597824 4:-0.30514494 5:0.40430054 6:1.0936632 7:0.55630305 8:0.32424689 9:0.5887999 10:0.8166297 11:0.23902713 12:0.58224832 13:-0.42415247 14:-0.87322933 15:-1.0075013 16:-0.24823227 17:-0.32532342 18:-1.7989779 19:0.21889867 20:-1.4761378 21:0.22671354 22:-1.8881546 23:-1.1504124 24:-0.39282284 25:-0.051112919 26:-1.9552746 27:-0.56596297 28:0.13582626 29:-0.14013282 30:0.23121067 31:-1.4144573 32:-0.74496489 33:-1.1325316 
0.001 1:-1.9157889 2:2.4764706 3:0.74224603 4:0.40995388 5:-0.16435551 6:0.78615998 7:0.33672319 8:-0.17337446 9:0.61394869 10:1.0788405 11:-0.23476909 12:0.72161379 13:0.18498477 14:-0.46848673 15:-0.62125358 16:-0.22728596 17:-0.39177253 18:-1.7116468 19:0.20517169 20:-2.1612677 21:0.29338698 22:-1.8141326 23:-1.3114079 24:-0.062879518 25:-0.083711294 26:-2.3576877 27:-0.34144458 28:0.18412232 29:0.45709078 30:0.86753497 31:-0.95498634 32:-0.72305403 33:-1.1073769 
0.001 1:-1.757069 2:2.3236757 3:0.65729252 4:1.2790231 5:-0.67333294 6:0.25665611 7:-0.079305504 8:-0.21972031 9:0.72263988 10:1.0643829 11:-0.67604696 12:1.0133889 13:0.86622688 14:0.20811529 15:-0.54900624 16:-0.3151638 17:-0.41134154 18:-1.6102503 19:0.27236432 20:-1.1775534 21:0.39070659 22:-1.2750173 23:-1.8143633 24:-0.045068866 25:-0.32906141 26:-2.3581709 27:-0.7168439 28:0.83196846 29:0.61524425 30:-1.0691431 31:-0.9990138 32:-0.73775366 33:-1.1038698 
-0.0008118988100790837 1:0.84674073 2:-0.73652617 3:-0.95837581 4:0.11715836 5:-0.4510931 6:-1.4381742 7:-1.5704128 8:-1.0939757 9:-1.134195 10:-0.16426274 11:1.1730805 12:0.49268034 13:0.97998213 14:0.34126495 15:-1.2264425 16:0.0042952521 17:0.85549595 18:1.7031345 19:1.8198001 20:0.94019283 21:1.8473564 22:-0.19235468 23:-1.0920405 24:-0.68871539 25:-0.59280397 26:-0.03102544 27:1.7233771 28:-1.430549 29:-0.81242066 30:1.1272594 31:-0.096315766 32:-0.48901283 33:0.78681529 
-0.001 1:0.77669682 2:-0.27378661 3:-0.93921278 4:0.4793125 5:-0.61359828 6:-1.3937242 7:-1.409924 8:-0.79793507 9:-0.87209157 10:0.21878363 11:0.89612956 12:0.19059078 13:0.81314721 14:0.18381714 15:-1.8055648 16:-0.67230063 17:0.32320631 18:1.7683516 19:1.8353609 20:0.88103944 21:1.7887928 22:-0.16689742 23:-1.1876621 24:-0.87680392 25:-0.39314489 26:0.11502559 27:1.5830957 28:-1.5927766 29:-0.90182024 30:1.0102976 31:-0.36100474 32:-0.90084565 33:0.60106044 
-0.001 1:1.0851792 2:-0.81947297 3:-1.4217797 4:0.49017676 5:-0.73928763 6:-1.5276675 7:-1.6972345 8:-0.5454723 9:-0.66140606 10:0.029360998 11:-0.64827371 12:-0.37648115 13:1.0779345 14:0.44740603 15:-1.521407 16:-0.53345594 17:0.54374307 18:1.7049385 19:1.7291171 20:0.88715007 21:1.808286 22:-0.45913661 23:-1.3532696 24:-0.72831316 25:-0.14712088 26:-0.023925813 27:1.5853664 28:-0.68053877 29:-0.95145082 30:1.2325278 31:-0.35681737 32:-0.81076398 33:0.57573303 
-0.001 1:0.77644939 2:-0.51825506 3:-1.1621091 4:-0.49156421 5:-0.71956286 6:-1.4055883 7:-1.5830718 8:-0.44263183 9:-0.49421051 10:0.49301889 11:0.040311128 12:-0.02468404 13:1.1131437 14:0.21137189 15:-1.9459412 16:-0.85130949 17:0.45924943 18:1.9264046 19:1.8692792 20:1.3335557 21:1.8102705 22:-0.26004077 23:-1.1702046 24:-0.76181519 25:-0.21770544 26:-0.50058657 27:1.312149 28:-0.84027112 29:-0.99642846 30:1.837074 31:-0.065387239 32:-1.3223337 33:0.47874475 
-0.001 1:-0.11853915 2:0.48144414 3:0.21584461 4:-0.65877315 5:0.062507322 6:-1.0239546 7:-1.4952074 8:-0.72799867 9:-0.76179284 10:0.26417311 11:-0.74483656 12:-0.34560932 13:0.97926929 14:0.030961143 15:-2.3613711 16:-1.3675192 17:-0.57005271 18:1.3664774 19:-0.17195116 20:1.25347 21:2.1888508 22:0.61635531 23:-1.1477848 24:-0.84124676 25:-0.59987279 26:-0.56325425 27:1.199684 28:-0.82477026 29:-1.0015025 30:1.8334921 31:-0.20074196 32:-1.4204477 33:0.46643488 
-0.001 1:0.47557055 2:-0.27815284 3:-0.079979802 4:-0.7244264 5:0.51724164 6:-0.84357272 7:-1.092515 8:-0.29764355 9:-0.21784261 10:0.69547205 11:-0.47399492 12:0.28684859 13:1.6426836 14:0.56714467 15:-1.389859 16:-0.74479139 17:-0.25630996 18:1.2345847 19:-0.16308758 20:1.2695857 21:1.6394885 22:-0.13555207 23:-0.93991889 24:-1.435319 25:-2.2296311 26:-0.36359571 27:1.1344824 28:-1.1438351 29:-1.9184223 30:0.33550913 31:0.46773964 32:-0.27901933 33:0.3447312 
-0.001 1:0.54427447 2:-0.22140338 3:-0.17688111 4:-1.3862831 5:1.3280584 6:-0.16814014 7:0.077452113 8:0.028594884 9:-0.71190092 10:0.43209498 11:0.075891413 12:1.517976 13:1.5811591 14:0.67281865 15:-1.0137293 16:-0.48815641 17:0.21736039 18:1.3007153 19:-0.14576376 20:0.25792264 21:0.94688717 22:0.27102849 23:0.42611535 24:-0.92836365 25:-0.54863431 26:0.14942572 27:1.2045164 28:-0.37711693 29:-1.98341 30:0.35787399 31:0.93663765 32:0.11945233 33:0.51925003 
-0.001 1:0.32482116 2:0.057989138 3:-0.32816818 4:-1.9703632 5:1.0857016 6:-0.0086620665 7:0.056079545 8:-0.0043776942 9:-0.79445788 10:-0.30888809 11:-0.81425876 12:0.81208247 13:1.5862781 14:0.7716575 15:-1.0146398 16:-0.57457305 17:0.16146119 18:1.3675418 19:-0.2196247 20:0.63833778 21:0.814611 22:0.26476223 23:0.42484914 24:-0.96678677 25:-0.72458967 26:-0.058185949 27:0.9225604 28:0.56923163 29:-1.9993249 30:0.13323455 31:0.93748099 32:0.21927032 33:0.55433409 
-0.001 1:-0.25379242 2:0.41159601 3:0.20288823 4:-1.5646441 5:0.60308921 6:0.095149005 7:0.33934365 8:0.016103573 9:-0.70948509 10:-0.060174429 11:-1.3716718 12:0.095296698 13:1.5051684 14:0.73606304 15:-1.3293562 16:-0.95645692 17:0.41060557 18:0.33549593 19:-1.0214841 20:0.85597019 21:0.79754877 22:0.19335891 23:0.43116855 24:-0.95129535 25:-0.48918412 26:0.28814811 27:0.50610061 28:0.31348503 29:-2.0278139 30:0.055894062 31:0.91862924 32:0.065887741 33:0.58542215 
-0.001 1:-0.51625067 2:0.49017086 3:0.58001974 4:-1.088667 5:0.33389097 6:0.0042199437 7:0.57215638 8:0.076875626 9:-0.72586542 10:0.15729553 11:-0.60158683 12:0.67168978 13:1.7257566 14:0.72658202 15:-1.2520586 16:-0.79613468 17:0.42340176 18:0.24574738 19:-1.5213641 20:0.75594287 21:0.96213671 22:0.15068008 23:0.60603847 24:-0.80731626 25:-0.55074155 26:0.34454837 27:0.49361352 28:0.67689792 29:-1.7471837 30:0.036313166 31:0.98567523 32:0.13220884 33:0.58620299 
-0.001 1:-1.2050719 2:1.4942363 3:1.274311 4:-0.40680855 5:0.10086415 6:-0.12117574 7:0.67885668 8:-0.03023636 9:-0.9103573 10:-0.37852762 11:-1.456288 12:-0.40261363 13:1.203812 14:0.87425345 15:-0.79822355 16:-0.64022155 17:0.80263624 18:-0.64911996 19:-2.1600537 20:0.46671036 21:0.82731662 22:-0.25153912 23:0.73077264 24:-0.76478137 25:-0.080852826 26:1.6211123 27:0.96038098 28:0.20685133 29:-1.3612693 30:-0.19599376 31:0.93905254 32:0.12192129 33:0.5463266 
-0.001 1:-0.56458778 2:0.93545125 3:0.60779449 4:0.7645534 5:0.13274878 6:-0.073173232 7:1.0948139 8:0.54149715 9:0.005653844 10:0.15610319 11:-1.2945614 12:-0.68582383 13:0.64474238 14:0.88478797 15:-0.62908427 16:-0.22150837 17:1.6606803 18:0.17716224 19:-0.77146288 20:-0.10731231 21:0.78341383 22:-0.48845642 23:0.2241931 24:-0.63395143 25:2.2046735 26:2.066196 27:1.0812997 28:-0.23649424 29:-1.7671648 30:-0.17014838 31:1.096624 32:0.27660658 33:0.12702726 
-0.001 1:-0.42491697 2:0.45961302 3:0.49103191 4:0.52780597 5:0.58412093 6:0.36469378 7:1.4025834 8:0.37721864 9:-0.092743906 10:0.23075301 11:-0.36158977 12:0.1483288 13:0.72108608 14:1.0216975 15:0.045925617 16:0.43748222 17:1.4982685 18:0.21184727 19:-0.75791515 20:-0.1813996 21:1.1863477 22:0.39123663 23:-0.15548827 24:-0.39768329 25:2.1392826 26:2.0513348 27:0.97973352 28:0.64138151 29:-1.6992143 30:-0.53202768 31:0.76236587 32:0.39458644 33:0.10159046 
-0.001 1:-0.10097743 2:-0.14718903 3:0.20925004 4:-0.071455338 5:0.73651156 6:0.40600249 7:1.5835975 8:1.075148 9:0.53916869 10:0.25204259 11:-1.1842896 12:-0.55719068 13:0.72302158 14:0.93021151 15:-0.13131262 16:0.26193967 17:2.0526978 18:-0.084303534 19:-0.90336277 20:0.53288912 21:1.0039536 22:0.26407882 23:-0.26112374 24:-1.6267987 25:0.21072564 26:2.016854 27:1.5078321 28:1.0716272 29:-1.6982733 30:-0.72392906 31:0.77761586 32:0.45897135 33:-0.098283917 
-0.001 1:-0.20314229 2:-0.16464819 3:0.34928756 4:-0.28190549 5:0.68319305 6:0.50638241 7:1.1574539 8:1.0938068 9:0.53547046 10:0.43805108 11:-0.93352463 12:-0.61775635 13:0.41173783 14:1.0666459 15:0.26871764 16:0.9355583 17:2.2186799 18:-0.27043118 19:-0.92109198 20:0.21872657 21:0.9950868 22:0.27597844 23:0.041888492 24:-1.6338902 25:0.21565513 26:1.989689 27:1.6612968 28:0.99490698 29:-1.4384785 30:-0.66696851 31:1.3715281 32:1.023205 33:-0.04192051 
-0.0001881011899209163 1:0.026461062 2:-0.43094203 3:0.46248132 4:-0.97347707 5:0.83827343 6:0.58551475 7:1.1735954 8:1.7217414 9:0.96646051 10:1.1398715 11:0.45319565 12:0.16478625 13:0.53538567 14:1.4320329 15:1.3224683 16:1.3334295 17:1.7303897 18:-0.52205873 19:-0.84985939 20:1.1195952 21:0.87266694 22:0.14455634 23:0.0068190775 24:-1.0657003 25:0.77941908 26:2.2230226 27:1.1843006 28:0.39713632 29:-1.5242196 30:-1.2610743 31:1.2580782 32:0.81503662 33:-0.78595539 
-0.001 1:0.43477578 2:-0.67977671 3:-0.071523243 4:-1.4304957 5:0.81193638 6:0.56760397 7:1.1302494 8:1.6016086 9:0.67347574 10:0.48784049 11:0.18367237 12:-0.0024302028 13:0.8611718 14:1.3560086 15:1.2558822 16:1.0280096 17:0.69360326 18:-0.60751251 19:-0.55366087 20:0.70283642 21:0.90485684 22:0.23377317 23:0.056969157 24:-1.0015832 25:0.86025758 26:1.5901307 27:1.1510675 28:0.33849462 29:-0.82717539 30:-1.4239203 31:1.2903069 32:0.91734626 33:-0.48055237 
-0.001 1:0.11900965 2:-0.033684381 3:0.049816746 4:-1.0483757 5:0.095456648 6:0.54256798 7:1.7035135 8:1.9869133 9:0.94196601 10:-0.038867272 11:-0.52145823 12:-0.44183125 13:0.54443511 14:1.1889716 15:0.91001039 16:0.6671771 17:-0.3855336 18:-0.56489548 19:-0.53394631 20:1.0574214 21:0.81858471 22:0.24791603 23:-0.44115871 24:-1.2103433 25:1.0323218 26:0.46859992 27:0.38127821 28:0.60322907 29:-0.72040371 30:-1.8747857 31:1.1578535 32:0.98018897 33:-0.13330502 
-0.001 1:-0.016682873 2:0.14966839 3:0.21258612 4:-0.15261355 5:-0.44655416 6:0.43246083 7:1.8249662 8:2.0086452 9:0.86330559 10:0.16622812 11:-0.038651261 12:-0.50881479 13:0.23494929 14:1.0812934 15:0.75025855 16:0.49608929 17:-0.70009881 18:-0.46621442 19:-0.44787909 20:1.113484 21:0.048129806 22:0.10986408 23:-0.5150528 24:-1.2533157 25:1.3219766 26:0.26479837 27:0.046441403 28:0.6509198 29:-0.6209646 30:-1.5609883 31:1.3264815 32:1.1996397 33:-0.15557237 
-0.001 1:0.21106617 2:0.17149378 3:0.16006235 4:0.03632392 5:-0.38995753 6:0.2386577 7:1.7369416 8:2.0877566 9:1.0621847 10:0.43946851 11:0.090535192 12:-0.050973584 13:0.68031015 14:1.1482221 15:0.89804042 16:0.98924113 17:0.035902376 18:-0.67988578 19:-0.47923946 20:1.1425182 21:-0.01119436 22:0.30263924 23:-0.54977974 24:-1.1559567 25:1.322462 26:0.14967152 27:0.095023467 28:1.2123371 29:-0.064587747 30:-1.484508 31:1.2459 32:1.0684125 33:0.19743737 
-0.001 1:0.78774204 2:-0.09480006 3:-1.6155824 4:0.94251868 5:-1.1163557 6:-1.0045743 7:-0.66023644 8:0.09245255 9:1.2849252 10:1.4735353 11:1.6080656 12:0.73359729 13:0.11368478 14:0.56302337 15:0.70912479 16:-0.37487174 17:-0.95401218 18:0.41756601 19:1.1696124 20:0.68555679 21:-0.28173996 22:1.2281442 23:-0.40981244 24:0.69800531 25:-0.69067397 26:-0.82578045 27:-2.2467428 28:-1.1132044 29:1.6198764 30:0.45727736 31:0.33188356 32:0.83731919 33:1.3778959 
-0.001 1:0.60654252 2:-0.12099741 3:-1.558326 4:1.8855152 5:-1.4357624 6:-1.2170364 7:-0.52936086 8:0.34237751 9:1.3033147 10:1.2719126 11:1.587249 12:1.4181793 13:0.070373723 14:0.070687117 15:0.22977666 16:-0.73244059 17:-1.3844325 18:0.57032121 19:1.2160895 20:-0.58764768 21:-0.200417 22:1.2248978 23:-0.32098589 24:1.0380825 25:-0.64578188 26:-1.1977338 27:-2.2735608 28:-0.065368884 29:1.6561627 30:0.64180829 31:-0.075172262 32:0.90888305 33:1.6404508 
-0.001 1:0.34773729 2:-0.14718903 3:-1.1889528 4:2.3680756 5:-1.6316092 6:-1.2088596 7:-0.87597673 8:-0.79752367 9:0.57112811 10:0.73267263 11:0.52986835 12:0.70277127 13:-0.9474554 14:-0.13667097 15:0.81597813 16:0.059710873 17:0.27601974 18:0.56722278 19:1.0255286 20:-0.65554036 21:-0.39288913 22:1.2200746 23:0.014014609 24:0.84951336 25:0.94457167 26:-0.40557931 27:-0.97838003 28:0.95488433 29:1.3044318 30:0.54919786 31:0.24943087 32:1.1776527 33:1.6906983 
-0.001 1:0.373111 2:-0.28251906 3:-1.1628849 4:1.7620511 5:-1.2579033 6:-1.2775839 7:-1.8310187 8:-1.5167246 9:0.24551755 10:0.59885562 11:0.16767063 12:0.50416671 13:-1.0337749 14:-0.26730559 15:0.77665362 16:0.27297883 17:1.3150836 18:0.54706897 19:1.0399195 20:-0.787261 21:-0.48369951 22:1.2140564 23:1.0072213 24:1.2299761 25:0.77928578 26:-0.42852778 27:-0.98618823 28:1.3291771 29:1.3758199 30:0.41537349 31:0.26646249 32:1.1101446 33:1.3732798 
-0.001 1:0.37045604 2:-0.68414294 3:-1.1798756 4:1.207542 5:-1.3443673 6:-1.2671691 7:-1.7729818 8:-1.1745589 9:0.57878025 10:0.7736305 11:-0.018591233 12:0.49858968 13:-0.86392852 14:-0.15178106 15:1.096906 16:0.49560222 17:1.0380921 18:0.54971805 19:1.0254861 20:-0.96283536 21:-0.51436109 22:1.2313851 23:1.0519076 24:1.5122143 25:0.32195078 26:-0.43612609 27:-0.89135653 28:1.334628 29:1.3336367 30:0.27214248 31:-0.017579975 32:0.84981893 33:1.5175344 
-0.001 1:0.24251435 2:-0.72343323 3:-1.2867851 4:1.0552264 5:-1.3376709 6:-1.0327987 7:-1.7881431 8:-1.4088801 9:0.72547446 10:0.92985542 11:0.024236426 12:0.44964442 13:-1.171915 14:-0.27138838 15:1.3662316 16:0.372858 17:0.62311433 18:0.62537938 19:0.98003792 20:-0.97210219 21:-0.51945641 22:1.3291272 23:1.0383238 24:1.1765546 25:0.77319035 26:-0.31601821 27:-0.86328918 28:1.2469244 29:0.7961543 30:0.094150459 31:0.062899696 32:0.78768735 33:1.2987946 
-0.001 1:-0.16889737 2:-0.30434445 3:-0.90476587 4:1.1575016 5:-1.2692787 6:-1.0198156 7:-1.3594874 8:-0.71024519 9:0.65489499 10:0.520987 11:0.1379787 12:0.6231624 13:-1.4831446 14:-0.80689299 15:0.83648902 16:-0.081836572 17:0.51961957 18:0.61968751 19:1.0968275 20:-0.88449959 21:-0.62050086 22:1.3126053 23:1.0938045 24:1.3491177 25:0.64566355 26:-0.1615889 27:-0.82375148 28:1.3664279 29:0.484022 30:-0.69185999 31:0.33736416 32:0.50916134 33:1.2767481 
-0.001 1:-1.2769451 2:1.2846919 3:0.092565041 4:1.7319046 5:-0.84864241 6:-0.47585907 7:-0.69880459 8:-0.47512108 9:0.8568211 10:0.5922679 11:-0.09699084 12:0.35074826 13:-1.7522312 14:-0.92959009 15:0.045005558 16:-1.2268966 17:-1.1287366 18:-1.4901609 19:0.39196535 20:-0.572862 21:-0.62103925 22:0.46802417 23:0.53523636 24:1.1933144 25:1.084839 26:0.019070637 27:-0.89591465 28:1.2215791 29:0.086525527 30:-0.97280698 31:0.47609075 32:-0.041409798 33:0.98632985 
-0.001 1:-1.8933315 2:2.026824 3:0.21762902 4:2.2318047 5:-0.83334451 6:-0.352061 7:-0.48507891 8:-0.52364037 9:0.96733625 10:0.6372238 11:-0.014183822 12:0.44263999 13:-1.3231181 14:-0.92254089 15:0.5135136 16:-0.89465188 17:-1.0531493 18:-2.3395061 19:0.44870766 20:-1.0651599 21:-0.61035691 22:0.46192287 23:0.61817963 24:1.1029928 25:1.5905984 26:0.022057577 27:-0.88128819 28:1.2226419 29:0.50284874 30:-0.96711726 31:0.19799478 32:-0.1177855 33:0.97918093 
=======
nr_class 4
total_sv 781
rho 3.85404 4.30757 5.89231 1.03468 0.488106 -0.758024
label 0 1 2 3
probA -4.10803 -3.69253 -3.71305 -2.26233 -2.56913 -2.18388
probB -0.0387931 -0.195264 0.381064 0.0165845 -0.241364 -0.0693685
nr_sv 118 181 246 236
SV
0 0.5 0.1812790996506165 1:-0.32785941 2:-0.4023862 3:0.44124379 4:-0.029295065 5:-1.3074838 6:-0.50740868 7:0.90003043 8:-0.19869296 9:-0.38255846 10:-0.22261674 11:0.34105477 12:0.45237739 13:1.0074516 14:1.0945133 15:0.89133871 16:0.66678167 17:0.4855185 18:-0.063309554 19:0.0015953871 20:-0.43448939 21:-0.056862431 22:-0.077490999 23:-0.27692379 24:-0.31639411 25:-0.018145731 26:0.22637956 27:0.051081187 28:0.090576823 29:0.30795076 30:0.55476013 31:-0.0052859389 32:-0.62898799 33:-1.0184525 34:-0.44286746 35:-0.12222571 36:-0.49852947 37:-0.43709155 38:-0.9310674 39:-1.2898595 40:-1.2903643 41:-1.1559135 42:-1.4893622 43:-1.2872224 44:-1.1587699 45:-1.2965334 46:-1.4643191 47:-1.2505329 48:-0.98183155 49:-1.0518302 50:-1.1862938 51:-0.70801867 52:-0.1009527 53:-0.56682339 54:-0.42353122 55:-0.82832588 56:-1.3172354 57:-1.2163782 58:-1.2665222 59:-1.486278 60:-1.2671188 61:-0.70932404 62:-1.2597277 63:-1.2020227 64:-1.6175668 65:-1.0264466 66:-0.88265588 67:-1.3873721 68:-1.1091833 
0 0.04113906409239951 0 1:-0.3178985 2:-0.4023862 3:0.45261984 4:-0.0040198268 5:-1.3046191 6:-0.50885973 7:0.89719242 8:-0.22717116 9:-0.39569893 10:-0.15676321 11:0.3822493 12:0.49640132 13:0.96754583 14:1.0558836 15:0.91434437 16:0.69621139 17:0.44911304 18:0.037551864 19:0.0015953871 20:-0.44272225 21:0.32350734 22:0.052056812 23:-0.019573256 24:-0.049171461 25:-0.26778042 26:-0.15001074 27:0.61502523 28:0.42239755 29:0.48625838 30:-0.59375599 31:-0.5181799 32:0.30280338 33:0.30610988 34:-0.30881765 35:-0.12377318 36:-0.49852947 37:-0.45031411 38:-0.93089629 39:-1.2849312 40:-1.2923313 41:-1.1518414 42:-1.4382212 43:-1.2804617 44:-1.0582876 45:-1.1450018 46:-1.3957476 47:-1.2892134 48:-0.94441201 49:-1.0774082 50:-1.1766956 51:-0.69244661 52:-0.10614843 53:-0.56682339 54:-0.4372 55:-0.83221342 56:-1.3074765 57:-1.1937119 58:-1.304634 59:-1.4268538 60:-1.217472 61:-0.68905921 62:-1.1762378 63:-1.1914425 64:-1.4687252 65:-1.0014897 66:-0.93328901 67:-1.4154722 68:-1.1252013 
0 0.07239148123715043 0 1:-0.31440313 2:-0.4023862 3:0.38529046 4:0.2622243 5:-0.99273832 6:-0.74730823 7:0.75286995 8:0.4019794 9:-1.0476598 10:0.0099227418 11:0.1915608 12:0.52326381 13:1.2167886 14:0.99597931 15:1.0397359 16:0.75617325 17:0.30637575 18:0.014647263 19:0.0015953871 20:-0.39456532 21:-0.045649895 22:0.085546706 23:0.29879572 24:0.17540268 25:-0.013648317 26:-0.096801803 27:0.33726755 28:0.23776778 29:0.29620445 30:-0.042751156 31:-0.21971017 32:-0.048866707 33:-0.010635509 34:1.0385901 35:-0.12380684 36:-0.49852947 37:-0.44127799 38:-0.1088632 39:-0.022021245 40:-0.23681482 41:-0.40066296 42:0.28293815 43:-0.47337777 44:-0.59518331 45:-0.30397706 46:-0.96773885 47:-1.2449151 48:-0.7905761 49:-0.88512639 50:-1.3074825 51:-0.65017934 52:-0.10896695 53:-0.56682339 54:-0.4419874 55:-0.015110517 56:0.39575643 57:-0.23977941 58:-0.32078191 59:0.19899056 60:0.071468012 61:-0.69042462 62:0.54771493 63:-1.1794726 64:-1.4238401 65:-0.72602413 66:-0.55577713 67:-1.508956 68:-1.5353563 
0 0.5 0 1:-0.31240582 2:-0.4023862 3:0.36467567 4:0.23631769 5:-0.99474993 6:-0.762034 7:0.74101533 8:0.369951 9:-1.0509687 10:0.015862809 11:0.20528793 12:0.51157738 13:1.2541677 14:1.0924165 15:1.1200358 16:0.76181159 17:0.41126753 18:-0.00019926225 19:0.0015953871 20:-0.37293313 21:0.16370734 22:-0.076422068 23:-0.16781352 24:-0.090207427 25:-0.32621547 26:-0.24375579 27:0.032347792 28:0.14674746 29:0.30110549 30:0.39517242 31:0.82500044 32:0.90600149 33:0.27608231 34:0.42816321 35:-0.1238432 36:-0.49852947 37:-0.42494677 38:-0.093649561 39:-0.01791394 40:-0.24850419 41:-0.41065043 42:0.30401753 43:-0.50754129 44:-0.59646553 45:-0.30482161 46:-0.95981614 47:-1.2429204 48:-0.54549276 49:-0.8559233 50:-1.3548797 51:-0.61638709 52:-0.10872355 53:-0.56682339 54:-0.42188492 55:-0.021006927 56:0.39871156 57:-0.23469845 58:-0.32054511 59:0.18151311 60:-0.033224957 61:-0.64091064 62:0.56533993 63:-1.2437965 64:-1.3678042 65:-0.66343812 66:-0.59244911 67:-1.5517571 68:-1.4254851 
0 0.5 0 1:-0.31852154 2:-0.4023862 3:0.3688354 4:0.2526112 5:-1.0026749 6:-0.78174045 7:0.73424085 8:0.37469631 9:-1.0606501 10:0.0062471862 11:0.19427589 12:0.55569839 13:1.2795825 14:1.086459 15:1.156984 16:0.78219155 17:0.45520525 18:-0.022320098 19:0.0015953871 20:-0.36667097 21:0.20843097 22:-0.1308891 23:-0.28469305 24:-0.11388188 25:0.043980091 26:-0.11037864 27:-0.088850461 28:-0.10976326 29:0.48733538 30:0.37319277 31:-0.081501653 32:0.48849581 33:0.21181085 34:0.37333945 35:-0.12342539 36:-0.49852947 37:-0.42502284 38:-0.097875229 39:-0.010975951 40:-0.28215117 41:-0.41884205 42:0.29828698 43:-0.51678119 44:-0.5875409 45:-0.31910546 46:-0.81733615 47:-1.2787018 48:-0.54275366 49:-0.83792968 50:-1.3112832 51:-0.5589415 52:-0.10891664 53:-0.56682339 54:-0.4252133 55:-0.018571279 56:0.39736091 57:-0.24393094 58:-0.32130778 59:0.15952471 60:-0.043701332 61:-0.63362632 62:0.54117105 63:-1.195383 64:-1.3653773 65:-0.5054008 66:-0.60097068 67:-1.5694301 68:-1.4416282 
0 0.03234779993280808 0 1:-0.31025467 2:-0.4023862 3:0.3659167 4:0.26006981 5:-0.99843397 6:-0.76283945 7:0.72443018 8:0.3173418 9:-1.0533134 10:-0.017001218 11:0.21533821 12:0.57880491 13:1.3123022 14:1.1028408 15:1.2082151 16:0.83184408 17:0.38990381 18:0.031243248 19:0.0015953871 20:-0.37070371 21:0.095227537 22:0.075390139 23:0.27599544 24:-0.16379511 25:-0.53874984 26:0.08460461 27:-0.21599944 28:0.21717956 29:0.25415925 30:0.48132394 31:0.21707431 32:0.67872391 33:0.51683293 34:-0.55416094 35:-0.12305976 36:-0.49852947 37:-0.4269886 38:-0.10206436 39:-0.015611491 40:-0.25984997 41:-0.42537697 42:0.3445797 43:-0.51051048 44:-0.57299721 45:-0.29352136 46:-0.78534549 47:-1.2419498 48:-0.51920372 49:-0.74987063 50:-1.2885474 51:-0.4504769 52:-0.10782701 53:-0.56682339 54:-0.42530112 55:-0.016471141 56:0.39507803 57:-0.26524438 58:-0.31949818 59:0.13300194 60:-0.045208438 61:-0.63761889 62:0.53935638 63:-1.1593884 64:-1.3499033 65:-0.47289823 66:-0.58830195 67:-1.6105514 68:-1.0769168 
0.4495650919793153 0 0.3140105787731026 1:-0.31835974 2:-0.4023862 3:0.35466321 4:0.25245824 5:-1.1236923 6:-0.64283929 7:0.81134065 8:0.067472292 9:-0.95956895 10:-0.14828483 11:0.35508473 12:0.67830634 13:1.3152712 14:1.1817598 15:1.2211548 16:0.85554227 17:0.51014434 18:-0.029727906 19:0.0015953871 20:-0.36791123 21:-0.097863865 22:-2.1203388 23:1.7442436 24:1.4261627 25:-2.3452617 26:1.0746101 27:-1.2236096 28:1.4269733 29:1.1018363 30:0.040921899 31:1.0529122 32:0.16873961 33:0.2463869 34:1.0211908 35:-0.12353844 36:-0.49852947 37:-0.41873458 38:-0.09669705 39:-0.77598609 40:-0.84675281 41:-0.86687546 42:-0.4660722 43:-0.71243845 44:-0.88838811 45:-0.88289563 46:-1.0512502 47:-1.2404304 48:-0.55942272 49:-0.77610003 50:-1.2667447 51:-0.56704317 52:-0.1079888 53:-0.56682339 54:-0.42717875 55:-0.014763082 56:-0.37241791 57:-0.93619139 58:-0.93544077 59:-0.78805387 60:-0.27426296 61:-0.96427702 62:0.09813931 63:-1.4882662 64:-1.3350709 65:-0.56768817 66:-0.48770071 67:-1.6213753 68:-0.94541797 
0 0 0.5 1:-0.3125688 2:-0.4023862 3:0.36568688 4:0.050297923 5:-1.1926414 6:-0.54889543 7:0.88254712 8:-0.16391965 9:-0.79314145 10:-0.22328235 11:0.29890955 12:0.72059443 13:1.2322071 14:1.2750056 15:1.2116743 16:0.78753304 17:0.56371336 18:0.029761708 19:0.0015953871 20:-0.36077405 21:-0.78572204 22:-0.36514749 23:0.18104189 24:0.2549109 25:-0.59321657 26:0.90298736 27:0.034583923 28:-0.41804811 29:0.494141 30:-0.38221508 31:0.71423687 32:0.0083366142 33:-0.73999057 34:0.21637534 35:-0.12391061 36:-0.49852947 37:-0.41291641 38:-0.80224416 39:-0.98258978 40:-1.3038494 41:-1.1490889 42:-1.2214655 43:-0.8763589 44:-1.023564 45:-0.9327339 46:-1.1507048 47:-1.186676 48:-0.75949745 49:-0.76467184 50:-1.2455808 51:-0.69233922 52:-0.10853314 53:-0.56682339 54:-0.41631263 55:-0.64635358 56:-0.81759028 57:-1.3011529 58:-1.1333338 59:-1.148634 60:-0.29550711 61:-1.0196182 62:-0.29381006 63:-1.2683029 64:-1.3417525 65:-0.54243475 66:-0.50460261 67:-1.7094955 68:-0.7778584 
0 0 0.4515100846918333 1:-0.31489148 2:-0.4023862 3:0.38068641 4:0.051945066 5:-1.1968517 6:-0.51736488 7:0.90789107 8:-0.21681562 9:-0.74629845 10:-0.26935524 11:0.22204405 12:0.77801072 13:1.2522669 14:1.2008019 15:1.1390503 16:0.82444473 17:0.59693481 18:0.010457774 19:0.0015953871 20:-0.37717891 21:-0.046196049 22:0.012371046 23:0.16388601 24:0.12921846 25:-0.073153772 26:-0.086899314 27:-0.82112501 28:-0.57092509 29:0.43519191 30:0.10053278 31:-0.22246935 32:0.073670646 33:0.528543 34:-0.04309843 35:-0.12303219 36:-0.49852947 37:-0.41264958 38:-0.79852385 39:-0.9800141 40:-1.3115072 41:-1.1488985 42:-1.2292821 43:-0.89276713 44:-1.0663806 45:-1.0019424 46:-1.1408841 47:-1.2329618 48:-0.88669485 49:-0.82839264 50:-1.2760692 51:-0.81151573 52:-0.10730519 53:-0.56682339 54:-0.41190062 55:-0.73858281 56:-0.84006671 57:-1.3047376 58:-1.1148046 59:-1.1704488 60:-0.36511944 61:-1.1188978 62:-0.31617315 63:-1.2484281 64:-1.3638615 65:-0.95856232 66:-0.69231341 67:-1.6900488 68:-0.93736446 
0 0.2067596705588703 0 1:-0.32029633 2:-0.4023862 3:0.37779835 4:0.044302757 5:-1.2173959 6:-0.48757791 7:0.88902586 8:-0.28762289 9:-0.67408247 10:-0.32764663 11:0.27579193 12:0.70164632 13:1.2397204 14:1.2386643 15:1.0845413 16:0.95170784 17:0.68313095 18:-0.019673393 19:0.0015953871 20:-0.38260408 21:-0.098258769 22:-0.34485397 23:0.43409158 24:-0.31263788 25:-0.66498749 26:0.82795036 27:-0.54283515 28:0.55035744 29:-0.84956978 30:-0.18875343 31:0.50417322 32:-0.72957487 33:1.3255401 34:0.73213505 35:-0.12272392 36:-0.49852947 37:-0.41362756 38:-0.7876529 39:-1.0317492 40:-1.3613667 41:-1.1978655 42:-1.2192258 43:-1.1854868 44:-1.1539745 45:-1.2084734 46:-1.1820846 47:-1.2355996 48:-0.99256577 49:-0.97654867 50:-1.6217856 51:-0.71353405 52:-0.10683729 53:-0.56682339 54:-0.41293655 55:-0.73885399 56:-0.8962871 57:-1.3232885 58:-1.2071622 59:-1.1353572 60:-0.70280971 61:-1.0962969 62:-0.68088716 63:-1.2163656 64:-1.3985978 65:-1.058504 66:-1.006477 67:-1.8288239 68:-0.83124721 
0 0 0.5 1:-0.3215427 2:-0.4023862 3:0.37664926 4:0.0078649158 5:-1.2123455 6:-0.47012813 7:0.88187112 8:-0.2971092 9:-0.69004698 10:-0.36967402 11:0.28528446 12:0.68164748 13:1.2322467 14:1.2408458 15:1.0587333 16:0.97091609 17:0.72375077 18:-0.0041851131 19:0.0015953871 20:-0.37975073 21:-0.46720487 22:0.089115484 23:0.25492024 24:-0.12013318 25:-0.089565309 26:-0.18236666 27:-0.39114486 28:0.099246038 29:-0.22413733 30:-0.11366229 31:0.027279762 32:-0.3473199 33:0.19960189 34:0.34516836 35:-0.1227182 36:-0.49852947 37:-0.41334066 38:-0.85577114 39:-1.0309473 40:-1.3404165 41:-1.2084863 42:-1.2199086 43:-1.1909831 44:-1.1425126 45:-1.2030016 46:-1.203485 47:-1.2476799 48:-0.99896924 49:-0.91269673 50:-1.6444262 51:-0.70632685 52:-0.10669423 53:-0.56682339 54:-0.41390661 55:-0.80421871 56:-0.94492932 57:-1.3492436 58:-1.2191266 59:-1.1254048 60:-1.0353849 61:-1.1215147 62:-0.81548085 63:-1.1932099 64:-1.3923648 65:-1.0579736 66:-1.1288774 67:-2.0028378 68:-0.7954812 
0 0 0.5 1:-0.31922621 2:-0.4023862 3:0.37690206 4:0.0070455028 5:-1.212179 6:-0.45336353 7:0.88873983 8:-0.33672034 9:-0.69660507 10:-0.34432589 11:0.31568953 12:0.70191137 13:1.2232508 14:1.248246 15:1.0788024 16:0.97631973 17:0.76774323 18:0.0090823077 19:0.0015953871 20:-0.37857895 21:-0.010836417 22:0.0063056095 23:0.24496939 24:0.11038978 25:-0.37225102 26:-0.074593871 27:0.23724517 28:0.31241568 29:0.22261758 30:-0.13619459 31:0.097030575 32:0.2636938 33:0.055756613 34:0.37380327 35:-0.12276631 36:-0.49852947 37:-0.41327363 38:-0.85619709 39:-1.0308787 40:-1.3060739 41:-1.1903877 42:-1.2277279 43:-1.1943749 44:-1.1617165 45:-1.3009992 46:-1.2583135 47:-1.2539217 48:-1.0021713 49:-0.94193181 50:-1.6617664 51:-0.76163476 52:-0.10673208 53:-0.56682339 54:-0.41361507 55:-0.84132412 56:-0.94590312 57:-1.3497465 58:-1.2065418 59:-1.1282478 60:-1.0340622 61:-1.1495592 62:-0.86682678 63:-1.3147205 64:-1.3911309 65:-1.0479684 66:-1.0908506 67:-1.9799163 68:-0.79950555 
0 0 0.5 1:-0.31739718 2:-0.4023862 3:0.37100336 4:-0.0043279203 5:-1.2114658 6:-0.43819025 7:0.89865763 8:-0.34148629 9:-0.68731197 10:-0.32807703 11:0.31855872 12:0.76867089 13:1.2050969 14:1.2244336 15:1.0766824 16:0.95070077 17:0.80930463 18:0.0072681879 19:0.0015953871 20:-0.37880722 21:-0.14606274 22:0.015575709 23:0.22185879 24:0.16051508 25:-0.04527112 26:0.10701919 27:0.15237778 28:0.031730829 29:0.73853195 30:-0.27175839 31:-0.3201408 32:-0.031832062 33:-0.26750107 34:0.35316224 35:-0.12287387 36:-0.49852947 37:-0.41536977 38:-0.86508868 39:-1.0312053 40:-1.3155842 41:-1.1761941 42:-1.2294987 43:-1.1871795 44:-1.1601411 45:-1.2974682 46:-1.2207228 47:-1.2023867 48:-0.94660215 49:-0.93731008 50:-1.599164 51:-0.77978468 52:-0.10671993 53:-0.56682339 54:-0.41355337 55:-0.84318999 56:-0.94627773 57:-1.3463804 58:-1.2091845 59:-1.1237332 60:-1.0307016 61:-1.1563165 62:-0.94714688 63:-1.1943961 64:-1.3629204 65:-1.0023847 66:-1.0779095 67:-1.9981496 68:-0.80118189 
0.5 0 0.5 1:-0.31729639 2:-0.4023862 3:0.22110758 4:-0.00016359558 5:-1.2456933 6:-0.46782057 7:0.91320383 8:-0.33898607 9:-0.52565967 10:-0.1295029 11:0.32224404 12:0.79469662 13:1.2995028 14:1.2417188 15:0.9870844 16:0.88708113 17:0.90908026 18:0.0037428743 19:0.0015953871 20:-0.34896499 21:-0.082349854 22:0.033310883 23:-0.034571335 24:0.003070514 25:0.21813492 26:0.15163558 27:0.007944348 28:-0.71720313 29:-0.035787097 30:0.35895215 31:0.70181498 32:0.73582291 33:0.67045338 34:0.60210061 35:-0.12268131 36:-0.49852947 37:-0.07590892 38:-0.85421217 39:-1.2982145 40:-1.2380085 41:-1.2604104 42:-1.3830587 43:-1.3633767 44:-1.3131372 45:-1.3070214 46:-1.1105163 47:-1.2080119 48:-1.087519 49:-1.1646698 50:-1.3660222 51:-0.64735684 52:-0.10633211 53:-0.56682339 54:-0.3866952 55:-0.8298238 56:-1.3446663 57:-1.3155142 58:-1.3529041 59:-1.3752503 60:-1.4827736 61:-1.4007094 62:-1.0657568 63:-1.0257591 64:-1.4437001 65:-1.0319994 66:-1.3912674 67:-1.9312273 68:-0.74867055 
0.5 0 0 1:-0.30391055 2:-0.4023862 3:0.20086051 4:0.089137954 5:-1.13487 6:-0.6093387 7:0.74345958 8:-0.17371437 9:-0.56959927 10:-0.028075141 11:0.50202964 12:0.92370825 13:1.0315872 14:0.95618776 15:0.87823357 16:0.77138308 17:1.0781017 18:-0.0063090185 19:0.0015953871 20:-0.15512743 21:0.24640428 22:0.078124173 23:0.23610503 24:-0.15637783 25:-0.098324962 26:0.36991788 27:0.51075136 28:0.51651997 29:0.065619577 30:-0.31695156 31:0.25369307 32:0.034811326 33:-0.22152639 34:-0.038406134 35:-0.12035869 36:-0.49852947 37:-0.31620726 38:-0.66693569 39:-0.83640098 40:-1.030266 41:-0.8142875 42:-1.0323428 43:-1.260714 44:-1.1492924 45:-0.92000233 46:-0.95647218 47:-1.0159519 48:-1.1408288 49:-1.0045672 50:-1.0065274 51:-0.68155639 52:-0.10027838 53:-0.56682339 54:-0.28310567 55:-0.46123297 56:-0.54756926 57:-1.1251973 58:-0.54785446 59:-0.85069962 60:-0.99635217 61:-0.72653735 62:-0.80174142 63:-0.74291808 64:-0.69454945 65:-0.98691142 66:-1.1323517 67:-1.1121439 68:-0.40052372 
0.5 0 0 1:-0.29473271 2:-0.4023862 3:0.21000731 4:0.062922524 5:-1.1398787 6:-0.61366644 7:0.73766929 8:-0.15678502 9:-0.52494469 10:-0.052394067 11:0.51046096 12:0.93076207 13:1.0138697 14:0.94002634 15:0.89217333 16:0.76690024 17:1.057943 18:0.034635829 19:0.0015953871 20:-0.20367242 21:-0.33623223 22:-0.081443187 23:-0.061351077 24:-0.097704514 25:0.1583117 26:0.51216919 27:-0.22598336 28:0.088428324 29:0.076037919 30:-0.26530218 31:-0.21788149 32:0.18205934 33:-0.047261145 34:-0.17087366 35:-0.11952791 36:-0.49852947 37:-0.310086 38:-0.66201103 39:-0.82981608 40:-1.0255718 41:-0.81986517 42:-1.0207648 43:-1.1875488 44:-1.1796714 45:-0.92159357 46:-0.96060387 47:-1.0211875 48:-1.1388489 49:-1.0056047 50:-1.0046272 51:-0.64600876 52:-0.10010093 53:-0.56682339 54:-0.31679597 55:-0.51816113 56:-0.54506278 57:-1.0798493 58:-0.55001796 59:-0.83211319 60:-0.9946579 61:-0.83776764 62:-0.82427771 63:-0.74153528 64:-0.69437213 65:-0.89718662 66:-1.1318783 67:-1.1095871 68:-0.39357411 
0.1645051351750077 0 0 1:-0.29881781 2:-0.4023862 3:0.25679851 4:0.025281962 5:-1.1586902 6:-0.56510542 7:0.75777256 8:-0.22697931 9:-0.53990411 10:-0.0070710178 11:0.4652046 12:0.74924595 13:1.0602686 14:0.93009873 15:0.84612521 16:0.68874498 17:0.75981667 18:0.044942036 19:0.0015953871 20:-0.23392554 21:-0.63140359 22:0.3281134 23:-0.010945435 24:-0.04876572 25:0.30122618 26:-0.57872896 27:0.15017923 28:-0.43843179 29:-1.1232783 30:0.26107994 31:-0.50340212 32:-0.030585625 33:-0.054667043 34:-0.2411448 35:-0.12048727 36:-0.49852947 37:-0.31726416 38:-0.84420302 39:-0.98165111 40:-1.2664859 41:-0.88261172 42:-1.1278835 43:-1.3671882 44:-1.1746704 45:-1.1385567 46:-1.1873545 47:-1.1929885 48:-1.1313676 49:-1.0091043 50:-0.83950524 51:-0.49075744 52:-0.09992271 53:-0.56682339 54:-0.30465661 55:-0.5944113 56:-0.88645573 57:-1.2652542 58:-0.62185919 59:-0.97688152 60:-1.3543584 61:-0.98003922 62:-1.0282262 63:-0.86428349 64:-1.1297297 65:-0.90525133 66:-1.0990996 67:-0.91754456 68:-0.35135828 
0.5 0 0 1:-0.30939291 2:-0.4023862 3:0.28412402 4:0.046138661 5:-1.1276979 6:-0.53246126 7:0.71921636 8:-0.31249443 9:-0.46800758 10:0.058258062 11:0.4617806 12:0.68519955 13:1.0833978 14:0.89777335 15:0.77649304 16:0.62980862 17:0.73520651 18:-0.05094062 19:0.0015953871 20:-0.29090122 21:-0.025437173 22:0.011393162 23:0.24325229 24:0.20573423 25:0.10616854 26:0.015419013 27:-0.40016047 28:0.2365969 29:0.30289951 30:-0.14286357 31:-0.11038139 32:0.46740499 33:0.50258677 34:-0.55771824 35:-0.11997623 36:-0.49852947 37:-0.34083289 38:-0.8415257 39:-0.90946715 40:-1.2668544 41:-0.72017002 42:-0.87507294 43:-1.1409496 44:-0.86364356 45:-1.1584059 46:-1.1630486 47:-1.1263508 48:-1.1577588 49:-0.50929378 50:-0.3103244 51:-0.60872101 52:-0.099896317 53:-0.56682339 54:-0.34674983 55:-0.79050401 56:-0.7602311 57:-1.2013467 58:-0.33974825 59:-0.32866041 60:-1.0613347 61:-0.70082758 62:-1.0765402 63:-0.92021947 64:-1.0495523 65:-0.89455316 66:-0.28687373 67:0.16104546 68:-0.64408094 
0 0.05449241602902864 0 1:-0.2746426 2:-0.4023862 3:-0.17666359 4:0.1505838 5:-1.124082 6:-0.66177287 7:0.83810914 8:-0.10744015 9:-0.37533748 10:0.35672436 11:0.60501995 12:0.92315019 13:1.087402 14:1.0875052 15:0.85293651 16:0.64848735 17:0.14789528 18:0.070289026 19:0.0015953871 20:0.12415083 21:-0.0077883181 22:0.0697238 23:0.0062872139 24:-0.29883438 25:-0.53885521 26:-0.27540116 27:0.12096852 28:0.25293897 29:0.22956431 30:0.56762296 31:0.82673171 32:0.44488651 33:0.27564486 34:0.089217543 35:-0.10987122 36:-0.49852947 37:0.012554234 38:-0.083769677 39:-0.77221892 40:-0.45586536 41:-0.83769751 42:-0.74983163 43:-1.0721938 44:-0.5118049 45:-1.0753155 46:-0.57330848 47:-1.1085964 48:-0.85459302 49:-0.51813495 50:-0.42744945 51:-1.1615847 52:-0.082940995 53:-0.56682339 54:0.015989976 55:0.42551731 56:-0.51943633 57:0.27734235 58:-0.80691882 59:-0.22845549 60:-0.73422321 61:-0.21364271 62:-0.83391877 63:-0.10464625 64:-1.4860076 65:-0.35220924 66:0.061523756 67:0.17198591 68:-1.2657724 
0.1080192662216266 0 0 1:-0.046297333 2:-0.19510256 3:-1.7135416 4:0.27361074 5:-1.0380541 6:-0.78115816 7:0.92487697 8:0.40367377 9:-0.67379252 10:0.45401473 11:0.7593374 12:1.0753979 13:1.5117312 14:1.289469 15:0.63546174 16:1.1503064 17:0.88161116 18:0.54411321 19:0.90112452 20:0.64197673 21:-0.17162043 22:0.064641058 23:0.74659074 24:0.23921388 25:0.19608862 26:1.2741918 27:0.73509878 28:0.69461364 29:0.65490458 30:0.26979065 31:0.2675404 32:0.35669726 33:1.074904 34:1.1943523 35:0.038932148 36:0.0004770277 37:3.372962 38:0.28694081 39:-0.55987057 40:-0.27221079 41:-0.98398291 42:-0.82784467 43:-0.26147726 44:-0.60975325 45:-0.37498279 46:-0.85746831 47:-0.71514371 48:-0.55329484 49:-0.73477321 50:-0.89743783 51:-0.94007856 52:-0.038773189 53:-0.13872347 54:1.6141434 55:0.89300854 56:-0.16411502 57:0.15239075 58:-1.1509433 59:-0.6146418 60:-0.062300166 61:-0.17464055 62:-0.038208419 63:-0.38656796 64:-0.67647409 65:-0.64600996 66:-0.24191271 67:-1.3117516 68:-1.2480392 
0.06676219455265565 0 0 1:-0.32125329 2:-0.4023862 3:0.4461083 4:0.072650251 5:-1.2951857 6:-0.54628722 7:0.95278215 8:-0.22980155 9:-0.39156391 10:-0.099539953 11:0.58245057 12:0.99310211 13:1.2051013 14:0.79953688 15:0.5014542 16:0.75111159 17:0.48597449 18:0.019785261 19:0.0015953871 20:-0.44509624 21:-0.11721194 22:0.053759768 23:0.10897162 24:0.062532525 25:-0.27099575 26:-0.70864354 27:0.069040836 28:0.57951994 29:-0.32050145 30:0.1575109 31:-0.56652159 32:-0.28111913 33:0.3305383 34:0.30266412 35:-0.12314039 36:-0.49852947 37:-0.44774366 38:-0.9211923 39:-1.2792457 40:-1.3336332 41:-1.2388099 42:-1.3023431 43:-1.3411814 44:-1.3102487 45:-0.99467418 46:-0.93711672 47:-1.3270674 48:-1.0886696 49:-0.9838903 50:-0.69925319 51:-0.55952527 52:-0.10792418 53:-0.56682339 54:-0.44861298 55:-0.91424073 56:-1.3318503 57:-1.3803335 58:-1.383742 59:-1.2514231 60:-1.3774871 61:-1.5502776 62:-0.86389546 63:-0.61193658 64:-1.3156258 65:-0.77399719 66:-0.89185192 67:-0.67720119 68:-0.27110645 
0 0 0.06827695813520993 1:-0.30506762 2:-0.39569963 3:0.44962453 4:0.25431693 5:-1.02175 6:-0.76269318 7:0.67885247 8:0.57358543 9:-0.53539165 10:-0.72479859 11:0.41490857 12:0.47162605 13:0.89383738 14:1.112828 15:1.0366365 16:1.0639119 17:0.66233878 18:0.014337764 19:0.0015953871 20:-0.44489841 21:-0.10923232 22:-0.18214956 23:-0.21832386 24:-0.042152437 25:0.23443874 26:0.15886026 27:-0.17538159 28:-0.081196504 29:0.26504322 30:0.57821824 31:0.54851603 32:1.0812121 33:0.52650937 34:0.41426023 35:-0.11860609 36:-0.47622727 37:-0.45534549 38:-0.063046362 39:0.20906463 40:-0.28515585 41:-0.020434139 42:0.35677126 43:-0.60663837 44:-0.43081703 45:-0.8692009 46:-0.52035189 47:-1.2080206 48:-0.96677857 49:-0.69353279 50:0.067378829 51:-0.91326544 52:-0.095800095 53:-0.52937875 54:-0.44956963 55:0.224628 56:0.90057504 57:0.21743741 58:0.91296708 59:0.52247332 60:-0.42473924 61:-0.024627984 62:-0.54532184 63:-0.06517284 64:-1.7414077 65:-0.70605806 66:-0.52671443 67:0.87863323 68:-0.90723554 
0 0.383710136788701 0 1:-0.31558319 2:-0.4023862 3:0.45581433 4:0.0029755589 5:-1.2719856 6:-0.54422131 7:0.85750909 8:-0.11532587 9:-0.24844613 10:-0.18518493 11:0.3385588 12:0.65582649 13:0.91447214 14:1.064689 15:0.85929388 16:0.63228826 17:0.49968256 18:-0.027656293 19:0.0015953871 20:-0.45185297 21:-0.23899572 22:0.0050403096 23:0.10768948 24:-0.047366404 25:-0.21472177 26:-0.53419302 27:-0.14857454 28:0.032374023 29:0.25620854 30:0.0021813035 31:-0.76582175 32:-0.71381459 33:-1.2994233 34:-0.34186501 35:-0.11976921 36:-0.49852947 37:-0.45309455 38:-0.95609113 39:-1.2881332 40:-1.3538554 41:-1.2567167 42:-1.4840445 43:-1.2808699 44:-1.3906727 45:-1.063305 46:-1.4657791 47:-1.1933143 48:-0.34118877 49:-0.90115291 50:-0.96647054 51:-0.78865712 52:-0.099006651 53:-0.56682339 54:-0.45486727 55:-0.93402521 56:-1.3192113 57:-1.294578 58:-1.3041315 59:-1.4450409 60:-1.2041549 61:-1.2278542 62:-0.66134147 63:-1.2435998 64:-1.5964371 65:-0.074271323 66:-0.81922225 67:-0.68912176 68:-0.46792087 
0 0.5 0.5 1:-0.30743863 2:-0.4023862 3:0.45812018 4:-0.0023130178 5:-1.2824308 6:-0.57208921 7:0.85934971 8:-0.091803192 9:-0.26680912 10:-0.20140615 11:0.34276227 12:0.64639389 13:0.94292119 14:1.0949421 15:0.89540354 16:0.65882418 17:0.57177367 18:0.030787043 19:0.0015953871 20:-0.45705748 21:-0.068099771 22:-0.17362099 23:-0.40322115 24:0.02773586 25:0.22018243 26:-0.20984708 27:-0.15045975 28:0.045333814 29:-0.10689519 30:0.41810653 31:0.40247085 32:0.47732803 33:0.27595638 34:0.61237665 35:-0.12006883 36:-0.49852947 37:-0.4531634 38:-0.96999419 39:-1.3165472 40:-1.4223912 41:-1.2515243 42:-1.4295261 43:-1.3112967 44:-1.3955419 45:-1.0694673 46:-1.4541262 47:-1.2495822 48:-0.40654984 49:-0.89393405 50:-0.93932566 51:-0.82543624 52:-0.098855131 53:-0.56682339 54:-0.45306569 55:-0.91418912 56:-1.3354263 57:-1.4044683 58:-1.2992388 59:-1.4017999 60:-1.1326273 61:-1.2281563 62:-0.66302658 63:-1.2301663 64:-1.7059921 65:-0.18276517 66:-0.73662988 67:-0.57546642 68:-0.5451502 
0 0 0.2030908486749179 1:-0.31616054 2:-0.39569963 3:0.4585645 4:0.061275743 5:-1.165208 6:-0.69534005 7:0.75635332 8:0.3758573 9:-0.51140681 10:-0.35911768 11:0.61346442 12:0.50248794 13:0.96447222 14:1.2194276 15:0.90382768 16:0.61548646 17:0.36732952 18:0.012475296 19:0.0015953871 20:-0.46352508 21:0.28881253 22:0.48366302 23:-0.70623087 24:-0.36077784 25:1.0230702 26:-0.72500306 27:0.23281474 28:0.87823453 29:-0.44634599 30:0.13717684 31:0.73273447 32:0.032595329 33:-0.52200889 34:-0.23205083 35:-0.12253226 36:-0.47622727 37:-0.45670513 38:-0.87985563 39:-0.76213174 40:-1.0503486 41:-0.95796178 42:-0.17518513 43:-0.77332231 44:-1.1209817 45:-0.57064657 46:-1.3753281 47:-1.3105867 48:-0.38372972 49:-0.850518 50:-1.1838079 51:-0.6622392 52:-0.10535704 53:-0.52937875 54:-0.45443134 55:-0.93873766 56:-1.050718 57:-1.4256738 58:-1.1317529 59:-1.2106467 60:-0.86289283 61:-0.9617984 62:-0.58430972 63:-1.0700578 64:-1.7334426 65:-0.084613331 66:-0.71854819 67:-0.94878982 68:-0.35284946 
0 0.5 0 1:0.45557274 2:0.1358826 3:-5.4492306 4:-0.49693578 5:-1.1707706 6:-0.27967203 7:1.012914 8:0.24019066 9:-0.0032346503 10:0.2673351 11:0.86095469 12:1.3323727 13:1.4390038 14:1.4929985 15:1.086042 16:0.78877323 17:0.33613047 18:0.018422859 19:0.0015953871 20:5.4164221 21:-0.19405421 22:0.0047635657 23:0.24271636 24:0.52520636 25:-0.098224978 26:-0.0488095 27:0.42460079 28:-0.23249119 29:-0.93964729 30:-0.26454562 31:0.40963019 32:0.37824887 33:0.34612263 34:0.36555246 35:0.19241939 36:0.40890327 37:5.3236699 38:-0.067699765 39:-1.2114819 40:-1.0246911 41:-0.98367834 42:-0.9894338 43:-0.83196355 44:-0.64612725 45:-0.7677218 46:-0.66400401 47:-1.1872477 48:-0.93374654 49:-0.98931703 50:-1.0207825 51:-0.89835769 52:0.098040093 53:0.65504637 54:5.3051727 55:-0.030764634 56:-1.2546613 57:-1.176549 58:-1.1634824 59:-1.1936393 60:-0.89111218 61:-0.68666975 62:-0.91550729 63:-0.67351075 64:-1.5058781 65:-1.0244306 66:-1.2824109 67:-1.3155942 68:-0.84285298 
0 0.01979810847418088 0 1:0.31945327 2:0.055643775 3:-4.6320623 4:-0.49405518 5:-1.1841956 6:-0.31246356 7:1.0125706 8:0.2570428 9:-0.064355759 10:0.18057845 11:0.77943727 12:1.2861322 13:1.3866532 14:1.4436505 15:1.0921634 16:0.75830629 17:0.29105364 18:-0.5064756 19:-0.71802793 20:5.4160264 21:0.036567784 22:-0.22414456 23:-0.4747268 24:-0.0081662602 25:0.15758633 26:-0.69974266 27:-0.80832033 28:-0.82845363 29:-0.51531473 30:-0.77797549 31:-0.66143365 32:0.077930768 33:-0.31801721 34:-0.38244194 35:0.1719794 36:0.39137307 37:5.1247688 38:-0.064496306 39:-1.2437325 40:-1.0611456 41:-0.98363434 42:-0.97461108 43:-0.89197443 44:-0.74840632 45:-0.908284 46:-0.65224053 47:-1.1089613 48:-0.86144637 49:-0.99825394 50:-1.1127882 51:-1.035465 52:0.061318773 53:0.6077568 54:5.3053845 55:-0.03144051 56:-1.336287 57:-1.3172787 58:-1.1568352 59:-1.1458938 60:-1.0297617 61:-0.88494792 62:-1.090847 63:-0.59560712 64:-1.4488438 65:-0.98036335 66:-1.2424089 67:-1.4035624 68:-1.0372903 
0.447314913798787 0 0 1:-0.12920943 2:-0.05134131 3:-2.2392684 4:-0.26915706 5:-1.2122355 6:-0.38582783 7:0.96193169 8:0.021803707 9:-0.23991307 10:0.043339944 11:0.75488229 12:1.2305433 13:1.2900161 14:1.2773308 15:0.97137428 16:0.70281504 17:0.31638878 18:-0.23882802 19:0.0015953871 20:2.7664592 21:0.8887393 22:-0.078725041 23:-0.26237882 24:-0.25814823 25:-0.75465805 26:-0.42919655 27:0.16073147 28:0.50943935 29:0.44965759 30:-0.55927206 31:-0.80997845 32:-0.29389102 33:0.7091239 34:0.43189414 35:-0.0012116209 36:0.37312701 37:3.9784267 38:-0.44848781 39:-1.2656576 40:-1.2565914 41:-1.0899234 42:-1.1779968 43:-1.309369 44:-0.89936746 45:-1.1017643 46:-0.77054954 47:-1.2673721 48:-1.0832968 49:-1.1088083 50:-1.2483126 51:-1.2113153 52:0.023959713 53:0.53182786 54:4.1213113 55:-0.31413534 56:-1.3023576 57:-1.4013631 58:-1.268454 59:-1.2259292 60:-1.61751 61:-0.92542072 62:-1.2211961 63:-0.65367693 64:-1.4295845 65:-0.98049843 66:-1.4649992 67:-1.3569297 68:-1.2062508 
0 0.1045277343379936 0 1:-0.31968774 2:-0.4023862 3:0.38779549 4:0.011657142 5:-1.2650169 6:-0.48702955 7:0.90976507 8:-0.29433707 9:-0.37574559 10:-0.19330959 11:0.38998348 12:0.86492655 13:1.1046073 14:1.1785774 15:1.0159515 16:0.63820986 17:0.084625267 18:-0.0033686085 19:0.0015953871 20:-0.35260967 21:-0.041825926 22:-0.013328176 23:0.052718859 24:0.076640095 25:-0.089151484 26:0.037806666 27:-0.49305343 28:-0.86439502 29:-0.47205321 30:-0.36359562 31:0.43528711 32:0.80812692 33:1.0173644 34:0.070581328 35:-0.12053553 36:-0.49852947 37:-0.3783645 38:-0.84439713 39:-1.3113535 40:-1.3628305 41:-1.2443577 42:-1.240498 43:-1.3962745 44:-1.3637724 45:-1.293463 46:-1.2244664 47:-1.3009299 48:-1.1930878 49:-1.3445199 50:-1.33689 51:-1.2561751 52:-0.10152791 53:-0.56682339 54:-0.34392157 55:-0.78237118 56:-1.3147846 57:-1.3961113 58:-1.4303548 59:-0.98824792 60:-1.4821246 61:-1.2318671 62:-1.0099696 63:-1.0286643 64:-1.7455255 65:-1.1230248 66:-1.1878408 67:-1.0534174 68:-1.210989 
0.5 0 0 1:-0.25427841 2:-0.37563992 3:-0.46409853 4:0.38342401 5:-0.69719562 6:-0.88528547 7:0.56932333 8:0.20943584 9:-0.64837927 10:0.97578083 11:0.72004666 12:1.0558194 13:0.95888351 14:0.88811374 15:1.0397642 16:1.1496764 17:1.3734922 18:-0.053851344 19:0.0015953871 20:0.4962048 21:-1.2870243 22:0.054333863 23:0.28124431 24:0.069617962 25:-0.1668597 26:0.40417875 27:0.323625 28:0.37183331 29:0.61795928 30:-0.18191141 31:-0.66254591 32:-0.38481113 33:0.21047345 34:-0.0817484 35:-0.10959473 36:-0.40596186 37:-0.018914795 38:-0.19385831 39:0.073090097 40:-0.33692451 41:-0.1797782 42:-0.81016989 43:-0.77972559 44:-0.27407419 45:-0.96732192 46:-0.59371954 47:-0.74386268 48:-0.85069362 49:-0.69356235 50:-0.66140988 51:-0.49494184 52:-0.080530309 53:-0.4131795 54:-0.018504301 55:-0.00011730174 56:-0.45381156 57:-0.59527239 58:-0.83486161 59:-1.1528211 60:-0.48284988 61:-0.64533294 62:-0.7001996 63:-0.55519046 64:-0.50130091 65:-1.0153356 66:-0.70739076 67:-0.064222174 68:-1.4510195 
0.3457530906690793 0 0 1:-0.24467028 2:-0.37563992 3:-0.39234896 4:0.35287719 5:-0.69454345 6:-0.8754704 7:0.5735912 8:0.20360314 9:-0.64830267 10:0.97166918 11:0.65353376 12:1.0198369 13:0.92075116 14:0.85027275 15:0.99872855 16:1.1011671 17:1.3178083 18:0.036238214 19:0.0015953871 20:0.45743729 21:-0.39172885 22:0.048452489 23:0.14404239 24:0.06763459 25:-0.055279953 26:0.0014220866 27:-0.037517163 28:-0.67550754 29:-0.40149216 30:-0.56750356 31:-0.50763919 32:-0.55012886 33:-0.50602026 34:-0.47250235 35:-0.1110825 36:-0.40596186 37:-0.032530837 38:-0.13758341 39:0.066682016 40:-0.32277052 41:-0.17335549 42:-0.80594521 43:-0.77967481 44:-0.26401 45:-0.94904483 46:-0.58942158 47:-0.82509076 48:-0.93874019 49:-0.70885212 50:-0.64779709 51:-0.45929222 52:-0.082632378 53:-0.4131795 54:-0.021131327 55:-0.18946626 56:-0.45375303 57:-0.58074278 58:-0.8347061 59:-1.150815 60:-0.44373152 61:-0.58947363 62:-0.86197652 63:-0.72568921 64:-0.5574275 65:-1.0050307 66:-0.69747008 67:-0.052443684 68:-1.5000275 
0.5 0 0 1:-0.2627392 2:-0.37563992 3:-0.35605284 4:0.35179706 5:-0.74366629 6:-0.85417275 7:0.60061856 8:0.17187204 9:-0.66888721 10:0.84685602 11:0.69122543 12:1.0570127 13:0.97142935 14:0.92387112 15:1.095362 16:1.1940269 17:1.1686248 18:-0.026137702 19:0.0015953871 20:0.35976903 21:-0.23579032 22:-0.83779926 23:0.16984989 24:0.088869159 25:-0.30037154 26:-0.34119155 27:-1.039581 28:0.60983561 29:0.016050389 30:1.0870568 31:0.80614161 32:1.0802718 33:1.6759799 34:-0.56047627 35:-0.11133732 36:-0.40596186 37:-0.0091416502 38:-0.14701729 39:0.07348727 40:-0.28456526 41:-0.13236551 42:-0.78009716 43:-0.82368262 44:-0.20988304 45:-1.1090428 46:-0.70679113 47:-1.0366361 48:-1.0604658 49:-1.0641606 50:-0.90184511 51:-0.46063807 52:-0.084500492 53:-0.4131795 54:-0.017134339 55:-0.19370396 56:-0.64887832 57:-0.58181984 58:-0.79948944 59:-1.1521394 60:-0.48479305 61:-1.0858843 62:-1.0134288 63:-1.0281602 64:-0.80269613 65:-1.1820941 66:-0.86214533 67:-0.19917367 68:-1.4972327 
0.5 0 0 1:-0.26793952 2:-0.37563992 3:-0.28036569 4:0.29737733 5:-0.82419124 6:-0.79768457 7:0.66788174 8:0.07705929 9:-0.69067934 10:0.70738951 11:0.62705077 12:0.97686152 13:0.9814357 14:0.98306266 15:1.1372476 16:1.1660816 17:1.0752432 18:-0.018910501 19:0.0015953871 20:0.34982416 21:-0.69760911 22:-1.3618603 23:0.82186856 24:1.1031876 25:-0.89024788 26:-0.24913606 27:-1.2999285 28:-0.65167321 29:-0.89158748 30:0.14509624 31:0.78924573 32:0.55425379 33:-0.29174036 34:-0.79257556 35:-0.11076566 36:-0.40596186 37:-0.014817982 38:-0.11734191 39:-0.019253903 40:-0.36869985 41:-0.25712487 42:-0.98289108 43:-0.89262203 44:-0.48286859 45:-1.2256446 46:-0.66298476 47:-1.0593772 48:-1.0992264 49:-1.1198615 50:-0.91028255 51:-0.37242144 52:-0.08462442 53:-0.4131795 54:-0.011335993 55:-0.203465 56:-0.72955753 57:-0.76650513 58:-1.1794765 59:-1.3913602 60:-0.47492014 61:-1.1670709 62:-1.6651252 63:-1.0333276 64:-0.84441924 65:-1.1836556 66:-0.93779827 67:-0.49884148 68:-1.4490215 
0.5 0 0 1:-0.26067646 2:-0.37563992 3:-0.22660331 4:0.26312218 5:-0.88598907 6:-0.76674036 7:0.71034163 8:0.072870945 9:-0.73820082 10:0.50319781 11:0.62873493 12:1.0017968 13:1.0236815 14:1.1064229 15:1.1937859 16:1.1200204 17:1.053975 18:0.027504192 19:0.0015953871 20:0.27473921 21:-0.43923825 22:-1.0443327 23:0.45089825 24:0.69546008 25:-0.039850884 26:-0.54392714 27:-1.9035997 28:0.019651106 29:0.27445097 30:0.62234221 31:1.6468903 32:0.74940905 33:-0.48051127 34:-0.1802939 35:-0.11105779 36:-0.40596186 37:-0.0011063161 38:-0.14242146 39:-0.31124448 40:-0.5941934 41:-0.44538813 42:-1.0006213 43:-0.72520904 44:-0.37549188 45:-1.223563 46:-0.53760975 47:-1.0232711 48:-1.3163733 49:-0.96099698 50:-0.78880091 51:-0.35922669 52:-0.084165152 53:-0.4131795 54:-0.016939218 55:-0.18050116 56:-0.62156698 57:-0.59748751 58:-1.0438415 59:-1.1967318 60:-0.33386468 61:-0.94213105 62:-1.7131811 63:-0.49053578 64:-0.768712 65:-1.2305122 66:-0.89568979 67:-0.46139493 68:-1.4198756 
0.1014408533510425 0 0 1:-0.27628301 2:-0.37563992 3:-0.15269344 4:0.21322008 5:-0.94666172 6:-0.71464069 7:0.77077312 8:0.025170212 9:-0.64927072 10:0.46560291 11:0.62395675 12:1.0277225 13:1.0422421 14:1.0860602 15:1.1623348 16:1.0399624 17:0.98871147 18:-0.05766542 19:0.0015953871 20:0.22114189 21:-0.63972303 22:-1.0252541 23:0.75813483 24:0.99088419 25:-0.44816177 26:1.0194507 27:-0.34980442 28:-0.046219883 29:0.28544006 30:0.2717238 31:-0.27403336 32:-0.4224795 33:-0.83475845 34:-0.55383813 35:-0.11397052 36:-0.40596186 37:-0.031396952 38:-0.39677737 39:-0.40580583 40:-0.69876547 41:-0.65504658 42:-1.054992 43:-0.69919367 44:-0.41914251 45:-1.2363792 46:-0.52544619 47:-1.0001091 48:-1.3094288 49:-0.96443329 50:-0.82835791 51:-0.271637 52:-0.086910972 53:-0.4131795 54:-0.0033681515 55:-0.23270311 56:-0.62770727 57:-0.4733592 58:-0.98605138 59:-1.061504 60:0.057410904 61:-0.61297823 62:-1.7234954 63:-0.49426797 64:-0.77616557 65:-1.389851 66:-0.73699857 67:-0.53726544 68:-1.3764448 
0 0 0.2623326729394788 1:-0.31773022 2:-0.4023862 3:0.42301146 4:0.033248637 5:-1.2400656 6:-0.5958122 7:0.87115016 8:-0.12524872 9:-0.63003643 10:-0.15248368 11:0.26255977 12:0.74642068 13:1.2023812 14:1.1526289 15:0.86669379 16:0.85183755 17:0.49296183 18:-0.0031032385 19:0.0015953871 20:-0.41134302 21:-0.047418197 22:0.50953667 23:-0.44408501 24:-0.035102976 25:0.42661315 26:-1.143343 27:1.1920395 28:-0.42612979 29:-0.2378995 30:0.99998959 31:-1.0070641 32:-0.61622116 33:-0.27579214 34:-0.92735753 35:-0.12330621 36:-0.49852947 37:-0.38942217 38:-0.92591612 39:-1.0063867 40:-1.1699727 41:-1.1576849 42:-1.3379454 43:-0.67906569 44:-0.9759677 45:-1.2399597 46:-1.0684471 47:-0.90602201 48:-0.99543774 49:-0.82634013 50:-1.2596847 51:-0.45236138 52:-0.10595744 53:-0.56682339 54:-0.38831007 55:-0.91688635 56:-1.0605701 57:-1.1668895 58:-1.2893713 59:-1.386159 60:-0.58967202 61:-1.124145 62:-0.84916856 63:-0.74877324 64:-0.83928051 65:-0.92224595 66:-0.7649708 67:-1.8230057 68:-0.092415749 
0.5 0 0.2375905100269424 1:-0.32708548 2:-0.4023862 3:0.43018948 4:0.068754604 5:-1.2399184 6:-0.59628452 7:0.87601937 8:-0.10554996 9:-0.63078973 10:-0.11649024 11:0.28385367 12:0.81117973 13:1.2434919 14:1.1241005 15:0.89733613 16:0.88113806 17:0.46736896 18:-0.034384165 19:0.0015953871 20:-0.42472713 21:0.4545902 22:0.0059797931 23:-0.0053598963 24:0.077522558 25:0.18429943 26:-0.0080863945 27:0.33652994 28:0.21954234 29:0.7163356 30:0.60553992 31:-0.38317222 32:0.40451247 33:0.30476369 34:-0.21701293 35:-0.12315657 36:-0.49852947 37:-0.40705938 38:-0.77672501 39:-1.0061698 40:-1.1702488 41:-1.1557765 42:-1.3350147 43:-0.67813134 44:-0.9848588 45:-1.2218276 46:-0.91866857 47:-0.81090743 48:-0.95796489 49:-0.86464137 50:-1.215306 51:-0.47913304 52:-0.10580693 53:-0.56682339 54:-0.38990181 55:-0.78404277 56:-0.99089067 57:-1.0172709 58:-1.2824675 59:-1.3507831 60:-0.34184635 61:-0.80784351 62:-0.9143105 63:-0.49591881 64:-0.81751012 65:-0.87198566 66:-0.79436017 67:-1.7020821 68:0.053650173 
0.5 0 0 1:-0.31469196 2:-0.4023862 3:0.3668896 4:0.065468997 5:-1.2553584 6:-0.59765758 7:0.88263392 8:-0.11221403 9:-0.64757783 10:-0.14540066 11:0.28232931 12:0.88436453 13:1.2566168 14:1.1297794 15:0.92336376 16:0.89988255 17:0.50828838 18:0.046611192 19:0.0015953871 20:-0.43169691 21:-0.042434832 22:-0.25831148 23:-0.01844094 24:0.10621134 25:-0.063083418 26:-0.19180288 27:-0.26880679 28:-0.013053592 29:0.80982726 30:0.19126171 31:0.074024617 32:0.34305179 33:0.19476884 34:0.3477128 35:-0.1232773 36:-0.49852947 37:-0.26733166 38:-0.77682221 39:-1.051601 40:-1.1711823 41:-1.1702241 42:-1.3348771 43:-0.69140897 44:-1.0171225 45:-1.2239637 46:-0.956083 47:-0.83416194 48:-0.95955306 49:-0.86280561 50:-1.1998706 51:-0.45859673 52:-0.10572016 53:-0.56682339 54:-0.40706316 55:-0.6915554 56:-1.0096826 57:-1.0173311 58:-1.2867752 59:-1.3472279 60:-0.3710205 61:-0.88100954 62:-0.92297549 63:-0.51168586 64:-0.71880284 65:-0.8475491 66:-0.79895104 67:-1.6952596 68:0.027723693 
0 0 0.13733150284828 1:-0.25335358 2:-0.4023862 3:-0.78402992 4:0.20881058 5:-0.81274546 6:-0.77581996 7:0.77831784 8:0.2728376 9:-1.0502865 10:-0.050085079 11:0.40233344 12:0.69199856 13:1.2202046 14:1.4039498 15:1.0840652 16:1.3419497 17:0.57493681 18:-0.095618658 19:0.0015953871 20:0.62153914 21:-0.019161474 22:1.5134464 23:-1.0111967 24:-0.070123826 25:0.59744462 26:-1.2260647 27:0.18091487 28:-1.2007487 29:-0.28304706 30:-0.23332839 31:-0.092582164 32:1.635908 33:2.117857 34:0.33740465 35:-0.099283099 36:-0.49852947 37:0.50799991 38:0.1741763 39:0.03497197 40:-0.21128077 41:-0.65343643 42:-0.54154844 43:-0.58003947 44:-0.066402382 45:-0.282417 46:-0.72206924 47:-0.12580743 48:-0.75105863 49:0.022124863 50:-0.050902913 51:-0.48570738 52:-0.065469061 53:-0.56682339 54:0.31895145 55:0.80110661 56:0.71667935 57:0.58503746 58:-0.51134297 59:0.1261434 60:-0.25582326 61:0.79399615 62:0.46713203 63:-0.25922232 64:0.81457658 65:-0.42536958 66:0.6660314 67:0.076855468 68:-0.16445605 
0 0.06346868874646601 0.5 1:-0.22804135 2:-0.35558022 3:-0.82577275 4:0.33909796 5:-0.62834309 6:-0.80717309 7:0.71736375 8:0.22623413 9:-1.27371 10:-0.0086839814 11:0.37568511 12:0.66586567 13:1.3614555 14:1.3258108 15:0.90992721 16:1.4138634 17:0.65387899 18:-0.031316606 19:0.0015953871 20:0.86994035 21:1.9506129 22:0.91519096 23:-0.7207636 24:-0.1958869 25:0.62191339 26:-0.79264539 27:1.2720235 28:-0.23463357 29:-0.011954639 30:0.42232198 31:-1.2821802 32:-0.39345842 33:0.34316591 34:-0.85063452 35:-0.096533782 36:-0.33567817 37:0.52564652 38:0.17763239 39:0.63480777 40:-0.45916122 41:-0.44227903 42:-0.5221561 43:0.0012776314 44:-0.28500718 45:-0.12968145 46:-0.57382107 47:-0.51627857 48:-0.31075467 49:0.27766361 50:0.55437181 51:-0.44685744 52:-0.061532213 53:-0.29696587 54:0.50900154 55:0.5463086 56:1.7657585 57:0.11423914 58:-0.0030512515 59:0.12951557 60:1.0444823 61:0.37980702 62:1.021516 63:0.06718745 64:-0.057824821 65:0.063060995 66:1.0558675 67:1.7927007 68:-0.23853114 
0.3225199490591855 0 0 1:-0.22168751 2:-0.35558022 3:-1.0605101 4:0.46407833 5:-0.56196666 6:-0.84465418 7:0.71896842 8:0.40628477 9:-1.3921537 10:-0.010459176 11:0.46866699 12:0.58451035 13:1.418364 14:1.2711188 15:0.7705034 16:1.3909601 17:1.0043675 18:-0.044993389 19:0.0015953871 20:1.0037054 21:-0.1185304 22:0.065749968 23:0.27538038 24:-0.0014624572 25:0.18354877 26:0.012095732 27:-0.064185978 28:0.66145214 29:0.18442763 30:0.70871186 31:0.097494865 32:-0.86164123 33:-0.67037884 34:0.10370416 35:-0.09534201 36:-0.33567817 37:0.43429146 38:0.2976338 39:0.59802432 40:-0.29752796 41:-0.4353053 42:-0.45749387 43:0.14587468 44:-0.2784768 45:-0.012849159 46:-0.58412179 47:-0.80362827 48:-0.24568561 49:0.45016007 50:0.58107671 51:-0.93574584 52:-0.059881216 53:-0.29696587 54:0.44894807 55:0.87153024 56:1.9009989 57:0.35893352 58:0.013867412 59:0.29022076 60:1.4706515 61:0.42100112 62:1.1065701 63:0.18178038 64:-0.42011692 65:0.26681224 66:1.4077014 67:1.7898114 68:-0.66308326 
0.1189647213155111 0 0 1:-0.22222714 2:-0.35558022 3:-1.0608319 4:0.43138028 5:-0.60689135 6:-0.77356683 7:0.71888769 8:0.28356064 9:-1.3033545 10:0.071022628 11:0.40030045 12:0.62643081 13:1.395685 14:1.267993 15:0.8468156 16:1.3662251 17:1.0508874 18:-0.0015536045 19:0.0015953871 20:1.0501046 21:-0.41928916 22:-0.75823919 23:1.0338899 24:-0.0038470177 25:-1.1521609 26:1.0179508 27:0.76078543 28:-0.69439977 29:0.46291852 30:-0.33874425 31:-0.043654669 32:1.0127652 33:-0.25829124 34:0.39526214 35:-0.095258316 36:-0.33567817 37:0.43405733 38:0.34199517 39:0.62507823 40:-0.38433809 41:-0.43533203 42:-0.56590151 43:0.2529073 44:-0.38866804 45:-0.13085322 46:-0.66404897 47:-0.70065845 48:-0.24444555 49:0.40368471 50:0.5728255 51:-0.85187246 52:-0.060290082 53:-0.29696587 54:0.42999797 55:0.87932104 56:1.8449669 57:0.23550413 58:0.014022234 59:0.148834 60:1.4405818 61:0.3922614 62:0.94385767 63:0.14496662 64:-0.1929753 65:0.27811351 66:1.3532929 67:1.8306325 68:-0.61742456 
0.1457831072097336 0 0 1:-0.29855934 2:-0.4023862 3:0.066898862 4:0.33467762 5:-1.1174704 6:-0.66433828 7:0.87987936 8:0.15361627 9:-0.57232848 10:0.21613291 11:0.56143027 12:0.66771113 13:1.2056344 14:0.89505432 15:0.58387289 16:0.73559319 17:0.72926151 18:-0.083458813 19:-0.41818485 20:-0.015906794 21:0.1129739 22:-2.8891549 23:0.92421814 24:1.1668727 25:0.61279063 26:2.5514146 27:0.23410162 28:0.04585962 29:-0.30659109 30:-0.97634557 31:-0.61650541 32:1.2711332 33:1.0512362 34:-0.49890186 35:-0.11684669 36:-0.49852947 37:-0.14705501 38:0.092425122 39:-0.55968467 40:-0.64843034 41:-1.1256064 42:-0.65482096 43:-0.35101874 44:-1.0535466 45:-1.1048466 46:-0.86261407 47:-1.0144876 48:-0.70116731 49:-0.86832423 50:-1.2631703 51:-0.90650462 52:-0.092524568 53:-0.38124364 54:-0.13072854 55:0.39298168 56:0.093152178 57:-0.38392091 58:-0.68465331 59:-0.2274931 60:-0.17160461 61:-0.78446493 62:-1.2688258 63:-0.52147147 64:-0.73798254 65:0.018654059 66:-0.14164474 67:-0.37150778 68:-0.55599949 
0.5 0 0 1:-0.27166742 2:-0.4023862 3:-0.18806262 4:0.3289721 5:-0.95458169 6:-0.8500096 7:0.84053988 8:0.37066853 9:-0.79199304 10:0.0064813821 11:0.27635885 12:1.1521434 13:1.2742181 14:0.91995346 15:0.95261124 16:0.83884573 17:0.78621782 18:0.043485327 19:0.0015953871 20:0.2147656 21:-0.16430459 22:1.3770667 23:-0.73563365 24:-0.80443222 25:1.1514623 26:-0.88229412 27:-0.127206 28:-1.8444101 29:-1.436912 30:0.90666372 31:0.27749359 32:-1.4468199 33:-0.52469471 34:-0.58268271 35:-0.11714696 36:-0.49852947 37:0.093803615 38:0.23684444 39:-0.028595919 40:-0.6307864 41:-0.75462704 42:-0.70630033 43:-0.79580656 44:-0.77705874 45:-0.38696881 46:-0.11743093 47:0.072143766 48:-0.51415464 49:0.1874739 50:-0.62104213 51:-0.52048662 52:-0.094096692 53:-0.56682339 54:0.13731757 55:0.55406197 56:-0.024281445 57:-0.52600655 58:-0.68331217 59:-0.75825454 60:-0.59443487 61:-0.49896955 62:-0.33015858 63:0.2678023 64:0.63116054 65:-0.49455575 66:0.93042047 67:-0.65586214 68:-0.4721219 
0.438599640746252 0 0 1:-0.28961049 2:-0.4023862 3:-0.2806568 4:0.40936787 5:-0.94377277 6:-0.8549777 7:0.84434342 8:0.38169477 9:-0.81737438 10:0.044586904 11:0.26085936 12:1.0906801 13:1.2791273 14:0.97232166 15:0.97832787 16:0.84725992 17:0.78985353 18:-0.066366511 19:0.0015953871 20:0.18269395 21:1.0297568 22:0.18675397 23:-0.070651027 24:0.06000354 25:0.10291908 26:-0.29025905 27:0.35622882 28:-0.15550697 29:-0.68422702 30:0.069643085 31:0.69804912 32:0.33890777 33:0.087126587 34:0.03115417 35:-0.11679854 36:-0.49852947 37:0.13645977 38:0.24843584 39:-0.039681509 40:-0.64304011 41:-0.74787961 42:-0.70803474 43:-0.80503491 44:-0.7751113 45:-0.37717645 46:-0.051876078 47:0.076602039 48:-0.43762782 49:0.16315655 50:-0.61496009 51:-0.5186811 52:-0.095636487 53:-0.56682339 54:0.091547432 55:0.57937231 56:0.20377669 57:-0.37358819 58:-0.4477162 59:-0.49320796 60:-0.50501989 61:-0.4283891 62:0.080625522 63:0.31847971 64:0.80776346 65:-0.52120234 66:1.0339262 67:-0.58846358 68:-0.50594528 
0.3492670955249322 0 0 1:-0.28863674 2:-0.4023862 3:-0.25451103 4:0.3074645 5:-1.0439396 6:-0.69028688 7:0.76950169 8:0.15774043 9:-0.58910765 10:0.080599797 11:0.096231857 12:0.666774 13:1.2655065 14:1.1767724 15:0.80757474 16:0.73209787 17:0.65933529 18:0.0047987533 19:0.0015953871 20:0.25294723 21:-0.39312958 22:-1.5055132 23:1.3715978 24:0.063002389 25:-0.35912895 26:0.22533174 27:0.082573843 28:-0.05740211 29:-2.0218966 30:1.0548897 31:1.414029 32:-2.0942383 33:0.54542723 34:0.51168449 35:-0.11625374 36:-0.49852947 37:0.143578 38:0.31623562 39:-0.36503115 40:-0.87589124 41:-0.76608203 42:-0.60050087 43:-0.76078174 44:-1.0934662 45:-0.51172525 46:-0.85674678 47:-0.52907757 48:-0.97192643 49:-0.88821407 50:-0.70498799 51:-0.68287315 52:-0.09463673 53:-0.56682339 54:0.13888851 55:0.69474426 56:-0.063735195 57:-0.52128822 58:-0.39313141 59:-0.46697039 60:-0.99322145 61:-0.58146249 62:-0.16613388 63:-0.30498964 64:-0.0011752346 65:-0.86029413 66:0.058654708 67:-0.68771975 68:-0.81189125 
0 0.01697623781996853 0 1:-0.30975188 2:-0.4023862 3:0.12374082 4:-0.10130396 5:-1.2027965 6:-0.53131862 7:0.87816909 8:0.0042772448 9:-0.33969859 10:-0.17810176 11:0.11944235 12:0.67739064 13:1.1562808 14:1.1748554 15:0.91162319 16:0.65039037 17:0.49200516 18:-0.062493654 19:0.0015953871 20:-0.0093555032 21:-0.26340242 22:-0.0972218 23:-0.44102493 24:-0.31626884 25:-0.59259898 26:-0.61639224 27:-0.5968257 28:-0.44289573 29:-1.0108223 30:-0.63664114 31:-0.51885147 32:-0.24594786 33:0.39943454 34:0.15069265 35:-0.12342819 36:-0.49852947 37:0.014292769 38:-0.75550867 39:-1.003826 40:-1.2890257 41:-0.94121036 42:-1.279483 43:-1.273943 44:-0.84099767 45:-0.90476241 46:-1.1494512 47:-0.9700582 48:-0.86238062 49:-1.1772093 50:-1.1814851 51:-0.57443158 52:-0.10288602 53:-0.56682339 54:0.093949426 55:-0.62794986 56:-0.9011547 57:-1.1769341 58:-0.72874294 59:-1.2620662 60:-1.0054148 61:-0.55939198 62:-0.60400545 63:-1.134697 64:-0.80491724 65:-0.45143425 66:-0.964158 67:-1.1755494 68:-0.11889036 
0 0.5 0 1:-0.30582446 2:-0.4023862 3:0.2805082 4:-0.063606988 5:-1.2186674 6:-0.52361977 7:0.87210734 8:0.0050847977 9:-0.29869148 10:-0.20609809 11:0.095631213 12:0.59232425 13:1.0919221 14:1.1803068 15:0.88872238 16:0.52006553 17:0.34761195 18:0.015081781 19:0.0015953871 20:-0.12721026 21:0.48266367 22:-0.2656167 23:0.11330976 24:-0.10216763 25:0.0070281745 26:0.47037853 27:-0.26028225 28:-0.2402315 29:-0.9461267 30:-0.95573292 31:0.07098448 32:-0.30860035 33:-1.358543 34:-1.2256908 35:-0.12378526 36:-0.49852947 37:-0.27271345 38:-0.81606696 39:-1.0155752 40:-1.2784135 41:-0.95482656 42:-1.2801974 43:-1.3454124 44:-0.88297062 45:-0.93324327 46:-1.1645639 47:-0.90162037 48:-0.86682743 49:-1.2520059 50:-1.3339913 51:-0.68923102 52:-0.10840366 53:-0.56682339 54:0.012074023 55:-0.7577574 56:-0.9128706 57:-1.1932242 58:-0.7117846 59:-1.3662641 60:-1.2293877 61:-0.5340924 62:-0.60217899 63:-1.1344913 64:-0.75662318 65:-0.60587604 66:-0.96100143 67:-1.0853494 68:-0.21004492 
0 0.09802963902923451 0 1:-0.30790429 2:-0.4023862 3:0.32311669 4:-0.038461208 5:-1.2213118 6:-0.52855385 7:0.85362376 8:-0.086002463 9:-0.30883426 10:-0.21225776 11:0.1220855 12:0.58685736 13:1.0770532 14:1.1881166 15:0.8669223 16:0.504167 17:0.40006406 18:-0.007288956 19:0.0015953871 20:-0.28294228 21:0.32185153 22:-0.041354248 23:-0.070157532 24:-0.30636491 25:-0.85528984 26:-0.11566458 27:-0.056617308 28:0.27214285 29:-0.062891889 30:-0.22313324 31:0.10250466 32:-0.29394046 33:-0.16621366 34:0.44562997 35:-0.12371082 36:-0.49852947 37:-0.30282198 38:-0.85953275 39:-1.0170139 40:-1.2818726 41:-0.98006738 42:-1.405377 43:-1.3484134 44:-0.89185687 45:-0.87083433 46:-1.1646749 47:-0.890949 48:-0.88766492 49:-1.2635521 50:-1.3702845 51:-0.79142935 52:-0.10862717 53:-0.56682339 54:-0.27347167 55:-0.75869899 56:-0.91499988 57:-1.1874081 58:-0.70303649 59:-1.5602701 60:-1.3165091 61:-0.53551137 62:-0.55784788 63:-1.1443605 64:-0.74381873 65:-0.6087214 66:-0.96291355 67:-1.0103213 68:-0.60368987 
0 0.5 0 1:-0.30818869 2:-0.4023862 3:0.3573521 4:-0.018197552 5:-1.236133 6:-0.49927575 7:0.86169972 8:-0.13344558 9:-0.29405563 10:-0.30047619 11:0.15877944 12:0.53279957 13:1.059096 14:1.1636517 15:0.85911415 16:0.53136756 17:0.36649786 18:-0.0006030697 19:0.0015953871 20:-0.32527077 21:0.25929714 22:-0.24781769 23:0.42670095 24:0.13023652 25:-0.44574241 26:0.16986874 27:-0.8219541 28:0.37652083 29:-0.60205576 30:-0.26884872 31:-0.32886151 32:-0.10758776 33:0.28288212 34:-0.28471012 35:-0.12373745 36:-0.49852947 37:-0.32387961 38:-0.84410066 39:-1.0211307 40:-1.4299072 41:-0.98353488 42:-1.5371119 43:-1.3830658 44:-1.0127885 45:-0.85268364 46:-1.262975 47:-0.91382428 48:-0.83582342 49:-1.2442597 50:-1.4160858 51:-0.79763443 52:-0.10847082 53:-0.56682339 54:-0.30352941 55:-0.7662054 56:-0.91247 57:-1.3124449 58:-0.73829763 59:-1.5239474 60:-1.3709879 61:-0.52688148 62:-0.57196519 63:-1.2115536 64:-0.74885818 65:-0.61986211 66:-0.98872156 67:-1.1185291 68:-0.74817471 
0 0.5 0.4077168823397788 1:-0.31736535 2:-0.4023862 3:0.39150324 4:-0.034022419 5:-1.2287236 6:-0.4965455 7:0.85911739 8:-0.12611524 9:-0.26177874 10:-0.31249841 11:0.11488105 12:0.52496331 13:1.0756969 14:1.1519753 15:0.84283779 16:0.51417379 17:0.35247998 18:-0.033719842 19:0.0015953871 20:-0.35938923 21:-0.20309713 22:0.12911317 23:0.041151115 24:-0.044969939 25:0.068236689 26:0.37035345 27:-0.11129635 28:-0.44498701 29:-0.089181777 30:0.24271714 31:-0.15793692 32:-0.22037471 33:-0.17971051 34:-0.11873569 35:-0.12422299 36:-0.49852947 37:-0.35512697 38:-0.89069244 39:-1.0246778 40:-1.4313137 41:-0.98644548 42:-1.5362666 43:-1.4259665 44:-1.0174626 45:-0.86989313 46:-1.2942837 47:-0.89545098 48:-0.82940721 49:-1.2267445 50:-1.3848981 51:-0.81317373 52:-0.10822685 53:-0.56682339 54:-0.32461556 55:-0.81298159 56:-0.9254486 57:-1.4026097 58:-0.75053311 59:-1.6476138 60:-1.3551293 61:-0.58340884 62:-0.56563526 63:-1.1415332 64:-0.75364626 65:-0.60665094 66:-0.99596171 67:-1.1151468 68:-0.7341039 
0 0.1433386092666609 0 1:-0.32466613 2:-0.4023862 3:0.47719518 4:0.052338139 5:-1.2706362 6:-0.4924827 7:0.89087422 8:-0.27208322 9:-0.36714282 10:-0.3492972 11:0.25255739 12:0.57630882 13:0.96499309 14:1.0643907 15:0.94026228 16:0.97103836 17:0.73251979 18:0.0081168366 19:0.0015953871 20:-0.47985384 21:0.21784698 22:0.10704602 23:0.031495317 24:0.028207555 25:0.63166005 26:0.0059173705 27:-0.63063764 28:-0.67977775 29:0.077176773 30:0.12231172 31:-0.81311088 32:-0.17458801 33:-0.047282838 34:0.30237065 35:-0.12238823 36:-0.49852947 37:-0.46510479 38:-0.94783314 39:-1.2947537 40:-1.3557677 41:-1.2233449 42:-1.449016 43:-1.2891372 44:-1.3364517 45:-1.0727058 46:-1.0218699 47:-1.0646834 48:-1.2618953 49:-1.050312 50:-1.5292012 51:-0.94788689 52:-0.10374053 53:-0.56682339 54:-0.46368309 55:-0.89068909 56:-1.276354 57:-1.3440925 58:-1.3581472 59:-1.6079144 60:-1.1627678 61:-0.91381161 62:-0.54995372 63:-0.70202085 64:-0.72031942 65:-1.4440526 66:-1.141085 67:-1.7037847 68:-1.0328687 
0 0 0.3395776505577579 1:-0.31996183 2:-0.4023862 3:0.48049692 4:0.064582324 5:-1.2706876 6:-0.51341695 7:0.89350662 8:-0.27947887 9:-0.37739049 10:-0.27831074 11:0.25446396 12:0.51241159 13:0.94374142 14:1.1154871 15:0.97247079 16:1.0055703 17:0.79771114 18:-0.011737206 19:0.0015953871 20:-0.48167238 21:0.20573995 22:0.031634705 23:-0.10251872 24:0.031693146 25:-0.20811345 26:-0.41648161 27:0.37206558 28:-0.21267047 29:0.10025717 30:-0.041459015 31:0.1420335 32:0.014142822 33:0.20749279 34:0.5096301 35:-0.12267691 36:-0.49852947 37:-0.46252051 38:-0.9436041 39:-1.3023394 40:-1.3568163 41:-1.2244005 42:-1.4699348 43:-1.3883936 44:-1.3153709 45:-1.1173827 46:-1.1527984 47:-1.0859626 48:-1.1859326 49:-0.94702276 50:-1.4967482 51:-1.0488436 52:-0.10404681 53:-0.56682339 54:-0.46224345 55:-0.89042027 56:-1.298173 57:-1.3652425 58:-1.3551355 59:-1.6813826 60:-1.3225351 61:-1.0781335 62:-0.73886135 63:-0.9203188 64:-0.80545937 65:-1.3731984 66:-1.0571581 67:-1.6731097 68:-1.0356702 
0 0 0.0617331420651839 1:-0.31924065 2:-0.4023862 3:0.48120936 4:0.07264555 5:-1.2565376 6:-0.5204708 7:0.90372047 8:-0.27388791 9:-0.35015153 10:-0.25583627 11:0.13191354 12:0.57717182 13:0.95116431 14:0.99632701 15:0.7897147 16:0.84745207 17:0.72911311 18:-0.0047356888 19:0.0015953871 20:-0.47814183 21:-0.14106335 22:-0.046870869 23:-0.29473473 24:-0.12305695 25:0.0085469753 26:0.055145555 27:-0.15562191 28:-0.025278088 29:0.78520632 30:0.41560261 31:-0.48181232 32:-0.682187 33:0.055587419 34:-0.00033400085 35:-0.12307079 36:-0.49852947 37:-0.46758207 38:-0.94406883 39:-1.2707738 40:-1.2712305 41:-1.2544881 42:-1.4290875 43:-1.257047 44:-1.1780097 45:-1.2609871 46:-1.1299367 47:-1.079025 48:-1.3682702 49:-1.1386565 50:-1.287665 51:-1.046025 52:-0.10521427 53:-0.56682339 54:-0.46180935 55:-0.95031282 56:-1.2641937 57:-1.2485106 58:-1.4185962 59:-1.5900919 60:-1.0515231 61:-0.72681915 62:-0.91347249 63:-0.82787952 64:-0.87387697 65:-1.5517948 66:-1.3116901 67:-1.1329493 68:-1.1880979 
0 0 0.5 1:-0.3287085 2:-0.4023862 3:0.48006792 4:0.082735612 5:-1.260393 6:-0.52448608 7:0.89793322 8:-0.2755681 9:-0.34725331 10:-0.2597434 11:0.18320125 12:0.64573546 13:0.94186891 14:0.97414377 15:0.77108066 16:0.8246757 17:0.78786028 18:-0.034803584 19:0.0015953871 20:-0.48254741 21:0.12894787 22:-0.061887524 23:-0.05681295 24:-0.097654373 25:-0.016315833 26:0.033750802 27:-0.03560951 28:0.52527888 29:0.75855039 30:-0.14062681 31:-0.29836576 32:-0.2517745 33:-0.237881 34:0.49907828 35:-0.12355639 36:-0.49852947 37:-0.46722364 38:-0.94011795 39:-1.2662974 40:-1.274218 41:-1.2381966 42:-1.4254023 43:-1.2579186 44:-1.1826783 45:-1.0808346 46:-1.0144513 47:-1.0987047 48:-1.4269839 49:-1.1657035 50:-1.2541765 51:-0.96454792 52:-0.10586315 53:-0.56682339 54:-0.46733355 55:-0.92509485 56:-1.263432 57:-1.2359952 58:-1.4240134 59:-1.5834758 60:-1.0541364 61:-0.70824454 62:-0.88489861 63:-0.83297139 64:-0.94355118 65:-1.5419809 66:-1.3594641 67:-1.035548 68:-1.0783204 
0.281084486929119 0 0 1:-0.24455151 2:-0.4023862 3:-1.0257998 4:0.22763321 5:-0.87348032 6:-0.85513363 7:0.8399053 8:0.33928576 9:-0.64887361 10:0.37102552 11:0.40532922 12:1.2474761 13:1.0357665 14:1.1958895 15:0.9314218 16:0.93443327 17:1.5231763 18:0.075123078 19:0.0015953871 20:0.85827585 21:-0.86780385 22:0.62115995 23:-0.83804643 24:-0.15036941 25:0.95010775 26:0.7423148 27:-0.71222082 28:-0.2694119 29:2.147934 30:-1.8877359 31:-0.20412831 32:0.369399 33:-1.906452 34:0.32167738 35:-0.10735104 36:-0.49852947 37:0.80390353 38:0.053410979 39:-0.015562053 40:-0.39148107 41:-0.78287592 42:-0.79686151 43:-0.69018681 44:-0.61783191 45:-0.48114964 46:0.0064801776 47:-0.29777147 48:-0.77899146 49:-0.82948243 50:-0.52516433 51:-0.99522408 52:-0.086854767 53:-0.56682339 54:0.75723543 55:0.41054974 56:0.74785529 57:0.1507752 58:-0.59258075 59:-0.62665049 60:-0.35696856 61:0.069986182 62:-0.091842491 63:-0.64670338 64:0.29164676 65:-0.15076977 66:-0.60145619 67:-0.41574092 68:-0.85967633 
0.03315915911131988 0 0 1:-0.23764742 2:-0.4023862 3:-1.0020058 4:0.3148139 5:-0.9347306 6:-0.79881506 7:0.85686449 8:0.18628962 9:-0.67572941 10:0.52209942 11:0.64143683 12:1.3792675 13:1.0811852 14:1.1309881 15:0.92939911 16:0.84124766 17:1.5124356 18:0.026167583 19:0.0015953871 20:1.0154384 21:1.1166872 22:-1.0350483 23:0.819406 24:0.27626338 25:-1.4362268 26:-0.30715213 27:1.4098484 28:2.4092178 29:1.460124 30:0.66930666 31:-0.86931307 32:-0.030534593 33:-0.97155034 34:-0.090908432 35:-0.10845138 36:-0.49852947 37:0.80932087 38:0.20676664 39:-0.32404262 40:-0.48752339 41:-0.85836595 42:-0.70092208 43:-0.56727159 44:-0.61873951 45:-0.41436702 46:0.28370315 47:-0.30995428 48:-0.61388687 49:-0.81648435 50:-0.60856961 51:-1.0373819 52:-0.083430909 53:-0.56682339 54:0.79873514 55:0.70860505 56:0.51449893 57:0.21056452 58:-0.66677233 59:-0.18784444 60:0.0034661225 61:0.28053554 62:0.35030895 63:-0.60759151 64:0.62359793 65:-0.038413968 66:-0.37578166 67:-0.21105572 68:-1.0151175 
0 0.1122091588499631 0 1:-0.32825286 2:-0.4023862 3:0.37975948 4:-0.017652964 5:-1.2567937 6:-0.48685956 7:0.93341514 8:-0.3059696 9:-0.53561548 10:-0.32286758 11:0.19645987 12:0.69548049 13:1.1946716 14:1.2357651 15:0.90053653 16:0.78017798 17:0.60491049 18:-0.067026206 19:0.0015953871 20:-0.30960398 21:0.092666478 22:-0.029363153 23:-0.12278774 24:-0.08448694 25:-0.018733437 26:-0.011311894 27:-0.16203793 28:-0.56354687 29:-0.54459498 30:-0.60763123 31:-0.77605196 32:-0.22094566 33:0.60159813 34:0.73095687 35:-0.12260255 36:-0.49852947 37:-0.38460911 38:-0.98347963 39:-1.2660022 40:-1.3423955 41:-1.2443669 42:-1.264989 43:-1.4509949 44:-1.2506583 45:-1.3584233 46:-1.3374769 47:-0.94002937 48:-1.0163456 49:-0.94268471 50:-0.95979825 51:-1.0764312 52:-0.1008622 53:-0.56682339 54:-0.25331021 55:-0.92952634 56:-1.2345019 57:-1.2040395 58:-1.3712155 59:-1.3996066 60:-1.4542654 61:-1.0503865 62:-1.3280315 63:-1.1038843 64:-0.81645379 65:-1.1420785 66:-0.39719107 67:-0.82134245 68:-1.4075281 
0.5 0.5 0.5 1:-0.32424586 2:-0.4023862 3:0.40204428 4:-0.013899069 5:-1.2573296 6:-0.4853615 7:0.93804855 8:-0.30280946 9:-0.56377585 10:-0.35075102 11:0.20004246 12:0.74924095 13:1.193979 14:1.2127793 15:0.86215978 16:0.79103316 17:0.51300387 18:0.015378274 19:0.0015953871 20:-0.38172905 21:0.047759857 22:-0.0056038079 23:0.023255536 24:0.073646517 25:0.029104263 26:-0.32209935 27:-0.2592283 28:0.039003874 29:0.59429488 30:-0.013277073 31:-0.30909295 32:-0.51471665 33:0.11256191 34:-0.78005175 35:-0.12322198 36:-0.49852947 37:-0.4047401 38:-0.98427242 39:-1.2659934 40:-1.343294 41:-1.2421926 42:-1.2651928 43:-1.4914904 44:-1.2929532 45:-1.3422363 46:-1.1409239 47:-0.94062296 48:-1.0510014 49:-0.98358881 50:-0.96695499 51:-0.93829673 52:-0.10635688 53:-0.56682339 54:-0.38505465 55:-0.93339076 56:-1.2349135 57:-1.2189294 58:-1.3592838 59:-1.3910817 60:-1.5015336 61:-1.0737035 62:-1.1012247 63:-0.7703679 64:-0.66567861 65:-1.0329296 66:-0.40908193 67:-0.67092967 68:-0.77070667 
0.5 0 0.5 1:-0.31552307 2:-0.4023862 3:0.40518515 4:-0.019860244 5:-1.258296 6:-0.49281567 7:0.934484 8:-0.30866054 9:-0.52680901 10:-0.24310692 11:0.24565042 12:0.74019302 13:1.180846 14:1.1636824 15:0.85040316 16:0.8234638 17:0.48832343 18:0.032941688 19:0.0015953871 20:-0.4037493 21:-0.076716902 22:-0.012903792 23:-0.10675658 24:-0.061118248 25:-0.055453819 26:0.42408767 27:1.0047928 28:0.46738463 29:-0.10262692 30:-0.19743726 31:-0.65807904 32:-0.16017681 33:0.3373796 34:-0.209266 35:-0.12329588 36:-0.49852947 37:-0.40462443 38:-0.9826613 39:-1.2670338 40:-1.3424892 41:-1.232142 42:-1.2578502 43:-1.4507151 44:-1.1781737 45:-1.3248402 46:-1.1299673 47:-0.90991597 48:-0.95024083 49:-0.99451987 50:-0.89177027 51:-0.96381769 52:-0.105911 53:-0.56682339 54:-0.40499566 55:-0.93307396 56:-1.2352127 57:-1.2216393 58:-1.3362183 59:-1.3811354 60:-1.51929 61:-1.1154058 62:-1.2208779 63:-0.58620597 64:-0.63518196 65:-0.96506598 66:-0.41148219 67:-0.62511582 68:-0.6526464 
0.02644421937239904 0 0 1:-0.32098774 2:-0.4023862 3:0.429952 4:-0.014030696 5:-1.2641103 6:-0.49789163 7:0.94105606 8:-0.2773009 9:-0.52656394 10:-0.23811336 11:0.25863474 12:0.76281001 13:1.2080305 14:1.1611413 15:0.85601731 16:0.79328177 17:0.42541784 18:-0.019895268 19:0.0015953871 20:-0.40694505 21:0.074357524 22:-0.095101399 23:-0.072217605 24:0.10551664 25:0.29372281 26:0.0033522945 27:0.047404104 28:0.13483868 29:0.24872789 30:0.39938637 31:-0.035839691 32:0.07117502 33:-0.31504857 34:-0.53381802 35:-0.12374542 36:-0.49852947 37:-0.43910251 38:-0.98411579 39:-1.2477287 40:-1.3248672 41:-1.2380607 42:-1.2326279 43:-1.450353 44:-1.1814746 45:-1.3381096 46:-1.1013745 47:-0.89130455 48:-0.95306162 49:-0.99466264 50:-0.95463364 51:-0.9927386 52:-0.10673872 53:-0.56682339 54:-0.4048935 55:-0.93294052 56:-1.2214145 57:-1.2267157 58:-1.3201777 59:-1.3125179 60:-1.5320153 61:-0.97909645 62:-1.1879791 63:-0.53810395 64:-0.54349939 65:-0.86040917 66:-0.42117034 67:-0.61498609 68:-0.63730688 
0 0.2481075725897988 0.5 1:-0.31240877 2:-0.4023862 3:0.44701225 4:-0.010227621 5:-1.2534322 6:-0.50576216 7:0.88741088 8:-0.14637799 9:-0.28595922 10:-0.14965603 11:0.14806383 12:0.68864404 13:0.86614981 14:0.84746167 15:0.81663837 16:0.7924278 17:0.51833692 18:-0.006645569 19:0.0015953871 20:-0.44929637 21:-0.14407742 22:-0.020857474 23:-0.12277158 24:-0.048251766 25:-0.093278006 26:0.15825247 27:0.11537029 28:-0.30569356 29:0.28617576 30:-0.040444988 31:-0.34984646 32:-0.49370744 33:0.51685781 34:0.57157407 35:-0.12474203 36:-0.49852947 37:-0.44786162 38:-0.96972284 39:-1.2882676 40:-1.3426073 41:-1.068321 42:-1.2305888 43:-1.4296331 44:-1.2221689 45:-1.2108942 46:-1.3476093 47:-1.1480916 48:-1.1039981 49:-1.2005373 50:-1.1422622 51:-0.80511759 52:-0.10985904 53:-0.56682339 54:-0.44823161 55:-0.95174318 56:-1.3436102 57:-1.3247789 58:-1.1004457 59:-1.1609573 60:-1.3826059 61:-1.0611976 62:-0.86729967 63:-1.7815259 64:-1.2847118 65:-0.94512502 66:-1.0914835 67:-0.85843925 68:-0.61876564 
0 0 0.5 1:-0.30898207 2:-0.4023862 3:0.45487973 4:-0.03337875 5:-1.2316769 6:-0.50840606 7:0.85039046 8:-0.12591545 9:-0.44278974 10:-0.30380019 11:0.34553841 12:0.75177508 13:1.0920204 14:1.0970567 15:0.7256338 16:0.7838326 17:0.53334611 18:-0.013045936 19:0.0015953871 20:-0.45713357 21:-0.079960741 22:-0.035667007 23:-0.29885468 24:-0.2175733 25:-0.34289998 26:-0.2659477 27:-0.12782508 28:-0.00036696546 29:-0.30460224 30:-0.16058768 31:0.62839696 32:1.0004955 33:0.43423666 34:-0.027079718 35:-0.12182781 36:-0.49852947 37:-0.46283954 38:-0.90539332 39:-1.0109676 40:-1.1534032 41:-1.2167179 42:-1.3213448 43:-1.4925494 44:-1.2353811 45:-1.1062367 46:-1.2233746 47:-1.1708167 48:-0.96855339 49:-0.90796223 50:-1.0235272 51:-1.1188808 52:-0.10355837 53:-0.56682339 54:-0.46189792 55:-0.9123148 56:-1.1643206 57:-1.2402093 58:-1.2782884 59:-1.4477553 60:-1.7760556 61:-0.90725283 62:-0.78444235 63:-1.168978 64:-1.09643 65:-1.2072235 66:-1.0528935 67:-0.71692879 68:-1.0834731 
0 0 0.5 1:-0.30898797 2:-0.4023862 3:0.452413 4:-0.019822636 5:-1.2293477 6:-0.502723 7:0.85862863 8:-0.13852674 9:-0.44245753 10:-0.26544889 11:0.41074125 12:0.76833637 13:1.0924228 14:1.0869396 15:0.72827898 16:0.8052721 17:0.53715344 18:0.00043382717 19:0.0015953871 20:-0.45615202 21:0.17335281 22:0.042976383 23:0.084033878 24:0.13290224 25:-0.11888949 26:0.0043510207 27:0.35852113 28:0.6671221 29:0.1815335 30:0.0029293234 31:-0.13709704 32:0.031632621 33:0.22285141 34:0.032610016 35:-0.12182679 36:-0.49852947 37:-0.45786252 38:-0.90175862 39:-1.0120884 40:-1.1539008 41:-1.2215501 42:-1.298096 43:-1.4934331 44:-1.2015737 45:-0.98967252 46:-1.1976229 47:-1.1703923 48:-0.95331983 49:-0.91362407 50:-1.0411469 51:-1.1130912 52:-0.10385673 53:-0.56682339 54:-0.46249002 55:-0.90283077 56:-1.1612169 57:-1.2268222 58:-1.2910365 59:-1.480644 60:-1.8548509 61:-0.89364712 62:-0.64200818 63:-1.0933574 64:-1.0763367 65:-1.1312847 66:-0.82808831 67:-0.68629013 68:-1.0809885 
0 0 0.406201269133747 1:-0.30906194 2:-0.4023862 3:0.45259686 4:-0.0024493455 5:-1.2491579 6:-0.52720012 7:0.86218347 8:-0.16076473 9:-0.42645751 10:-0.23801036 11:0.41899202 12:0.72810593 13:1.1380164 14:1.1830464 15:0.79052193 16:0.88650192 17:0.66173971 18:0.00018142161 19:0.0015953871 20:-0.45370194 21:0.22226254 22:-0.33241074 23:-0.35397705 24:0.055916265 25:-0.20922533 26:0.18386311 27:0.2567406 28:0.086588397 29:-0.448628 30:0.671898 31:1.2826356 32:0.8253848 33:0.84587006 34:1.0580879 35:-0.12184442 36:-0.49852947 37:-0.45798614 38:-0.89270512 39:-1.0885249 40:-1.265472 41:-1.2117178 42:-1.3083178 43:-1.5324736 44:-1.1344317 45:-0.98907438 46:-1.1406001 47:-1.3217252 48:-1.4505617 49:-1.1455397 50:-1.1418304 51:-1.1071901 52:-0.10387421 53:-0.56682339 54:-0.45749046 55:-0.90211999 56:-1.2956403 57:-1.3569949 58:-1.3041608 59:-1.5024368 60:-1.8497188 61:-0.90657155 62:-0.57533019 63:-0.97100124 64:-1.227057 65:-1.3943919 66:-0.88579903 67:-0.70159402 68:-1.2165137 
0.04222282054348616 0 0 1:-0.2713559 2:-0.39569963 3:0.010692732 4:0.037313157 5:-1.1747807 6:-0.69743787 7:0.75496216 8:0.17761381 9:-0.51481276 10:-0.077419828 11:0.94382974 12:0.83177135 13:1.0674557 14:1.1077534 15:0.62160626 16:0.60090965 17:0.26712157 18:-0.076468282 19:-1.9773686 20:0.96929779 21:0.56838838 22:-0.18631358 23:-0.21547615 24:-0.12580492 25:-0.58431114 26:-0.93590011 27:-0.31439161 28:-0.1766145 29:-0.015545594 30:0.33355254 31:-0.36460085 32:-1.1620294 33:-1.0115208 34:-1.2412899 35:-0.10926171 36:-0.47622727 37:0.32310209 38:-0.46855784 39:-0.70018377 40:-1.0566935 41:-0.87384071 42:-0.4906097 43:-1.0208106 44:-0.93376906 45:-1.0531839 46:-0.44203479 47:-0.97930778 48:-1.1213449 49:-1.3469034 50:-1.1211413 51:-1.3830688 52:-0.094773048 53:0.31377245 54:2.6882236 55:-0.44950601 56:-0.8314518 57:-1.2090938 58:-1.0998428 59:-0.69329091 60:-0.98585513 61:-0.71332087 62:-1.5227312 63:-0.087250885 64:-0.65476166 65:-1.1228373 66:-1.267245 67:-1.11883 68:-1.334876 
0 0 0.5 1:-0.31396017 2:-0.4023862 3:0.47791528 4:0.061840219 5:-1.2358531 6:-0.51922114 7:0.88221405 8:-0.086827931 9:-0.40681742 10:-0.2627976 11:0.33359523 12:0.50668168 13:0.9532527 14:0.85774379 15:0.45746622 16:0.43093673 17:0.4010197 18:0.0035623149 19:0.0015953871 20:-0.47902447 21:0.1595213 22:-0.12847272 23:-0.25086603 24:0.077934671 25:0.16304566 26:-0.20699038 27:-0.39962205 28:0.28109455 29:0.038825414 30:0.21671681 31:0.46070613 32:-0.41695921 33:0.055322646 34:0.38873882 35:-0.12387227 36:-0.49852947 37:-0.46163136 38:-0.92495283 39:-1.2212985 40:-1.3288064 41:-1.2165124 42:-1.1583298 43:-1.2514057 44:-1.435437 45:-1.3899648 46:-1.3220753 47:-1.2596661 48:-0.83298563 49:-1.5519288 50:-1.2054084 51:-0.67064525 52:-0.1080146 53:-0.56682339 54:-0.461762 55:-0.90249235 56:-1.2332492 57:-1.3262301 58:-1.3254072 59:-0.96046416 60:-1.3034405 61:-1.6942303 62:-1.2650833 63:-1.1967179 64:-1.4095389 65:-0.78041486 66:-1.8819744 67:-0.98562349 68:-0.30010349 
0 0 0.5 1:-0.3032881 2:-0.4023862 3:0.47449863 4:0.053991429 5:-1.2408118 6:-0.53173692 7:0.89197859 8:-0.024174881 9:-0.39542329 10:-0.3219328 11:0.34487707 12:0.56661981 13:0.9652174 14:0.90413832 15:0.49843385 16:0.50718911 17:0.49634853 18:0.040200815 19:0.0015953871 20:-0.47895599 21:-0.10090106 22:-0.080594359 23:-0.180265 24:0.15799396 25:0.58737197 26:0.13109136 27:-0.55070492 28:0.11748603 29:0.6628421 30:0.17408624 31:0.61820698 32:0.5420293 33:0.79400539 34:0.8096768 35:-0.12412478 36:-0.49852947 37:-0.46207827 38:-0.92435233 39:-1.212763 40:-1.2924972 41:-1.2515167 42:-1.2555688 43:-1.2483768 44:-1.5154422 45:-1.3845015 46:-1.2166866 47:-1.2160524 48:-0.70355898 49:-1.3363729 50:-1.0475421 51:-0.56167163 52:-0.10849352 53:-0.56682339 54:-0.46169715 55:-0.89486503 56:-1.228853 57:-1.3238627 58:-1.3367645 59:-1.0015454 60:-1.2980793 61:-1.6862707 62:-1.2929528 63:-1.0311588 64:-1.4234969 65:-0.77549716 66:-1.8706414 67:-1.0338624 68:-0.34585293 
0 0 0.1656978606376039 1:-0.31212938 2:-0.4023862 3:0.47615333 4:0.043611355 5:-1.2406598 6:-0.52559656 7:0.88393191 8:-0.07198288 9:-0.44798863 10:-0.30089563 11:0.41154752 12:0.64587175 13:0.96164732 14:0.89506509 15:0.48409008 16:0.44686476 17:0.4465361 18:-0.032469785 19:0.0015953871 20:-0.47567654 21:-0.13333831 22:0.0060604248 23:0.090675573 24:-0.13479625 25:-0.44916733 26:-0.6017165 27:0.19703773 28:0.6820805 29:0.87714876 30:-0.055875146 31:-0.1231442 32:-0.19463328 33:-0.62913377 34:-0.42264895 35:-0.12395083 36:-0.49852947 37:-0.4625202 38:-0.93818792 39:-1.213093 40:-1.2821811 41:-1.2743875 42:-1.2520335 43:-1.3308034 44:-1.480296 45:-1.3144545 46:-1.0709879 47:-1.2234822 48:-0.71483665 49:-1.3622567 50:-1.0362645 51:-0.55914048 52:-0.10854575 53:-0.56682339 54:-0.46214013 55:-0.89708634 56:-1.2308543 57:-1.2591949 58:-1.4397355 59:-1.1211185 60:-1.372397 61:-1.6661612 62:-1.2690643 63:-1.0275813 64:-1.4024285 65:-0.71281166 66:-1.7100148 67:-0.81485207 68:-0.21846366 
0.08605806614585244 0 0.5 1:-0.31578743 2:-0.4023862 3:0.47650572 4:0.033663045 5:-1.2388908 6:-0.51668805 7:0.88595781 8:-0.11011544 9:-0.43818111 10:-0.27405228 11:0.38418147 12:0.62559745 13:0.96083107 14:0.81626217 15:0.45333072 16:0.47718147 17:0.44881713 18:-0.013167078 19:0.0015953871 20:-0.47736572 21:-0.12779986 22:0.033476707 23:0.13087628 24:0.030782969 25:-0.35837533 26:0.1129129 27:0.25119058 28:-0.27646671 29:-0.22719496 30:-0.015110487 31:-1.0551141 32:-0.41326387 33:0.31535261 34:0.019651311 35:-0.12375623 36:-0.49852947 37:-0.46238601 38:-0.92845267 39:-1.2167741 40:-1.28499 41:-1.267941 42:-1.3200405 43:-1.3109329 44:-1.5175128 45:-1.2678266 46:-1.0278601 47:-1.2235708 48:-0.880423 49:-1.3912093 50:-1.0626785 51:-0.55902283 52:-0.1086628 53:-0.56682339 54:-0.46257818 55:-0.89770773 56:-1.2307113 57:-1.2633406 58:-1.437403 59:-1.1087859 60:-1.3504145 61:-1.6821357 62:-1.0826303 63:-0.74136657 64:-1.4073168 65:-0.75307898 66:-1.6969563 67:-0.8592527 68:-0.21451761 
0 0 0.5 1:-0.31338252 2:-0.4023862 3:0.47241494 4:0.035812467 5:-1.2447815 6:-0.52835441 7:0.89076709 8:-0.13199625 9:-0.43182329 10:-0.24968572 11:0.35671994 12:0.5582177 13:0.92934839 14:0.78758138 15:0.45775615 16:0.51202515 17:0.54643024 18:0.009412023 19:0.0015953871 20:-0.4776853 21:0.027198236 22:-0.096396658 23:-0.16792901 24:0.076536231 25:-0.20587228 26:0.073389085 27:0.22809062 28:-0.27744045 29:-0.74987604 30:-0.46906651 31:-0.38520853 32:0.055342803 33:0.36252345 34:0.82907064 35:-0.12352325 36:-0.49852947 37:-0.4669699 38:-0.92623328 39:-1.2165899 40:-1.3124329 41:-1.2606693 42:-1.3359657 43:-1.2898597 44:-1.4874193 45:-1.2657983 46:-1.1009446 47:-1.2171274 48:-0.82852878 49:-1.3893563 50:-1.0514357 51:-0.83967653 52:-0.10805298 53:-0.56682339 54:-0.46246121 55:-0.88275552 56:-1.2436876 57:-1.3049278 58:-1.4415841 59:-1.1210326 60:-1.3545718 61:-1.6880241 62:-1.082739 63:-0.8495723 64:-1.3986974 65:-0.90197486 66:-1.7132324 67:-0.85535268 68:-0.41287664 
0 0 0.1038130842434616 1:-0.31691208 2:-0.4023862 3:0.47307375 4:0.052633576 5:-1.2485953 6:-0.5269849 7:0.89709378 8:-0.13398077 9:-0.36579363 10:-0.19733069 11:0.378436 12:0.54130182 13:0.87781069 14:0.7603335 15:0.45818967 16:0.55818044 17:0.51179892 18:-0.012688616 19:0.0015953871 20:-0.47366778 21:0.21518781 22:-0.061182312 23:0.021389799 24:0.10148054 25:-0.019171341 26:0.75707146 27:0.48912899 28:0.22384512 29:-0.18992929 30:-0.76594258 31:-0.36605725 32:0.0021780952 33:0.48039109 34:-0.29375345 35:-0.12395978 36:-0.49852947 37:-0.46703099 38:-0.97263008 39:-1.2133333 40:-1.3160121 41:-1.2624877 42:-1.3366327 43:-1.3156679 44:-1.3196389 45:-1.1965446 46:-1.1216677 47:-1.2199258 48:-0.82516086 49:-1.3884324 50:-0.97856802 51:-0.81129135 52:-0.10815823 53:-0.56682339 54:-0.46688867 55:-0.91596276 56:-1.2451317 57:-1.3563809 58:-1.4441884 59:-1.1261378 60:-1.571688 61:-1.6290963 62:-0.96800443 63:-0.84592034 64:-1.4033573 65:-0.90010543 66:-1.7192112 67:-0.8448333 68:-0.625685 
0 0.3548596895663088 0 1:-0.32361634 2:-0.4023862 3:0.47910268 4:0.0044144133 5:-1.2703077 6:-0.54671818 7:0.88647919 8:-0.20478283 9:-0.47299836 10:-0.2470945 11:0.24544876 12:0.7321011 13:1.1041045 14:1.1817041 15:0.90302953 16:0.66395216 17:0.41017533 18:-0.005217904 19:0.0015953871 20:-0.48733343 21:0.30510579 22:-0.011127812 23:-0.089368083 24:0.19037959 25:0.079226393 26:-0.16239494 27:-0.24200049 28:-0.13588371 29:0.12643496 30:0.033329072 31:-0.055320538 32:-0.0058517959 33:0.73129074 34:0.17531756 35:-0.1237424 36:-0.49852947 37:-0.45390395 38:-0.88606316 39:-1.2709965 40:-1.2955193 41:-1.3042031 42:-1.2569763 43:-1.4251629 44:-1.2930941 45:-1.1305241 46:-0.81153563 47:-1.2536282 48:-1.0636834 49:-1.289106 50:-1.2298428 51:-1.0099363 52:-0.10748903 53:-0.56682339 54:-0.45532014 55:-0.94974356 56:-1.2692293 57:-1.2724176 58:-1.3913445 59:-1.1222061 60:-1.3834361 61:-1.3412049 62:-0.94405819 63:-0.16436006 64:-1.0153241 65:-0.74663059 66:-1.1145212 67:-1.0564786 68:-0.73154416 
