svm_type c_svc
kernel_type linear
nr_class 4
total_sv 71
rho -0.191681 0.848617 -0.04739 0.512399 0.144989 -0.574895
label 0 1 2 3
probA -3.62353 -3.53706 -4.03467 -3.84609 -3.81906 -4.30093
probB 0.0974983 0.121357 0.176886 -0.0303517 0.0958809 0.0471893
nr_sv 19 10 27 15
SV
0.01 0.01 0 1:0.55264226 2:0.78188965 3:-0.36788301 4:1.2406448 5:-0.43615027 6:-1.5347356 7:0.83639384 8:0.86610985 9:0.51654834 10:0.5990689 11:1.0047036 12:0.61587124 13:-1.0533892 14:-0.36390831 15:0.7374254 16:-0.23369779 17:-0.8041175 18:0.54631376 19:0.77182021 20:-0.36135261 21:1.221887 22:-0.45613968 23:-1.5391078 24:0.85337057 25:0.87089491 26:0.49620448 27:0.57306957 28:1.0339989 29:0.62034618 30:-1.0119146 31:-0.24134805 32:0.78473077 33:-0.21916962 34:-0.77435264 35:1.7824272 36:2.044647 37:1.5710163 38:1.7815762 39:1.6924306 40:1.2941209 41:0.25362003 42:0.48994629 43:-0.75633118 44:-0.89138011 45:-0.31291418 46:-1.1663588 47:-0.38393936 48:0.34823059 49:-0.56477187 50:-0.43699833 51:0.99242526 52:1.7573915 53:2.0064012 54:1.5239475 55:1.734115 56:1.6746683 57:1.2373363 58:0.28285755 59:0.46373048 60:-0.80105643 61:-0.97680278 62:-0.25958177 63:-1.1771796 64:-0.39476339 65:0.21970904 66:-0.50456679 67:-0.44814052 68:0.99447719 
0.01 0.01 0.0007160115763237981 1:0.55622414 2:0.78188965 3:-0.36912259 4:1.2413439 5:-0.3633932 6:-1.5463046 7:0.71639914 8:0.9187319 9:0.51182538 10:0.64522938 11:0.92407995 12:0.67589244 13:-1.044757 14:-0.66419024 15:0.60574838 16:-0.26282811 17:-0.78771505 18:0.54598614 19:0.77182021 20:-0.35870956 21:1.2226265 22:-0.43975326 23:-1.516724 24:0.8377731 25:0.85497442 26:0.51759613 27:0.59937783 28:0.99910147 29:0.61517625 30:-1.0480656 31:-0.36201738 32:0.73645368 33:-0.23160484 34:-0.79804099 35:1.7820089 36:2.044647 37:1.5708159 38:1.7811651 39:1.6759167 40:1.2853316 41:0.37105413 42:0.4515905 43:-0.74741094 44:-0.65549894 45:-0.13279728 46:-0.45799216 47:-0.36887001 48:0.97472125 49:-0.56692753 50:-0.46702612 51:1.0296329 52:1.7574294 53:2.0064012 54:1.5243704 55:1.7336476 56:1.6639137 57:1.2666092 58:0.25672979 59:0.48468725 60:-0.75477447 61:-0.89084863 62:-0.31274359 63:-1.167588 64:-0.38698907 65:0.34641994 66:-0.56372003 67:-0.44336276 68:0.97284354 
0.01 0.01 0.006915747137329068 1:-0.60361569 2:-0.10509269 3:0.41650325 4:1.2722986 5:-0.73096612 6:-1.3735596 7:0.81017635 8:0.81121078 9:0.55595552 10:0.64222463 11:1.0215967 12:0.67567533 13:-0.97785419 14:-0.58341512 15:0.68528858 16:-0.10242213 17:-0.66940495 18:0.54956469 19:0.77182021 20:-0.35994731 21:1.2233224 22:-0.36689406 23:-1.5282468 24:0.71773958 25:0.90747673 26:0.51286008 27:0.64578223 28:0.91840125 29:0.67521247 30:-1.0394271 31:-0.66204203 32:0.60452652 33:-0.26084084 34:-0.78161804 35:-0.37766272 36:0.50884831 37:-0.33170324 38:1.7657198 39:0.4771952 40:1.1239964 41:0.17667013 42:0.44826993 43:-0.98157692 44:-0.64127577 45:-0.36688114 46:-0.45717757 47:-0.56047075 48:0.75773938 49:-0.6369697 50:-0.71130903 51:0.55389839 52:1.7570141 53:2.0064012 54:1.5241735 55:1.7332429 56:1.6475533 57:1.2578998 58:0.37452682 59:0.44621125 60:-0.74586486 61:-0.65513671 62:-0.13273527 63:-0.4607962 64:-0.37194384 65:0.97496011 66:-0.56587555 67:-0.47308602 68:1.0098098 
0.002417977727115 0.01 0.007383049993893809 1:-0.60917676 2:-0.10509269 3:0.43918385 4:0.90306223 5:-0.85504775 6:-1.328301 7:0.88007951 8:0.62176122 9:0.57972013 10:0.63877857 11:1.0184098 12:0.64593942 13:-0.89560905 14:-0.4878671 15:0.68959161 16:-0.067717034 17:-0.54766301 18:-0.60919507 19:-0.11358084 20:0.42451369 21:1.2541369 22:-0.73498293 23:-1.3561922 24:0.81154712 25:0.80020029 26:0.55711259 27:0.6427616 28:1.0160106 29:0.6749953 30:-0.97247597 31:-0.58133613 32:0.68421782 33:-0.099852876 34:-0.66316001 35:-0.37817303 36:0.50884831 37:-0.33724895 38:1.2114205 39:0.34044704 40:1.1321892 41:0.14061909 42:0.25208258 43:-1.1634661 44:-0.63710792 45:-0.36610389 46:-0.58530535 47:-0.56876818 48:0.70923192 49:-0.63590391 50:-0.81502712 51:-0.28788349 52:-0.3874455 53:0.48714069 54:-0.34525322 55:1.7180378 56:0.45997128 57:1.0980319 58:0.17954207 59:0.44288028 60:-0.97975176 61:-0.64092374 62:-0.36667801 63:-0.45998342 64:-0.56323794 65:0.7572684 66:-0.63591272 67:-0.71489152 68:0.53716134 
0 0.01 0 1:-0.65705649 2:-0.42187215 3:0.49104612 4:0.82623761 5:-0.96625069 6:-1.1508337 7:0.94754312 8:0.46462237 9:0.61559205 10:0.60511139 11:1.0981908 12:0.65812029 13:-0.81273177 14:-0.53620833 15:0.79294401 16:-0.096595876 17:-0.49193297 18:-0.61475096 19:-0.11358084 20:0.44716067 21:0.88657349 22:-0.85923873 23:-1.3111145 24:0.8814729 25:0.61118183 26:0.58094309 27:0.63929734 28:1.0128207 29:0.64525196 30:-0.89017134 31:-0.48586997 32:0.68852902 33:-0.065021859 34:-0.54126587 35:-0.40591905 36:0.16913525 37:-0.38615638 38:1.2103863 39:0.24627524 40:0.78864681 41:0.17005316 42:0.067968735 43:-1.2102903 44:-0.8920942 45:-0.30865336 46:-0.54912217 47:-0.75272332 48:0.7726847 49:-0.81550019 50:-0.86116045 51:-0.49976798 52:-0.38795222 53:0.48714069 54:-0.35070246 55:1.1723604 56:0.3244939 57:1.1061502 58:0.14337961 59:0.24607808 60:-1.1614242 61:-0.63675888 62:-0.36590124 63:-0.58782633 64:-0.57152208 65:0.70860225 66:-0.63484701 67:-0.81755776 68:-0.29915999 
0 0.01 0 1:-0.7169767 2:-0.75625044 3:0.55131482 4:0.60977115 5:-1.1570078 6:-0.88816593 7:1.0673599 8:0.25670697 9:0.66778349 10:0.62245496 11:1.1992682 12:0.6379151 13:-0.76920928 14:-0.38059518 15:0.87853889 16:-0.10387012 17:-0.46131192 18:-0.6625861 19:-0.42979555 20:0.49894603 21:0.81009696 22:-0.97059775 23:-1.1343566 24:0.94895834 25:0.45440056 26:0.61691448 27:0.60545225 28:1.0926775 29:0.65743587 30:-0.80723412 31:-0.53416978 32:0.79207776 33:-0.09400548 34:-0.48546616 35:-0.47124841 36:-0.80736245 37:-0.53017365 38:0.91228926 39:-0.4637355 40:-0.28031613 41:-0.30784821 42:-0.28015578 43:-1.2496918 44:-0.87152525 45:-0.73861048 46:-0.50370676 47:-0.63579233 48:0.66035329 49:-1.0937164 50:-0.82939208 51:-0.68247624 52:-0.41550281 53:0.1510858 54:-0.3987592 55:1.1713423 56:0.23119722 57:0.76573205 58:0.17290465 59:0.061387216 60:-1.2081926 61:-0.89156221 62:-0.30848533 63:-0.55172359 64:-0.75518282 65:0.77226261 66:-0.81443049 67:-0.86322322 68:-0.50967002 
0 0.01 0 1:-0.72307294 2:-0.75625044 3:0.54952852 4:0.25502281 5:-1.1995783 6:-0.81050771 7:1.1369502 8:0.10266564 9:0.69023299 10:0.60592953 11:1.1910411 12:0.65957674 13:-0.72652278 14:-0.28123354 15:0.90387398 16:-0.17400953 17:-0.48181689 18:-0.72245051 19:-0.76357771 20:0.55912537 21:0.59461128 22:-1.1616226 23:-0.8727386 24:1.0688139 25:0.24695829 26:0.66925063 27:0.62288746 28:1.1938508 29:0.63722562 30:-0.76368015 31:-0.37868996 32:0.87783524 33:-0.10130612 34:-0.45480683 35:-0.47659302 36:-0.80736245 37:-0.53092369 38:-0.32685397 39:-0.48689051 40:-0.3892832 41:-0.34949951 42:-0.63011674 43:-1.2009899 44:-0.92609294 45:-0.74810939 46:-0.64642285 47:-0.71862636 48:0.57483549 49:-1.0754135 50:-0.99077906 51:-0.69829728 52:-0.480372 53:-0.81489656 54:-0.54027143 55:0.87788207 56:-0.47221555 57:-0.29350939 58:-0.30647369 59:-0.28782832 60:-1.2475471 61:-0.87100802 62:-0.73818327 63:-0.50640916 64:-0.63843897 65:0.65956371 66:-1.0926269 67:-0.83177703 68:-0.69119307 
0 0.0004112174592683132 0 1:-0.73483862 2:-0.75625044 3:0.54701687 4:0.22847399 5:-1.2082442 6:-0.8022011 7:1.155217 8:0.080696233 9:0.71190705 10:0.60680447 11:1.1123069 12:0.64382579 13:-0.72576173 14:-0.27839288 15:0.87982426 16:-0.13735447 17:-0.45313295 18:-0.72854107 19:-0.76357771 20:0.55734172 21:0.24147027 22:-1.2042529 23:-0.79539077 24:1.1384267 25:0.093267502 26:0.69176238 27:0.60627471 28:1.1856159 29:0.65889268 30:-0.72096279 31:-0.27941346 32:0.90321846 33:-0.17170001 34:-0.47533743 35:-0.47539862 36:-0.80736245 37:-0.53013156 38:-0.33847842 39:-0.48195035 40:-0.39133387 41:-0.35193096 42:-0.62809152 43:-1.2371043 44:-0.92862591 45:-1.0218069 46:-0.68839452 47:-0.7188867 48:0.5782099 49:-1.1192964 50:-0.94793697 51:-0.73370394 52:-0.48567897 53:-0.81489656 54:-0.54100843 55:-0.34198675 56:-0.49515538 57:-0.40148547 58:-0.34825371 59:-0.63888606 60:-1.1989032 61:-0.92553656 62:-0.74767645 63:-0.64880795 64:-0.72114043 65:0.57376616 66:-1.0743253 67:-0.9915273 68:-0.70691148 
0 0.01 0 1:-0.7384856 2:-0.75625044 3:0.54710889 4:0.25194845 5:-1.2097427 6:-0.80023391 7:1.1463968 8:0.032224588 9:0.71903483 10:0.61782001 11:1.1581994 12:0.66193654 13:-0.67848519 14:-0.22095336 15:0.82139108 16:-0.16880436 17:-0.46852154 18:-0.7402958 19:-0.76357771 20:0.5548338 21:0.21504173 22:-1.2129309 23:-0.78711736 24:1.1566994 25:0.071348084 26:0.71349654 27:0.60715428 28:1.1068069 29:0.64313779 30:-0.72020118 31:-0.27657523 32:0.87912306 33:-0.13491196 34:-0.44661763 35:-0.47572722 36:-0.80736245 37:-0.53009531 38:-0.34384211 39:-0.48136849 40:-0.39012295 41:-0.36236849 42:-0.60328996 43:-1.2563723 44:-0.95136015 45:-0.93472119 46:-0.65072207 47:-0.69706699 48:0.611814 49:-1.1385522 50:-0.87949621 51:-0.65115616 52:-0.48449298 53:-0.81489656 54:-0.54023008 55:-0.35343038 56:-0.49026112 57:-0.4035175 58:-0.35069268 59:-0.63685449 60:-1.2349746 61:-0.92806771 62:-1.0212089 63:-0.69068631 64:-0.72140035 65:0.57715161 66:-1.1182051 67:-0.9491197 68:-0.74208846 
0.004315207218669842 0 0.004324309598329578 1:-0.72965756 2:-0.76328998 3:0.55319855 4:0.14082962 5:-1.2981328 6:-0.58926995 7:1.2647298 8:-0.38510356 9:0.70750398 10:0.63714246 11:1.2064332 12:0.75073968 13:-0.33515565 14:-0.19351396 15:0.54422084 16:-0.62376716 17:-0.82849788 18:-0.73367373 19:-0.77060471 20:0.55517431 21:0.1773842 22:-1.2908173 23:-0.57848162 24:1.2342539 25:-0.38941706 26:0.70634888 27:0.61500116 28:1.2292244 29:0.765468 30:-0.35035841 31:-0.2999328 32:0.51067499 33:-0.54363927 34:-0.77109414 35:-0.45725591 36:-0.82838143 37:-0.52479712 38:-0.73759993 39:-0.73670837 40:-0.92317474 41:-1.0639588 42:-0.9046064 43:-0.54301957 44:-1.1265545 45:-0.96659738 46:-0.44231279 47:-0.18567035 48:-0.82638042 49:-0.45929839 50:-0.5245665 51:-1.1167418 52:-0.4658975 53:-0.8356892 54:-0.5347914 55:-0.78273419 56:-0.73760681 57:-0.93272097 58:-1.0445879 59:-0.91256275 60:-0.53954989 61:-1.0476464 62:-0.99581877 63:-0.54798374 64:-0.14394153 65:-0.77870719 66:-0.49165567 67:-0.32746319 68:-1.2084377 
0 0 0.007677196678625639 1:-0.74575317 2:-0.76328998 3:0.55432988 4:0.14547588 5:-1.292479 6:-0.5915555 7:1.219372 8:-0.42117594 9:0.72102237 10:0.62474131 11:1.2237351 12:0.74838988 13:-0.37554415 14:-0.17966432 15:0.58358637 16:-0.54421539 17:-0.76541991 18:-0.75220941 19:-0.77060471 20:0.56005504 21:0.11117162 22:-1.3065373 23:-0.57844656 24:1.2526141 25:-0.41935116 26:0.72853916 27:0.6527017 28:1.2611536 29:0.74485816 30:-0.38312652 31:-0.23371385 32:0.51754094 33:-0.5617952 34:-0.76996883 35:-0.45554427 36:-0.82838143 37:-0.5244534 38:-0.70705474 39:-0.74083391 40:-0.92151753 41:-1.0919727 42:-0.9135347 43:-0.58966663 44:-1.1643842 45:-0.95665024 46:-0.4270541 47:-0.17272907 48:-0.97716983 49:-0.38130736 50:-0.33879433 51:-0.92254565 52:-0.46480234 53:-0.8356892 54:-0.53433796 55:-0.73648293 56:-0.74233109 57:-0.92632711 58:-1.0607287 59:-0.91410076 60:-0.58079726 61:-1.1283796 62:-0.87242539 63:-0.43987933 64:-0.16274325 65:-0.82110472 66:-0.4619545 67:-0.39147461 68:-0.94584004 
0 0.01 0 1:-0.74900677 2:-0.76328998 3:0.55249486 4:0.14146821 5:-1.3008943 6:-0.59674833 7:1.2620324 8:-0.45360523 9:0.68110233 10:0.58364757 11:1.2175733 12:0.81039341 13:-0.40581999 14:-0.27638763 15:0.59929121 16:-0.4441816 17:-0.64812466 18:-0.74915183 19:-0.77060471 20:0.56339533 21:0.13139401 22:-1.3053579 23:-0.57558068 24:1.2706898 25:-0.41628851 26:0.70447999 27:0.59980572 28:1.2106938 29:0.77791334 30:-0.45025186 31:-0.24650383 32:0.61278194 33:-0.50033715 34:-0.7104725 35:-0.4580236 36:-0.82838143 37:-0.52265362 38:-0.71056164 39:-0.73967016 40:-0.91970526 41:-1.1166639 42:-0.90967988 43:-0.67147522 44:-1.1717557 45:-0.95010851 46:-0.55250658 47:-0.28325476 48:-1.0257985 49:-0.40901815 50:-0.24433958 51:-0.56106569 52:-0.46531313 53:-0.8356892 54:-0.53435848 55:-0.71873893 56:-0.745826 57:-0.92866198 58:-1.1090029 59:-0.91862681 60:-0.64072239 61:-1.1733613 62:-0.95076515 63:-0.50163865 64:-0.25469649 65:-1.0209193 66:-0.39223242 67:-0.38953447 68:-0.91469395 
0 0.01 0 1:-0.73317541 2:-0.76328998 3:0.55303616 4:0.13793835 5:-1.2969387 6:-0.58086347 7:1.2748054 8:-0.45369024 9:0.67721504 10:0.59428905 11:1.2476215 12:0.80736544 13:-0.35977491 14:-0.2638209 15:0.57768751 16:-0.51325851 17:-0.67393441 18:-0.75445075 19:-0.77060471 20:0.56030367 21:0.12843016 22:-1.3057111 23:-0.58248574 24:1.2635494 25:-0.46173753 26:0.68260641 27:0.58387501 28:1.2121733 29:0.8097471 30:-0.40002805 31:-0.27457169 32:0.59805708 33:-0.44285233 34:-0.64185312 35:-0.45647318 36:-0.82838143 37:-0.52296603 38:-0.71085051 39:-0.74219077 40:-0.92553206 41:-1.1079465 42:-0.90973971 43:-0.67718682 44:-1.1890393 45:-0.93453475 46:-0.5472531 47:-0.28695713 48:-0.99461529 49:-0.43140979 50:-0.30326522 51:-0.56429045 52:-0.46724034 53:-0.8356892 54:-0.5328822 55:-0.71972598 56:-0.745586 57:-0.9270837 58:-1.117789 59:-0.91932535 60:-0.67001963 61:-1.1710231 62:-0.9495538 63:-0.55510048 64:-0.28646561 65:-1.0321042 66:-0.40797742 67:-0.25265786 68:-0.57057009 
0 0.003315347259564541 0 1:-0.7300826 2:-0.76328998 3:0.55396179 4:0.12052209 5:-1.3044794 6:-0.5942635 7:1.2722954 8:-0.44595492 9:0.68543391 10:0.60182215 11:1.2513566 12:0.8015436 13:-0.34634373 14:-0.3009465 15:0.5616262 16:-0.49515837 17:-0.60677196 18:-0.73863413 19:-0.77060471 20:0.56084417 21:0.1249163 22:-1.3017499 23:-0.56666437 24:1.2763265 25:-0.46182235 26:0.67870834 27:0.59457272 28:1.24225 29:0.80671838 30:-0.35394967 31:-0.26201573 32:0.57641234 33:-0.51217987 34:-0.66769514 35:-0.45638039 36:-0.82838143 37:-0.52264194 38:-0.71590144 39:-0.73772823 40:-0.91472487 41:-1.1098602 42:-0.91319096 43:-0.67174053 44:-1.1866305 45:-0.91999604 46:-0.55672688 47:-0.27696058 48:-1.0586993 49:-0.42397794 50:-0.32098538 51:-0.63691591 52:-0.46570084 53:-0.8356892 54:-0.53318919 55:-0.72001036 56:-0.74808319 57:-0.9328575 58:-1.1090447 59:-0.91938536 60:-0.67572443 61:-1.1882943 62:-0.93398943 63:-0.54985868 64:-0.29016206 65:-1.0008189 66:-0.43036746 67:-0.3109859 68:-0.57377393 
0 0.01 0 1:-0.72870157 2:-0.76328998 3:0.54978293 4:0.13288207 5:-1.2926392 6:-0.55574242 7:1.292113 8:-0.52170202 9:0.64852855 10:0.57235283 11:1.2313612 12:0.79184767 13:-0.36470869 14:-0.20261481 15:0.67328216 16:-0.46163916 17:-0.62261016 18:-0.72892424 19:-0.77060471 20:0.55748766 21:0.12358471 22:-1.3054399 23:-0.57449882 24:1.2746574 25:-0.47199915 26:0.69316413 27:0.60814677 28:1.2419326 29:0.80895612 30:-0.34727732 31:-0.23947686 32:0.56844112 33:-0.55016257 34:-0.61770758 35:-0.46057262 36:-0.82838143 37:-0.52160846 38:-0.69056675 39:-0.73873417 40:-0.91019832 41:-1.1214284 42:-0.82290878 43:-0.52394114 44:-1.1392988 45:-0.94439399 46:-0.7194914 47:-0.28521715 48:-1.0214868 49:-0.38460733 50:-0.34056257 51:-0.64787625 52:-0.46867221 53:-0.8356892 54:-0.5318961 55:-0.70161196 56:-0.74449932 57:-0.91423563 58:-1.1094795 59:-0.93426962 60:-0.66765124 61:-1.1873421 62:-0.91973592 63:-0.59295383 64:-0.27314417 65:-1.0822513 66:-0.42224078 67:-0.38387468 68:-0.65472788 
0 0.01 0 1:-0.73840855 2:-0.76328998 3:0.5514339 4:0.11039694 5:-1.2985867 6:-0.54434508 7:1.3229372 8:-0.57031137 9:0.60783262 10:0.5542513 11:1.2903176 12:0.80454278 13:-0.46758739 14:-0.31938997 15:0.83703523 16:-0.28125898 17:-0.57617517 18:-0.73416446 19:-0.77060471 20:0.55759576 21:0.11988293 22:-1.2974444 23:-0.54164373 24:1.2936397 25:-0.52967936 26:0.64994231 27:0.57252059 28:1.2259743 29:0.79119672 30:-0.35888702 31:-0.20086208 32:0.67218859 33:-0.46037323 34:-0.61630672 35:-0.46365348 36:-0.82838143 37:-0.52100951 38:-0.68209397 39:-0.74170237 40:-0.90041825 41:-1.1769949 42:-0.77709158 43:-0.61966044 44:-1.2497754 45:-0.92804856 46:-0.78984997 47:-0.25708189 48:-1.0077933 49:-0.69550566 50:-0.62795182 51:-0.79910681 52:-0.46977142 53:-0.8356892 54:-0.53185523 55:-0.7000421 56:-0.7446587 57:-0.91766322 58:-1.1225683 59:-0.83228231 60:-0.52266139 61:-1.1385895 62:-0.94384272 63:-0.72171404 64:-0.28842486 65:-1.0277783 66:-0.38356834 67:-0.347905 68:-0.65681752 
0 0.01 0 1:-0.7489181 2:-0.76328998 3:0.55565607 4:0.13502596 5:-1.2939575 6:-0.56033351 7:1.3139521 8:-0.55565058 9:0.62752658 10:0.55809759 11:1.2871345 12:0.80804576 13:-0.45478129 14:-0.44997018 15:0.65400457 16:-0.31262911 17:-0.55083326 18:-0.74695232 19:-0.77060471 20:0.55910375 21:0.11107301 22:-1.301024 23:-0.53821689 24:1.3264837 25:-0.53979239 26:0.6236617 27:0.55228528 28:1.2850408 29:0.78642571 30:-0.44006736 31:-0.38424247 32:0.77986005 33:-0.28127802 34:-0.54812105 35:-0.46679331 36:-0.82838143 37:-0.52172144 38:-0.69020869 39:-0.74380999 40:-0.89808566 41:-1.1742799 42:-0.75227864 43:-0.60905842 44:-1.2433815 45:-0.92789903 46:-0.82007389 47:-0.26358582 48:-1.2056967 49:-0.88143753 50:-0.66430421 51:-0.76548567 52:-0.47163129 53:-0.8356892 54:-0.53113125 55:-0.69720114 56:-0.74873983 57:-0.91145748 58:-1.1745984 59:-0.76597464 60:-0.60379796 61:-1.2462057 62:-0.9275536 63:-0.7689614 64:-0.26354882 65:-1.0499565 66:-0.69294115 67:-0.63197433 68:-0.77840252 
0 0.01 0 1:-0.73744165 2:-0.76328998 3:0.55368573 4:0.1742502 5:-1.2866735 6:-0.56693074 7:1.2768377 8:-0.58944014 9:0.62862773 10:0.56139488 11:1.2876735 12:0.78882256 13:-0.42430727 14:-0.43700603 15:0.63053471 16:-0.27689272 17:-0.51218998 18:-0.74843998 19:-0.77060471 20:0.56213596 21:0.14725954 22:-1.2947675 23:-0.54537012 24:1.2953292 25:-0.56149864 26:0.63863837 27:0.55940425 28:1.2912565 29:0.80090294 30:-0.43506914 31:-0.45958407 32:0.59886831 33:-0.33476322 34:-0.57674391 35:-0.46930098 36:-0.82838143 37:-0.52234217 38:-0.68284124 39:-0.74678719 40:-0.88706541 41:-1.1754037 42:-0.75906963 43:-0.63486322 44:-1.2396805 45:-0.92613653 46:-0.80782317 47:-0.28999396 48:-1.1986735 49:-0.92211538 50:-0.60537843 51:-0.75431236 52:-0.47820223 53:-0.8356892 54:-0.53268975 55:-0.6969463 56:-0.75108081 57:-0.90575999 58:-1.1736521 59:-0.76246276 60:-0.62567949 61:-1.247372 62:-0.91654045 63:-0.83254651 64:-0.28182334 65:-1.2141251 66:-0.93391083 67:-0.70956154 68:-0.78759968 
0 0.01 0 1:-0.7405334 2:-0.76328998 3:0.54976669 4:0.18632722 5:-1.2838541 6:-0.55211839 7:1.2713279 8:-0.64138475 9:0.64551364 10:0.58917699 11:1.3208673 12:0.79353673 13:-0.40837561 14:-0.39884251 15:0.60789471 16:-0.28516973 17:-0.51655889 18:-0.7428964 19:-0.77060471 20:0.56149277 21:0.16106362 22:-1.2914704 23:-0.55278734 24:1.2783594 25:-0.59726334 26:0.6299863 27:0.56150473 28:1.28234 29:0.78817085 30:-0.4185287 31:-0.43505247 32:0.62935993 33:-0.27495649 34:-0.5057485 35:-0.46979562 36:-0.82838143 37:-0.52300625 38:-0.67243077 39:-0.74777172 40:-0.89040576 41:-1.1826846 42:-0.7907331 43:-0.63378484 44:-1.3285087 45:-0.91767911 46:-0.81879436 47:-0.30405847 48:-1.1663613 49:-0.91386061 50:-0.60403303 51:-0.75542306 52:-0.47843829 53:-0.8356892 54:-0.53257617 55:-0.69243676 56:-0.75263689 57:-0.89474069 58:-1.1767104 59:-0.76824309 60:-0.63345128 61:-1.2388991 62:-0.92559626 63:-0.80984944 64:-0.29319403 65:-1.2055447 66:-0.92103808 67:-0.61003522 68:-0.7625632 
-0.01 0.01 0 1:0.5399227 2:1.0106748 3:-0.95305886 4:1.5111012 5:0.63087634 6:-1.643402 7:-0.30567828 8:1.5737544 9:0.52961404 10:0.93457953 11:0.23085099 12:0.79909062 13:0.15546714 14:-1.0638705 15:-0.33485359 16:-0.79393465 17:-1.1009826 18:0.50683724 19:0.95100864 20:-0.91123633 21:1.5170531 22:0.48351528 23:-1.5123153 24:-0.092784326 25:1.4389184 26:0.54852836 27:0.80730513 28:0.39121034 29:0.81143623 30:-0.20034396 31:-1.3018191 32:-0.063290166 33:-0.64917352 34:-1.0145292 35:0.83139794 36:1.5164426 37:1.2899224 38:1.9690402 39:1.9950118 40:1.57451 41:0.9777987 42:0.24919622 43:0.6126056 44:1.3316954 45:1.4663874 46:0.089445551 47:3.1771884 48:2.0521064 49:0.94536779 50:0.52874766 51:2.2201165 52:0.81693607 53:1.4961098 54:1.2561102 55:1.8981216 56:2.0175146 57:1.5192329 58:0.69985468 59:0.34472364 60:0.62782455 61:0.95091077 62:1.0434284 63:0.090408255 64:2.361502 65:1.1887816 66:0.33826579 67:0.17162288 68:1.990036 
-0 0.004154572378572416 0.0001361573817372287 1:-0.046110526 2:0.41935324 3:-0.55349047 4:1.6096936 5:0.4273654 6:-1.3801094 7:-0.36438711 8:1.5097788 9:0.60655342 10:0.99569536 11:0.28213255 12:0.8824179 13:0.49856001 14:-1.0089861 15:-0.4069777 16:-0.76588215 17:-0.98426012 18:0.53327842 19:1.0001975 20:-0.94301777 21:1.4918575 22:0.6287711 23:-1.6249561 24:-0.30466848 25:1.5610087 26:0.53069806 27:0.93666135 28:0.22451405 29:0.79844149 30:0.16166502 31:-1.0613798 32:-0.33786231 33:-0.79387437 34:-1.0952772 35:0.024056358 36:0.59340682 37:0.7003925 38:1.9486352 39:1.4178136 40:1.726214 41:1.0635608 42:0.23100661 43:-0.16291423 44:1.382163 45:1.511126 46:-0.22590465 47:2.6374331 48:1.9339488 49:0.88840449 50:0.48163461 51:1.6046066 52:0.8130989 53:1.4838848 54:1.2481659 55:1.9181957 56:1.9636831 57:1.5444483 58:0.98314656 59:0.24318267 60:0.6125308 61:1.3306319 62:1.4654854 63:0.085424412 64:3.1684393 65:2.0558699 66:0.946312 67:0.51258909 68:2.1925709 
-0 0 0.00721163231525552 1:-0.12678209 2:0.34895784 3:-0.42438424 4:0.4983446 5:0.87224048 6:-0.71264389 7:-1.2321831 8:1.2965906 9:0.80636496 10:1.3596293 11:-1.0127604 12:0.97130768 13:2.2719587 14:-1.1109746 15:-1.2055843 16:-0.88038104 17:-0.28148932 18:-0.1198577 19:0.3326332 20:-0.46206409 21:0.56237831 22:0.92056807 23:-0.66574433 24:-1.2986705 25:1.2073464 26:0.73686903 27:1.3997471 28:-0.93225946 29:0.99204774 30:2.1017657 31:-1.1962767 32:-1.1405918 33:-0.90473531 34:-0.31119497 35:-0.26089828 36:0.047142851 37:-0.0095607669 38:0.34115971 39:0.65436387 40:0.5438631 41:0.74275793 42:-0.31422095 43:0.56232077 44:1.1737384 45:0.29808941 46:0.85052881 47:2.1926194 48:1.8298824 49:0.36645188 50:0.96329483 51:0.47927443 52:-0.26436387 53:0.027446389 54:0.027029984 55:0.37367762 56:0.67138642 57:0.62488021 58:0.72222807 59:-0.40256435 60:0.52269816 61:1.1761156 62:0.61833909 63:0.86427702 64:2.11916 65:1.8544976 66:0.38585685 67:0.94614622 68:0.59044214 
-0.00292023797614861 0.001432378460237301 0 1:4.3950802 2:3.9567235 3:-3.2632111 4:3.3141803 5:2.0108896 6:-2.4909279 7:-0.57353102 8:2.2951297 9:0.66696922 10:0.83228002 11:0.10735532 12:1.0814934 13:-1.0459709 14:-1.5872158 15:-1.6373607 16:-1.6699748 17:-1.6749702 18:4.4187718 19:3.933967 20:-3.2676732 21:3.1676093 22:1.9600309 23:-2.3906633 24:-0.57812308 25:2.2172045 26:0.68571869 27:0.89608685 28:0.14667182 29:1.0633295 30:-1.0302976 31:-1.6620908 32:-1.5181318 33:-1.6010917 34:-1.692656 35:4.2965544 36:3.6363216 37:3.7401851 38:3.5352885 39:2.3761163 40:3.1297949 41:0.66000016 42:0.77367232 43:-0.35386884 44:-0.56537373 45:0.55984382 46:-0.26666042 47:1.0125033 48:0.39048827 49:1.399251 50:1.2538384 51:0.45006376 52:4.2472356 53:3.584335 54:3.6504719 55:3.4641096 56:2.3723781 57:3.1653092 58:0.66587194 59:0.74768859 60:-0.25995168 61:-0.53743697 62:0.42271264 63:-0.30431331 64:1.0155976 65:0.36906682 66:1.2584664 67:1.0256973 68:0.44438238 
-0.0001515521926268384 0 0 1:4.3871198 2:3.7455374 3:-3.2657065 4:3.4456005 5:1.9733916 6:-2.3884941 7:-0.40943529 8:2.3480103 9:0.69974524 10:0.77803894 11:0.25814835 12:1.1108498 13:-1.2701051 14:-1.4075441 15:-1.538198 16:-1.715024 17:-1.8346711 18:4.4667841 19:3.9128862 20:-3.4918944 21:3.4197604 22:2.1421358 23:-2.4357808 24:-0.51755923 25:2.3868977 26:0.64749324 27:0.78721665 28:0.12620105 29:1.1731327 30:-1.2509302 31:-1.5113026 32:-1.6874993 33:-1.7401139 34:-1.7817234 35:4.3004906 36:3.6944042 37:3.7366955 38:3.4428801 39:2.4875018 40:3.2345438 41:0.47888515 42:0.64618604 43:0.029667294 44:-0.23910263 45:0.85332246 46:-0.6496609 47:0.64378601 48:-0.44831406 49:1.5859064 50:1.1027284 51:-0.3238437 52:4.2417221 53:3.586054 54:3.6333526 55:3.3677633 56:2.325754 57:3.112281 58:0.3825295 59:0.6453806 60:-0.16186074 61:-0.22729584 62:0.50155465 63:-0.23369856 64:0.66276907 65:-0.48227777 66:1.5293766 67:1.043639 68:-0.072389783 
-0.003868139767082624 0 0 1:-0.0083621094 2:0.22928556 3:-1.0244513 4:1.0915894 5:0.90894869 6:-0.79589375 7:-0.59043611 8:1.2350299 9:0.83648587 10:1.2731728 11:0.088336207 12:1.4494613 13:0.27013713 14:-0.96140379 15:-0.84304001 16:-1.4415233 17:-0.78024004 18:0.061657333 19:0.44857862 20:-0.99138176 21:1.2922353 22:0.99325811 23:-0.8587638 24:-0.53298156 25:1.3237259 26:0.83865393 27:1.2068188 28:0.065200415 29:1.3807056 30:0.24970577 31:-0.95361535 32:-1.0934444 33:-1.4250014 34:-0.88690357 35:-0.032083806 36:0.3477434 37:1.0340997 38:0.80690011 39:1.3496509 40:0.51898899 41:0.66775205 42:0.11750539 43:0.64334603 44:1.1678511 45:1.4451952 46:0.58681301 47:0.84683089 48:-0.34338356 49:-0.047677243 50:0.091086983 51:-0.29986917 52:-0.032245776 53:0.51471934 54:1.0003779 55:0.95882501 56:1.493182 57:0.59705834 58:0.49164079 59:-0.027624347 60:0.64246815 61:1.0164924 62:1.4566185 63:0.26133987 64:0.81725958 65:-0.34116739 66:0.23961062 67:0.016548718 68:-0.12267098 
-0.009338991813269779 0.008840441664033272 0 1:-0.00080285567 2:0.28912174 3:-0.92595581 4:0.77736361 5:0.79951304 6:-0.75717183 7:-0.57257565 8:0.80868086 9:0.8062345 10:1.4447508 11:0.25950819 12:1.2734035 13:0.61474027 14:-0.90875694 15:-0.88993233 16:-1.0198537 17:-0.44121226 18:0.012956729 19:0.34317366 20:-0.97313446 21:0.96521775 22:0.89460983 23:-0.63158006 24:-0.68696519 25:0.82353388 26:0.81241107 27:1.3525459 28:0.16840309 29:1.2871928 30:0.80674689 31:-0.90999135 32:-1.0122737 33:-1.0943561 34:-0.47594594 35:0.013648984 36:0.43905494 37:1.0281653 38:0.45617332 39:1.5063079 40:0.27214332 41:1.0408525 42:-0.065584927 43:0.73527082 44:0.44371231 45:0.19920912 46:0.84853227 47:1.3224369 48:-0.39477941 49:-0.24697075 50:0.20418729 51:-0.032427435 52:0.00055469895 53:0.40760145 54:0.98323531 55:0.51840645 56:1.4421852 57:0.19315201 58:0.94965147 59:-0.040625768 60:0.72521453 61:0.79729675 62:0.55814176 63:0.86387875 64:1.2281572 65:-0.4083409 66:-0.33749339 67:0.20855126 68:-0.16146889 
-0.01 0.01 0.007003529001338317 1:-0.0048062624 2:0.3172799 3:-0.9437322 4:0.83755264 5:0.87588618 6:-0.68366548 7:-0.65765779 8:0.72801221 9:0.72287923 10:1.4100774 11:0.18883587 12:1.2253596 13:0.61622457 14:-0.94151149 15:-0.80912018 16:-0.89656967 17:-0.30243527 18:-0.006943588 19:0.27993079 20:-0.9159549 21:0.76144441 22:0.79764452 23:-0.74226806 24:-0.57165219 25:0.79767612 26:0.80808555 27:1.4495284 28:0.25319847 29:1.2728731 30:0.62127031 31:-0.90639918 32:-0.89399553 33:-1.0206131 34:-0.43468203 35:0.014539304 36:0.43084604 37:1.0239814 38:0.44729139 39:1.4437582 40:0.44739541 41:1.024537 42:0.013277802 43:0.57862551 44:0.56691435 45:0.12643114 46:1.1812676 47:1.321155 48:-0.39680684 49:-0.27735198 50:0.15624842 51:0.49545549 52:0.001109918 53:0.41809888 54:0.99096172 55:0.42886084 56:1.4795207 57:0.25392582 58:1.0463952 59:-0.072585003 60:0.73504983 61:0.44328589 62:0.19907098 63:0.84282347 64:1.3166563 65:-0.39902075 66:-0.24594157 67:0.19132026 68:-0.045361053 
-0.0004542631966569894 0.01 0.01 1:-0.11487883 2:0.17648904 3:-0.55530925 4:0.80449337 5:0.75854163 6:-0.60927951 7:-0.61066594 8:0.69208811 9:0.7087154 10:1.403293 11:0.12249578 12:1.1009034 13:0.91915285 14:-0.85444134 15:-0.97712761 16:-0.78512966 17:-0.29298647 18:-0.010943267 19:0.30803875 20:-0.93370494 21:0.82136072 22:0.87412486 23:-0.66905551 24:-0.65676185 25:0.71719104 26:0.72449914 27:1.4146719 28:0.18245904 29:1.2248172 30:0.62275569 31:-0.93912567 32:-0.81302986 33:-0.89688177 34:-0.29573154 35:-0.052753661 36:0.27473628 37:0.60757968 38:0.48836517 39:1.2019485 40:0.57873376 41:0.95781962 42:-0.020947099 43:0.64627763 44:0.5488432 45:0.25320497 46:1.4280163 47:1.7590807 48:-0.78591265 49:0.091984654 50:0.13940033 51:0.47402667 52:0.0019939665 53:0.40997838 54:0.98685061 55:0.42011706 56:1.4175522 57:0.4275841 58:1.0300293 59:0.0065248812 60:0.5785912 61:0.56639953 62:0.12633688 63:1.174819 64:1.3153764 65:-0.40105481 66:-0.27632063 67:0.14386756 68:0.47909756 
-0 0 0.007982983369344337 1:-0.00026662858 2:0.29616124 3:-0.8183772 4:0.71841684 5:0.8275552 6:-0.68778101 7:-0.78697357 8:0.66446556 9:0.69143337 10:1.4915316 11:0.010415057 12:1.1242004 13:1.145209 14:-1.049277 15:-1.1778978 16:-0.81357953 17:-0.17661607 18:-0.12091334 19:0.16749889 20:-0.5458579 21:0.78845124 22:0.75661559 23:-0.59496684 24:-0.6097548 25:0.68134869 26:0.71029605 27:1.4078515 28:0.11605596 29:1.1003298 30:0.92590306 31:-0.85213013 32:-0.98135645 33:-0.78503743 34:-0.28627093 35:-0.01763076 36:0.28472468 37:0.79617913 38:0.52655426 39:1.1940761 40:0.55711993 41:1.223105 42:-0.079386323 43:0.53132404 44:0.6489187 45:0.37075598 46:1.4205114 47:1.9978477 48:-0.40385711 49:0.27592119 50:0.23365763 51:0.30256482 52:-0.064825007 53:0.25554968 54:0.57769181 55:0.46055197 56:1.1779896 57:0.55772802 58:0.96310573 59:-0.027807281 60:0.64616269 61:0.54834135 62:0.25303429 63:1.4210192 64:1.7526012 65:-0.79143355 66:0.092989684 67:0.12719034 68:0.45780774 
-0.005589490347741433 -0.01 0.003662711002726256 1:0.10770291 2:0.65165823 3:-0.80483921 4:1.434236 5:-0.049373868 6:-1.1637022 7:0.47746548 8:0.65570381 9:0.28447762 10:0.14929745 11:0.40553549 12:0.52433265 13:-0.88535423 14:-0.29892976 15:0.66130911 16:-0.23403254 17:-0.30277322 18:0.086530356 19:0.64182096 20:-0.79311532 21:1.3941289 22:-0.046674684 23:-1.1383713 24:0.46527642 25:0.61864962 26:0.28191212 27:0.16477904 28:0.42112022 29:0.50907833 30:-0.85464652 31:-0.30322735 32:0.66146188 33:-0.20224631 34:-0.27474134 35:0.59502524 36:1.4180024 37:2.024555 38:2.2365015 39:1.2280809 40:1.9137048 41:0.12938413 42:0.98928127 43:-0.97206037 44:-0.35292524 45:-0.63967292 46:0.71050428 47:-0.069276199 48:-0.0052541135 49:0.44244451 50:1.490324 51:1.6047127 52:0.58044156 53:1.3865046 54:1.9703968 55:2.1970585 56:1.1975368 57:1.8897115 58:0.095749783 59:1.01289 60:-0.9789156 61:-0.3576948 62:-0.67524574 63:0.74600734 64:-0.035980044 65:-0.029374714 66:0.44499285 67:1.5374189 68:1.6181766 
-0.01 -0.01 0 1:0.10037482 2:0.65165823 3:-0.79853303 4:1.4199631 5:-0.081583288 6:-1.1513555 7:0.55394318 8:0.6017764 9:0.28136681 10:0.165131 11:0.38749323 12:0.54853553 13:-0.87409826 14:-0.28077472 15:0.78387235 16:-0.20458226 17:-0.32632736 18:0.10146113 19:0.64182096 20:-0.79501788 21:1.4153406 22:-0.05243395 23:-1.1471737 24:0.47872863 25:0.64504719 26:0.28488192 27:0.14722973 28:0.39936442 29:0.52361474 30:-0.87990911 31:-0.29709451 32:0.6601928 33:-0.2319408 34:-0.29606991 35:0.5962161 36:1.4180024 37:2.0257554 38:2.2465032 39:1.2557555 40:1.9248148 41:0.17338557 42:1.0264531 43:-0.98008317 44:-0.38598 45:-0.69556601 46:0.67035576 47:-0.071907159 48:-0.0095655729 49:0.33917392 50:1.5635791 51:1.5379192 52:0.57839113 53:1.3865046 54:1.9700203 55:2.1814967 56:1.2038792 57:1.8805584 58:0.13210993 59:0.98558714 60:-0.97024655 61:-0.35278009 62:-0.63930535 63:0.70510236 64:-0.072829508 65:-0.0082211597 66:0.44342456 67:1.4644135 68:1.5811591 
-0.01 -0.01 0.01 1:-0.44721648 2:0.20816698 3:0.12568268 4:1.3893429 5:-0.2966607 6:-0.86880981 7:0.70909095 8:0.40298739 9:0.32276397 10:0.14221741 11:0.42627852 12:0.53038918 13:-0.74036148 14:-0.37616477 15:0.61551575 16:-0.0040878507 17:-0.18333059 18:0.094139869 19:0.64182096 20:-0.78872105 21:1.4011324 22:-0.08468858 23:-1.1348762 24:0.55523106 25:0.59124249 26:0.28176249 27:0.16314695 28:0.38130503 29:0.54782368 30:-0.86864499 31:-0.27895503 32:0.78298887 33:-0.20238366 34:-0.3196535 35:-0.18605905 36:1.0943923 37:0.28799086 38:2.2634957 39:1.0193034 40:1.3575611 41:-0.17460902 42:0.96830318 43:-1.1045838 44:-0.49731775 45:-0.68714568 46:0.71832018 47:-0.34052331 48:-0.21918732 49:0.0076300505 50:1.082444 51:1.2808942 52:0.5795736 53:1.3865046 54:1.9711998 55:2.1913428 56:1.2312966 57:1.8915673 58:0.17624736 59:1.0228754 60:-0.97825979 61:-0.38581114 62:-0.69516475 63:0.66504309 64:-0.075456258 65:-0.012546724 66:0.34016134 67:1.5369257 68:1.5147989 
-0.01 -0 0.002121347073141387 1:-0.59240172 2:-0.22828472 3:0.42535356 4:1.0091374 5:-0.51699424 6:-0.72612276 7:0.82224492 8:0.21978932 9:0.33186291 10:0.068788623 11:0.42153003 12:0.43843393 13:-0.67109169 14:-0.23626568 15:0.79250492 16:0.22340011 17:-0.10332561 18:-0.4529415 19:0.19912036 20:0.13412432 21:1.3706509 22:-0.30006789 23:-0.85345985 24:0.71042903 25:0.39290584 26:0.32327443 27:0.14011228 28:0.42012715 29:0.52967279 30:-0.73481149 31:-0.37426335 32:0.61431244 33:-0.0011618126 34:-0.17647796 35:-0.3060943 36:0.66088657 37:-0.27915793 38:1.7958323 39:0.65800401 40:1.2562757 41:-0.23052366 42:0.88882432 43:-1.1583065 44:-0.88992331 45:-0.69489565 46:0.29170616 47:-0.47026309 48:-0.82024173 49:-0.39658475 50:0.13353304 51:1.0615082 52:-0.19719143 53:1.0663792 54:0.26366191 55:2.208071 56:0.9970418 57:1.3294725 58:-0.17282272 59:0.96454331 60:-1.1026121 61:-0.49706901 62:-0.68674949 63:0.71290087 64:-0.34364251 65:-0.22285423 66:0.0086410924 67:1.0606701 68:1.2594412 
-0.01 -0 0 1:-0.59498258 2:-0.22828472 3:0.45230504 4:0.77615628 5:-0.59768614 6:-0.64112583 7:0.91033921 8:0.0079438417 9:0.34606534 10:0.025907373 11:0.40915821 12:0.37942861 13:-0.73010484 14:-0.25781497 15:0.77949826 16:0.22078336 17:-0.049019528 18:-0.59799154 19:-0.23655325 20:0.43335088 21:0.99216801 22:-0.5207107 23:-0.71134309 24:0.82361961 25:0.21012465 26:0.3323986 27:0.066295483 28:0.41537416 29:0.43769452 30:-0.6654916 31:-0.23448412 32:0.79163784 33:0.22715153 34:-0.096372947 35:-0.30597327 36:0.66088657 37:-0.28560457 38:1.6093368 39:0.6523601 40:1.2302581 41:-0.21841879 42:0.65465541 43:-1.2126671 44:-1.0241152 45:-0.72631316 46:-0.12189469 47:-0.5180618 48:-0.84299095 49:-0.41721034 50:0.13359942 51:1.1101008 52:-0.31638119 53:0.63754174 54:-0.29362188 55:1.7476819 56:0.63909988 57:1.2291081 58:-0.22891017 59:0.88481536 60:-1.1562708 61:-0.88939288 62:-0.69449479 63:0.28723534 64:-0.47317465 65:-0.82587494 66:-0.3955449 67:0.12138255 68:1.0414783 
-0.01 -0 0 1:-0.70871374 2:-0.72809226 3:0.54840261 4:0.72275253 5:-0.81592901 6:-0.36246071 7:0.9143386 8:-0.29054221 9:0.36713192 10:0.027380845 11:0.44576635 12:0.31143201 13:-0.6455649 14:-0.12735815 15:0.96695791 16:0.431854 17:0.17061915 18:-0.60056999 19:-0.23655325 20:0.4602624 21:0.76024254 22:-0.60151587 23:-0.62668587 24:0.91174239 25:-0.0012387539 26:0.34664042 27:0.023187644 28:0.40299058 29:0.37867443 30:-0.72454744 31:-0.25601495 32:0.77860647 33:0.22452529 34:-0.041998974 35:-0.44472427 36:-0.74279788 37:-0.52888433 38:1.6160278 39:-0.033207177 40:0.36218368 41:-0.22748901 42:0.35553978 43:-1.1164013 44:-1.0227685 45:-0.92204612 46:-0.29088059 47:-0.54921082 48:-0.80016118 49:-1.0073855 50:-1.0154284 51:-0.33558831 52:-0.31626101 53:0.63754174 54:-0.2999564 55:1.5640873 56:0.63350841 57:1.2033272 58:-0.21676788 59:0.64991257 60:-1.2105665 61:-1.0234885 62:-0.72589336 63:-0.12544596 64:-0.52089686 65:-0.84869858 66:-0.41616903 67:0.12144826 68:1.0897557 
-0.01 -0 0 1:-0.71822333 2:-0.75625044 3:0.55335553 4:0.26832219 5:-0.92850899 6:-0.21986739 7:0.90305029 8:-0.49951597 9:0.44770955 10:0.008901432 11:0.40397207 12:0.29131062 13:-0.46958264 14:0.073402451 15:1.0875087 16:0.57482246 17:0.35637374 18:-0.71419524 19:-0.73546974 20:0.55621748 21:0.70708076 22:-0.82006508 23:-0.34913453 24:0.91574307 25:-0.29904558 26:0.36776541 27:0.024668901 28:0.43963348 29:0.31066082 30:-0.63994635 31:-0.1256699 32:0.96642224 33:0.43636174 34:0.1779143 35:-0.45264752 36:-0.80736245 37:-0.53284609 38:0.31833535 39:-0.37475044 40:-0.010620315 41:-0.17283601 42:-0.056971687 43:-0.91901704 44:-1.006977 45:-0.70222524 46:-0.31010128 47:-0.31742093 48:-0.86020569 49:-1.2135269 50:-1.1553252 51:-1.6793175 52:-0.45403469 53:-0.75102725 54:-0.53900454 55:1.5706742 56:-0.045688031 57:0.34314731 58:-0.22586613 59:0.34985951 60:-1.1144154 61:-1.0221428 62:-0.92150833 63:-0.29405616 64:-0.55199603 65:-0.80572869 66:-1.0063021 67:-1.0159266 68:-0.34655536 
-0.01 -0 0 1:-0.70468535 2:-0.75625044 3:0.55021597 4:0.060581516 5:-0.95338181 6:-0.19569326 7:0.94142153 8:-0.58546297 9:0.48551342 10:0.031306364 11:0.38715039 12:0.27511136 13:-0.38905437 14:0.15842193 15:1.0375883 16:0.55636649 17:0.44065703 18:-0.72369597 19:-0.76357771 20:0.56116306 21:0.25470939 22:-0.93280309 23:-0.20711113 24:0.90445112 25:-0.50754379 26:0.44856646 27:0.0060918411 28:0.39779952 29:0.29053439 30:-0.46383681 31:0.074918683 32:1.087202 33:0.57984893 34:0.36390112 35:-0.46015159 36:-0.80736245 37:-0.53225151 38:-0.03453688 39:-0.37587715 40:-0.032277116 41:-0.19258641 42:-0.1527498 43:-0.90510065 44:-0.97910327 45:-0.75192179 46:-0.33751023 47:-0.3439575 48:-0.92079322 49:-1.2340376 50:-1.1434251 51:-1.8202788 52:-0.46190214 53:-0.81489656 54:-0.54289739 55:0.29316689 56:-0.3840574 57:-0.026266275 58:-0.17104423 59:-0.063944769 60:-0.91726643 61:-1.0063626 62:-0.70181996 63:-0.31323411 64:-0.32057711 65:-0.86596963 66:-1.2124288 67:-1.1544047 68:-1.6815679 
-0.01 -0 0 1:-0.72076618 2:-0.75625044 3:0.5514339 4:0.031849012 5:-0.96519887 6:-0.23516604 7:0.91085828 8:-0.59219443 9:0.52129743 10:0.069443301 11:0.4157418 12:0.28244628 13:-0.33637981 14:0.2312366 15:1.0121892 16:0.4613253 17:0.37584681 18:-0.7101706 19:-0.76357771 20:0.55802816 21:0.047909961 22:-0.95771081 23:-0.18303361 24:0.94283476 25:-0.59329522 26:0.48647516 27:0.028615163 28:0.38096186 29:0.27433108 30:-0.38325031 31:0.15986531 32:1.0371868 33:0.56132599 34:0.44828979 35:-0.46420078 36:-0.80736245 37:-0.53120762 38:-0.038991676 39:-0.36701626 40:-0.015357673 41:-0.21546886 42:-0.1546096 43:-0.95698806 44:-0.90169967 45:-0.67239738 46:-0.30475428 47:-0.34658562 48:-1.0783898 49:-1.2025138 50:-1.0089507 51:-1.3378616 52:-0.46935335 53:-0.81489656 54:-0.54231316 55:-0.05421654 56:-0.38517364 57:-0.047726122 58:-0.19085567 59:-0.16002305 60:-0.90336663 61:-0.97850886 62:-0.75148656 63:-0.34058213 64:-0.3470712 65:-0.92675537 66:-1.2329381 67:-1.1426253 68:-1.8216148 
-0.01 -0 0 1:-0.53413417 2:-0.60490027 3:0.47800071 4:0.060403297 5:-0.85940949 6:-0.13321918 7:0.69945788 8:-0.60217399 9:0.48632299 10:-0.058477245 11:0.30631826 12:0.13644898 13:-0.27285201 14:0.5584917 15:1.0782304 16:0.55101613 17:0.493474 18:-0.72623646 19:-0.76357771 20:0.55924428 21:0.019307641 22:-0.96954446 23:-0.22234863 24:0.91226163 25:-0.60001136 26:0.52235839 27:0.066953621 28:0.40958043 29:0.28166783 30:-0.33053765 31:0.2326176 32:1.0117394 33:0.46593997 34:0.38339854 35:-0.1511274 36:-0.37709098 37:-0.34939189 38:-0.047607164 39:-0.16955001 40:0.18749426 41:0.43768526 42:-0.15921737 43:-0.70202786 44:0.57275657 45:-0.18135347 46:1.097771 47:-0.39373676 48:0.17270273 49:-1.1403903 50:-0.58404973 51:-0.8918389 52:-0.47337402 53:-0.81489656 54:-0.54128742 55:-0.058602044 56:-0.3763951 57:-0.030960551 58:-0.21380884 59:-0.16188868 60:-0.9551922 61:-0.90116079 62:-0.67201008 63:-0.307899 64:-0.34969511 65:-1.0848675 66:-1.2014165 67:-1.0095147 68:-1.342327 
-0.01 -0 0 1:-0.32469422 2:-0.35851626 3:0.48316474 4:-0.031195562 5:-0.9126558 6:0.099021422 7:0.73241048 8:-0.82258236 9:0.47965122 10:-0.14866178 11:0.21763069 12:0.12161042 13:-0.164055 14:0.68505858 15:1.1510128 16:0.66026451 17:0.58839072 18:-0.53977825 19:-0.61249737 20:0.48591997 21:0.04773255 22:-0.86360659 23:-0.12080924 24:0.70079284 25:-0.60996821 26:0.48728698 27:-0.061642874 28:0.30005299 29:0.13563398 30:-0.26696391 31:0.5595923 32:1.0779061 33:0.55595622 34:0.50117279 35:0.0077982453 36:0.032313917 37:-0.34828749 38:0.081472263 39:-0.38039296 40:-0.39460897 41:0.28433796 42:-0.87544957 43:-0.71343432 44:0.7353211 45:0.27341869 46:1.2435245 47:-0.57103582 48:0.34081579 49:-1.1112349 50:-0.068404097 51:-0.17547598 52:-0.16250583 53:-0.38925844 54:-0.36263419 55:-0.06708352 56:-0.18076386 57:0.17004658 58:0.44136388 59:-0.16651089 60:-0.70053587 61:0.57223756 62:-0.18126219 63:1.0915081 64:-0.39677079 65:0.17031785 66:-1.1392974 67:-0.58892283 68:-0.89919762 
-0 -0 0.00462296865283859 1:0.072457938 2:0.12017265 3:0.4691071 4:-0.60083481 5:-0.50553612 6:0.66664931 7:0.090676175 8:-1.2362479 9:0.33424329 10:-0.67656499 11:-0.75946868 12:-0.57624175 13:-0.14500097 14:1.495134 15:1.375107 16:1.7626101 17:1.5100232 18:0.035450263 19:0.1112829 20:0.47276418 21:-0.60733841 22:-0.57218631 23:0.59110211 24:0.19177542 25:-1.2074232 26:0.33393206 27:-0.58663098 28:-0.58274178 29:-0.52719232 30:-0.25173127 31:1.3830018 32:1.3735504 33:1.6677638 34:1.460276 35:0.083127386 36:0.40200471 37:-0.34624897 38:-0.2027636 39:-0.30392893 40:-0.089566024 41:0.50774165 42:-0.83310885 43:-0.18148406 44:0.79182724 45:1.1067876 46:1.3002074 47:-0.030951285 48:0.52001923 49:-0.70099306 50:0.28484873 51:0.25718408 52:0.073974442 53:0.38144762 54:-0.36038227 55:-0.21814648 56:-0.29959699 57:-0.11420736 58:0.54473477 59:-0.86204598 60:-0.18239361 61:0.86681093 62:0.95993757 63:1.3256539 64:-0.10279024 65:0.6236348 66:-0.69797882 67:0.27545843 68:0.3005061 
-0 -0 0.01 1:0.10869056 2:0.12017265 3:0.46496613 4:-0.66353716 5:-0.45695454 6:0.7470412 7:-0.006458599 8:-1.3112105 9:0.35766048 10:-0.72373185 11:-0.93354454 12:-0.61761939 13:-0.077473802 14:1.6020958 15:1.4650981 16:1.8870653 17:1.6236284 18:0.066248983 19:0.1112829 20:0.47703954 21:-0.61050957 22:-0.5092365 23:0.67586233 24:0.091814196 25:-1.2425992 26:0.33478558 27:-0.68299668 28:-0.76674595 29:-0.57723513 30:-0.1390204 31:1.4954321 32:1.3753467 33:1.7719461 34:1.5189929 35:0.075688861 36:0.40200471 37:-0.3464739 38:-0.22268222 39:-0.33348505 40:-0.071015379 41:0.36076726 42:-0.75935096 43:-0.18692958 44:0.7577222 45:1.1759248 46:1.2169055 47:-0.067471917 48:0.29640744 49:-0.66386926 50:0.28786492 51:-0.014885313 52:0.070098934 53:0.38144762 54:-0.35954594 55:-0.21982656 56:-0.31389402 57:-0.10449403 58:0.51163677 59:-0.84251435 60:-0.18061246 61:0.79115105 62:1.1061024 63:1.2934944 64:-0.034565931 65:0.51877057 66:-0.69993151 67:0.27116367 68:0.24237178 
-0 -0 0.01 1:0.26272813 2:0.25392401 3:0.41119307 4:-0.78011864 5:-0.31669171 6:0.90133652 7:-0.20635124 8:-1.3105255 9:0.30008916 10:-0.88856018 11:-1.1720548 12:-0.77622959 13:0.011681012 14:1.8660689 15:1.4767838 16:2.0275238 17:1.6596012 18:0.12850448 19:0.1112829 20:0.47369925 21:-0.73931781 22:-0.3893914 23:0.82581306 24:-0.11920103 25:-1.3250459 26:0.35450114 27:-0.7897035 28:-1.0966621 29:-0.70721557 30:-0.012119568 31:1.6972066 32:1.3781677 33:2.0095049 34:1.6705967 35:0.077761507 36:0.42159764 37:-0.30347324 38:-0.2677844 39:-0.33660989 40:-0.093392612 41:0.28417705 42:-0.78058983 43:-0.15606448 44:0.80514449 45:1.0648631 46:1.0517739 47:-0.070767095 48:0.50956417 49:-0.51406541 50:0.027710243 51:-0.11495705 52:0.057953171 53:0.38144762 54:-0.35964196 55:-0.26351416 56:-0.37747591 57:-0.1150371 58:0.17638163 59:-0.77795901 60:-0.18169008 61:0.7416385 62:1.0714069 63:1.0105572 64:-0.084079913 65:0.15557877 66:-0.58403461 67:0.088307503 68:-0.13561397 
-0 -0 0.005700019417065665 1:0.40772091 2:0.48622892 3:0.40318719 4:-0.87075293 5:-0.27955344 6:1.0068905 7:-0.18384434 8:-1.3900732 9:0.24697905 10:-0.96096507 11:-1.2600626 12:-0.82899011 13:-0.020442457 14:1.9303574 15:1.5475434 16:2.0344573 17:1.6815383 18:0.25634199 19:0.24479581 20:0.41921138 21:-0.78898108 22:-0.32012702 23:0.90961154 24:-0.20530931 25:-1.3167078 26:0.30053675 27:-0.89611208 28:-1.1797238 29:-0.77727303 30:0.017774904 31:1.8660492 32:1.4772167 33:2.0378211 34:1.6687579 35:0.10701392 36:0.52136169 37:-0.30441638 38:-0.27766484 39:-0.34056351 40:-0.12028348 41:0.25688552 42:-0.75586323 43:-0.4710226 44:0.81921499 45:1.2103714 46:0.86356901 47:-0.14541689 48:0.57763911 49:-0.44614596 50:0.022966654 51:-0.15969382 52:0.064770851 53:0.40082957 54:-0.31751425 55:-0.28383598 56:-0.34627129 57:-0.10828581 58:0.28738125 59:-0.78983073 60:-0.15522317 61:0.80445874 62:1.0642032 63:1.0456133 64:-0.074318018 65:0.5082813 66:-0.51301719 67:0.016632962 68:-0.12735531 
-0 -0 0.007769537017346318 1:0.072475179 2:-0.048776374 3:0.46598919 4:-0.96711374 5:-0.13027729 6:1.2169178 7:-0.25865955 8:-1.222321 9:0.14540839 10:-1.1765338 11:-1.4775635 12:-1.0548791 13:-0.48455005 14:1.4807315 15:0.67072243 16:1.7217838 17:1.6377863 18:0.059175549 19:-0.057364922 20:0.46745647 21:-0.93678722 22:-0.1420238 23:1.225723 24:-0.22776269 25:-1.2675553 26:0.13977154 27:-1.1977123 28:-1.5254577 29:-1.0238372 30:-0.44094272 31:1.5326387 32:0.97217725 33:1.8974306 34:1.6361448 35:-0.13067093 36:0.093668677 37:-0.38365089 38:-0.43668478 39:-0.442386 40:-0.49643031 41:0.31807531 42:-0.40386566 43:-0.56359626 44:-0.054201263 45:0.54405978 46:0.67483961 47:0.14765427 48:0.50925172 49:2.2837771 50:0.46135698 51:-1.1192022 52:-0.14123768 53:0.076431885 54:-0.39663281 55:-0.46781176 56:-0.45856732 57:-0.50637845 58:0.30266098 59:-0.44896302 60:-0.51896736 61:-0.039645339 62:0.4625075 63:0.55094328 64:0.12934999 65:0.47978796 66:1.3978508 67:-0.42770039 68:-1.1447912 
-0 -0 0.01 1:0.26401416 2:0.53198587 3:0.50398868 4:-1.3586306 5:0.10831238 6:1.6015107 7:-0.78313666 8:-1.3859962 9:0.3138045 10:-1.0653537 11:-1.8217658 12:-1.468482 13:-0.32872753 14:1.2209346 15:-2.455584 16:-1.1512077 17:0.73498248 18:0.31922918 19:0.60668597 20:0.50982631 21:-1.3902526 22:0.11754636 23:1.6687895 24:-0.75620324 25:-1.4823386 26:0.23774788 27:-1.1390776 28:-1.8368101 29:-1.4459982 30:-0.27488729 31:1.3477013 32:-2.2370039 33:-1.0818582 34:0.71708038 35:-0.23702184 36:0.24829467 37:-0.497599 38:-0.62747467 39:-0.57237238 40:-0.27080466 41:0.46689291 42:0.04490394 43:-0.3169386 44:0.22776657 45:-0.7547754 46:-0.53210897 47:0.024344847 48:0.4337695 49:0.73141839 50:2.6175684 51:1.8068114 52:-0.24587099 53:0.21129331 54:-0.50860133 55:-0.65149614 56:-0.60810658 57:-0.38774238 58:0.54917677 59:0.052906198 60:-0.42982269 61:0.02756916 62:-0.75843543 63:-0.49211936 64:-0.050332095 65:0.34535037 66:1.4820337 67:2.8858134 68:1.6967317 
-0 -0 0.0009579229759795002 1:0.25427727 2:0.53198587 3:0.50967236 4:-1.3180042 5:0.099745228 6:1.5774469 7:-0.78077948 8:-1.350002 9:0.35485844 10:-1.0049626 11:-1.8012498 12:-1.4935556 13:-0.38563769 14:1.1523089 15:-2.6174923 16:-1.2584859 17:0.69868041 18:0.25762682 19:0.52236195 20:0.5118694 21:-1.3648719 22:0.10547364 23:1.6069873 24:-0.78228132 25:-1.3920067 26:0.31429012 27:-1.0738398 28:-1.8300518 29:-1.4696987 30:-0.32287984 31:1.2214677 32:-2.4626214 33:-1.1524437 34:0.74298321 35:-0.23231807 36:0.24829467 37:-0.49723726 38:-0.59674386 39:-0.54872758 40:-0.22728128 41:0.4765501 42:0.077755433 43:-0.44992147 44:0.28762432 45:-0.65729623 46:-0.78570358 47:0.08569043 48:0.50794553 49:0.24153135 50:2.4035869 51:1.7928977 52:-0.24779526 53:0.2293928 54:-0.50826339 55:-0.63793141 56:-0.57984289 57:-0.28408442 58:0.47066179 59:0.038250135 60:-0.31590556 61:0.22749508 62:-0.75433844 63:-0.53474822 64:0.020641704 65:0.43223868 66:0.73237785 67:2.580226 68:1.7819468 
-0 -0.001618502926267378 0 1:0.27351776 2:0.51086729 3:0.49824004 4:-1.3012712 5:0.1193158 6:1.5638206 7:-0.80800497 8:-1.3393502 9:0.36558131 10:-0.95807629 11:-1.9046452 12:-1.556857 13:-0.42170268 14:1.2383123 15:-2.5790141 16:-1.3220535 17:0.5590411 18:0.25861567 19:0.52236195 20:0.5059293 21:-1.3165055 22:0.11983062 23:1.58214 24:-0.81201485 25:-1.3456778 26:0.35362565 27:-0.97779146 28:-1.9157229 29:-1.5805046 30:-0.31985734 31:1.2497116 32:-2.6911175 33:-1.2792897 34:0.69595612 35:-0.23582816 36:0.25813018 37:-0.4980621 38:-0.57570051 39:-0.53521268 40:-0.24729276 41:0.45096649 42:0.087015373 43:-0.47375109 44:0.024528369 45:-0.35421129 46:-1.1112827 47:0.091867353 48:0.13928696 49:0.38884682 50:2.1410178 51:1.7810602 52:-0.245369 53:0.2293928 54:-0.50880259 55:-0.58104715 56:-0.54594168 57:-0.25003091 58:0.44299281 59:0.080505982 60:-0.45683104 61:0.0786897 62:-0.34025515 63:-1.1384694 64:-0.053538351 65:0.096805611 66:0.10477783 67:2.3098886 68:1.740224 
-0 -0 0.01 1:-0.3009915 2:-0.72809226 3:0.54226964 4:-1.0385833 5:-0.26226319 6:1.2258807 7:0.56102037 8:-0.41030759 9:0.19565824 10:-0.95521906 11:-1.5777978 12:-1.1949601 13:-1.8606291 14:-0.45573148 15:-0.44770194 16:0.59077078 17:0.24010035 18:-0.27848935 19:-0.67222681 20:0.54254822 21:-1.0830504 22:-0.23028382 23:1.2667581 24:0.44287527 25:-0.51077803 26:0.20575816 27:-0.951667 28:-1.6941954 29:-1.2844423 30:-1.6442062 31:-0.29098545 32:-0.63629903 33:0.44442682 34:0.34154479 35:-0.4187092 36:-0.75446024 37:-0.50797712 38:-0.65455511 39:-0.56369283 40:-0.49927973 41:-0.22752147 42:-0.29021191 43:0.24153951 44:-0.43358885 45:-0.10162887 46:-0.87495805 47:-1.1311697 48:-1.111007 49:-0.85610484 50:-0.54103587 51:0.48962713 52:-0.4241551 53:-0.63993816 54:-0.51238222 55:-0.64530508 56:-0.55836679 57:-0.49932208 58:-0.048236425 59:-0.22176541 60:0.25755986 61:-0.4282323 62:-0.16718683 63:-0.79092396 64:-0.71119868 65:-0.83320413 66:-0.28220656 67:0.23265825 68:0.88130052 
-0.01 -0 0 1:-0.60906945 2:-0.74217135 3:0.56391094 4:-0.49980582 5:-0.78592324 6:0.61296335 7:1.438221 8:-0.34867735 9:0.14905589 10:-0.52252923 11:-0.43538416 12:-0.35709895 13:-1.9561979 14:-1.1322646 15:-0.29509083 16:-0.16155766 17:-0.017176366 18:-0.61873939 19:-0.74952373 20:0.56947056 21:-0.51063181 22:-0.76559057 23:0.6774344 24:1.4236547 25:-0.37388047 26:0.12614743 27:-0.53919887 28:-0.4584163 29:-0.40281884 30:-1.8883264 31:-1.0271415 32:-0.26839214 33:-0.096503759 34:0.010125599 35:-0.44089611 36:-0.76532447 37:-0.53122732 38:-0.73295507 39:-0.46629897 40:-0.96846796 41:-0.53698571 42:-0.42253921 43:0.025482279 44:-0.70708988 45:-1.4028982 46:-0.90999205 47:-0.48978545 48:-1.3178295 49:-0.783658 50:-1.5277785 51:-0.19899224 52:-0.44932498 53:-0.77331126 54:-0.54164832 55:-0.74086373 56:-0.48420968 57:-0.89712363 58:-0.56827564 59:-0.42488033 60:0.062008319 61:-0.71581445 62:-1.350142 63:-0.566284 64:-0.55360256 65:-1.524403 66:-0.77812335 67:-1.4215209 68:-0.16870529 
-0.01 -0 0 1:-0.64167304 2:-0.76328998 3:0.56380268 4:-0.45707933 5:-0.86444465 6:0.6071916 7:1.5193487 8:-0.48195351 9:0.19634726 10:-0.52296063 11:-0.37847448 12:-0.32897622 13:-2.0246955 14:-1.0702014 15:-0.15900474 16:-0.12353463 17:0.098127061 18:-0.61464374 19:-0.74952373 20:0.57170282 21:-0.50993833 22:-0.79001719 23:0.62239094 24:1.4397949 25:-0.35704842 26:0.14908469 27:-0.52814697 28:-0.4423537 29:-0.35803748 30:-1.9515272 31:-1.1297154 32:-0.29802401 33:-0.15920297 34:-0.010116001 35:-0.45814406 36:-0.82838141 37:-0.53125235 38:-0.75018356 39:-0.60243608 40:-0.95767138 41:-0.67342304 42:-0.68294716 43:-0.3908014 44:-0.70568968 45:-1.4078274 46:-0.80243241 47:-0.62349352 48:-1.4492301 49:-0.90082531 50:-1.4462773 51:0.084904156 52:-0.4502335 53:-0.77331126 54:-0.54130678 55:-0.74177109 56:-0.4747552 57:-0.97540293 58:-0.53631935 59:-0.43065798 60:0.026107218 61:-0.70669063 62:-1.4020706 63:-0.91179116 64:-0.49266577 65:-1.3250905 66:-0.78259057 67:-1.5230807 68:-0.21084538 
-0.01 -0 0 1:-0.66336701 2:-0.76328998 3:0.56418159 4:-0.44644105 5:-0.9308108 6:0.57632229 7:1.5341118 8:-0.64595442 9:0.34551068 10:-0.4392419 11:-0.48841268 12:-0.306654 13:-1.8568386 14:-1.0868789 15:-0.2720548 16:-0.086460315 17:0.2471875 18:-0.64721697 19:-0.77060471 20:0.57159472 21:-0.46740543 22:-0.86864882 23:0.61664226 24:1.5209489 25:-0.4900213 26:0.19650719 27:-0.52858065 28:-0.38538998 29:-0.32990771 30:-2.0200744 31:-1.0677053 32:-0.1616794 33:-0.12104197 34:0.10533158 35:-0.47200704 36:-0.82838141 37:-0.531305 38:-0.7448371 39:-0.90554145 40:-0.96471807 41:-0.77012447 42:-1.1530956 43:-0.29520161 44:-0.7333639 45:-0.81647092 46:-1.0596492 47:-0.29312138 48:-1.513456 49:-0.75732611 50:-1.5127269 51:-0.26787552 52:-0.46735995 53:-0.83568918 54:-0.54133137 55:-0.7587316 56:-0.6096272 57:-0.96470454 58:-0.67317834 59:-0.69188205 60:-0.38968033 61:-0.70529143 62:-1.4069968 63:-0.80447066 64:-0.62615984 65:-1.456921 66:-0.89974952 67:-1.4424061 68:0.071209421 
-0.01 -0 0 1:-0.57128866 2:-0.69641432 3:0.43425258 4:-0.40960144 5:-0.86955816 6:0.59209978 7:1.3380236 8:-0.67901418 9:0.36391631 10:-0.45704483 11:-0.57567158 12:-0.3623537 13:-1.6299233 14:-0.805568 15:-0.18834856 16:-0.040764686 17:0.29363051 18:-0.66889074 19:-0.77060471 20:0.57197307 21:-0.45681535 22:-0.93510813 23:0.58589633 24:1.5357168 25:-0.65364902 26:0.34608421 27:-0.44441954 28:-0.49543257 29:-0.3075799 30:-1.8520961 31:-1.0843686 32:-0.27494422 33:-0.083833145 34:0.25457838 35:-0.31650083 36:-0.62870102 37:-0.19180646 38:-0.75065189 39:-0.58937682 40:-0.90475575 41:0.4349008 42:-1.1797711 43:-0.27183397 44:-0.6023166 45:-0.52475514 46:-0.5605681 47:0.034484003 48:0.17671129 49:-0.69691608 50:-1.3139379 51:-0.1258071 52:-0.4811253 53:-0.83568918 54:-0.54138311 55:-0.7534683 56:-0.90991588 57:-0.97168715 58:-0.77017863 59:-1.163504 60:-0.29419448 61:-0.73294579 62:-0.81599677 63:-1.0611155 64:-0.29631644 65:-1.521357 66:-0.75626056 67:-1.5081818 68:-0.27928181 
-0.008137074371091424 -0 0 1:-0.24087109 2:-0.45003031 3:0.42464445 4:-0.43074161 5:-0.81261909 6:0.63785992 7:1.1910861 8:-0.73989261 9:0.36309275 10:-0.5253614 11:-0.64892638 12:-0.39545073 13:-1.5243903 14:-0.48451818 15:0.08644577 16:0.068893291 17:0.3603638 18:-0.57689814 19:-0.70384828 20:0.44223671 21:-0.42014266 22:-0.8737695 23:0.60161076 24:1.3395652 25:-0.68663355 26:0.36454088 27:-0.46231654 28:-0.58277432 29:-0.36329355 30:-1.6250166 31:-0.80329866 32:-0.19107897 33:-0.03797172 34:0.30107945 35:0.16033199 36:-0.076309708 37:-0.19244412 38:-0.70258003 39:-0.46699317 40:-0.70588936 41:0.70079592 42:-1.0332776 43:-0.26897707 44:-0.15080046 45:-0.34072068 46:-0.35514765 47:0.072857144 48:1.5307314 49:0.086840003 50:-1.1461199 51:-0.16056006 52:-0.32671442 53:-0.63815903 54:-0.20778981 55:-0.75919265 56:-0.5966893 57:-0.91227015 58:0.43857081 59:-1.190263 60:-0.27085469 61:-0.60199252 62:-0.52445684 63:-0.56314407 64:0.030764633 65:0.17433952 66:-0.69585483 67:-1.3114088 68:-0.13813498 
-0 -0.002808889576575612 0 1:0.17340656 2:-0.045256586 3:0.36300084 4:-0.58204193 5:-0.62614818 6:0.73246363 7:0.82140446 8:-0.83480388 9:0.36936237 10:-0.48136035 11:-0.853904 12:-0.46852759 13:-1.1513161 14:-0.11610118 15:0.36121507 16:0.22273766 17:0.46360282 18:0.019844908 19:-0.20141826 20:0.42799992 21:-0.5095439 22:-0.72383831 23:0.738997 24:1.0360305 25:-0.81915544 26:0.36729638 27:-0.53323496 28:-0.73800142 29:-0.40120337 30:-1.3211494 31:-0.34129606 32:0.16961899 33:0.070657715 34:0.39757551 35:0.33504667 36:0.26449975 37:-0.17272247 38:-0.36932217 39:-0.12936178 40:-0.34806786 41:1.1410982 42:-0.90022821 43:-0.29881633 44:-0.25322813 45:0.11454062 46:-0.16635033 47:0.73590103 48:1.9722008 49:0.33909104 50:-0.7845721 51:-0.19719045 52:0.29385432 53:0.19171315 54:-0.2090647 55:-0.51661218 56:-0.27628618 57:-0.36376843 58:0.89988163 59:-0.89728507 60:-0.28273382 61:-0.14733723 62:-0.26119934 63:-0.39061457 64:0.39587911 65:1.713169 66:0.22102585 67:-1.1430049 68:-0.17959118 
-0 -0.01 0 1:0.21737331 2:0.046257464 3:0.36321736 4:-0.61587821 5:-0.48311125 6:0.7101831 7:0.64227606 8:-0.78592756 9:0.30473104 10:-0.49332384 11:-1.0078188 12:-0.43561792 13:-1.0250264 14:-0.04344399 15:0.38570226 16:0.22853483 17:0.53698369 18:0.1671036 19:-0.05385141 20:0.37109061 21:-0.59180184 22:-0.63001785 23:0.7414136 24:0.82277887 25:-0.84206874 26:0.37000204 27:-0.48676055 28:-0.86127094 29:-0.46949401 30:-1.1460634 31:-0.11442258 32:0.35952868 33:0.22648668 34:0.47126427 35:0.33265194 36:0.27043045 37:-0.17268426 38:-0.33774835 39:0.14285395 40:-0.31154078 41:1.3365927 42:-0.79271998 43:-0.013254675 44:-0.29846722 45:0.42186707 46:-0.051029804 47:0.75738503 48:1.9260995 49:0.34066487 50:-0.7868673 51:-0.54622942 52:0.32024378 53:0.24542337 54:-0.18903776 55:-0.38379436 56:-0.14094909 57:-0.36064496 58:1.1469508 59:-0.90984406 60:-0.29780489 61:-0.25315451 62:0.11445353 63:-0.16980276 64:0.73105909 65:1.9757028 66:0.34007846 67:-0.78741159 68:-0.20905527 
-0.004759077573715357 -0.01 -0.01 1:-0.10448433 2:0.15889017 3:0.27003742 4:0.26968379 5:0.77821111 6:0.35451253 7:-1.0528911 8:0.0041540886 9:-1.3887826 10:-0.30373815 11:0.1894057 12:-1.1437623 13:0.28276328 14:0.34367174 15:-0.50710373 16:0.60086938 17:0.44396779 18:0.90214665 19:0.55749694 20:-0.94473656 21:0.25268715 22:0.98005773 23:0.05388597 24:-1.1070287 25:0.24251229 26:-1.3654369 27:-0.32311162 28:0.18989573 29:-1.0550697 30:-0.014461158 31:0.17535443 32:-0.38393916 33:0.30790816 34:0.26345015 35:-0.049777955 36:0.9646248 37:0.076272215 38:1.5384007 39:0.50440857 40:0.36872926 41:0.24982369 42:1.0383073 43:1.5289433 44:0.84476244 45:-0.14417253 46:1.2022212 47:0.4669123 48:0.40249399 49:0.19995808 50:1.8239596 51:0.55129796 52:1.4883718 53:1.2397367 54:2.7205312 55:1.4958167 56:0.75673944 57:1.3193747 58:0.17836394 59:1.1845581 60:1.6674779 61:0.80167024 62:-0.14235805 63:1.4558032 64:1.2833498 65:0.53277706 66:0.24694442 67:2.8390737 68:1.4386653 
-0.00109513232427447 -0.01 -0.01 1:-0.25620845 2:-0.25292309 3:0.49933888 4:-0.18071979 5:0.65841769 6:0.41884626 7:-1.0924764 8:0.063421225 9:-1.5615359 10:-0.48784171 11:0.17298936 12:-1.2328162 13:0.41401756 14:0.41003416 15:-0.259897 16:0.85194671 17:0.57869899 18:-0.11052851 19:0.1499314 20:0.27826503 21:0.25606482 22:0.77631268 23:0.3649731 24:-1.0521231 25:-0.0050198831 26:-1.393018 27:-0.30819977 28:0.18302942 29:-1.1448978 30:0.28905322 31:0.3449564 32:-0.51043967 33:0.60599035 34:0.45160469 35:-0.31799977 36:-0.15141892 37:-0.49954473 38:0.34639292 39:0.050064976 40:0.30159819 41:0.34411859 42:1.1236866 43:1.4979749 44:0.50553825 45:-0.053129773 46:0.88123943 47:0.36946368 48:0.15819889 49:-0.21247206 50:0.65318197 51:0.30434337 52:-0.061870261 53:0.93800919 54:0.055625906 55:1.4942546 56:0.48693177 57:0.34963337 58:0.25292171 59:1.0347668 60:1.5277764 61:0.84404827 62:-0.14410366 63:1.1957261 64:0.46250086 65:0.40086086 66:0.20095542 67:1.7946656 68:0.53457778 
-0 -0.003210470881572744 -0 1:-0.25657719 2:-0.32331852 3:0.5085248 4:-0.31537072 5:0.60490633 6:0.50500324 7:-1.0937385 8:-0.073597241 9:-1.5871289 10:-0.58490227 11:0.12926022 12:-1.2777363 13:0.53161151 14:0.55975058 15:-0.26998006 16:0.70991808 17:0.61716146 18:-0.26211134 19:-0.26114769 20:0.5072265 21:-0.19229804 22:0.65635111 23:0.42904971 24:-1.0917212 25:0.054112386 26:-1.5662503 27:-0.49327616 28:0.16659748 29:-1.233974 30:0.42040243 31:0.41126196 32:-0.26276332 33:0.85797865 34:0.58650433 35:-0.3181704 36:-0.1839739 37:-0.50335791 38:0.17971817 39:-0.043169611 40:0.2392991 41:0.34548362 42:0.7893488 43:1.5400172 44:0.85776157 45:-0.07585086 46:0.83399514 47:0.22368092 48:0.022679098 49:-0.22037499 50:0.72513836 51:0.23844104 52:-0.3282028 53:-0.16601651 54:-0.51017528 55:0.32078804 56:0.03681029 57:0.28311281 58:0.34750803 59:1.1204137 60:1.4968449 61:0.50506747 62:-0.053115788 63:0.87545792 64:0.3652082 65:0.15576656 66:-0.21144533 67:0.63576145 68:0.28922516 
-0 -0 -0.005320718120951981 1:-0.24875053 2:-0.41483261 3:0.50228357 4:-0.42071552 5:0.54467106 6:0.65303172 7:-1.1070533 8:-0.14158082 9:-1.6466444 10:-0.66069664 11:0.14894614 12:-1.3358414 13:0.69780433 14:0.64041578 15:-0.20505674 16:0.74309064 17:0.73288422 18:-0.26247974 19:-0.33141762 20:0.5163988 21:-0.32633888 22:0.60276464 23:0.51486233 24:-1.0929836 25:-0.082594283 26:-1.5919143 27:-0.59084959 28:0.12282682 29:-1.2789053 30:0.53808143 31:0.5608501 32:-0.27286553 33:0.71543471 34:0.62501489 35:-0.3164015 36:-0.23987437 37:-0.49593015 38:0.11382952 39:-0.18795232 40:-0.16683996 41:0.35437726 42:0.68525254 43:1.6213454 44:0.87592895 45:-0.12062232 46:0.5547071 47:-0.14029606 48:-0.39983466 49:-0.23050915 50:0.64181733 51:-0.32469304 52:-0.32837223 53:-0.19822092 54:-0.51392213 55:0.15670585 56:-0.055557887 57:0.22138029 58:0.34887728 59:0.78502809 60:1.5388371 61:0.85703807 62:-0.075823178 63:0.82831866 64:0.21965876 65:0.019803433 66:-0.2193477 67:0.70698809 68:0.22375033 
-0.001622411779182407 -0 -0 1:-0.36924259 2:-0.59434094 3:0.52162975 4:-0.32262854 5:0.37002905 6:0.40430806 7:-1.0802765 8:-0.35004297 9:-1.5442908 10:-0.55580051 11:0.88773422 12:-0.78542375 13:0.42484642 14:0.52913637 15:0.30777471 16:1.2065723 17:1.4180239 18:-0.38437608 19:-0.60195687 20:0.5273007 21:-0.37887305 22:0.350817 23:0.37316401 24:-1.0516696 25:-0.32276638 26:-1.5753833 27:-0.55566281 28:0.97584772 29:-0.75337458 30:0.5043413 31:0.60773742 32:0.34238565 33:1.1111864 34:1.4333579 35:-0.38358761 36:-0.50190084 37:-0.48576029 38:-0.013115438 39:-0.22489229 40:0.52982023 41:0.726013 42:1.9010262 43:1.1342573 44:0.69857486 45:0.51746745 46:1.0596434 47:-0.90732341 48:0.8534403 49:-0.0095767942 50:-0.97272911 51:-0.10706618 52:-0.39136463 53:-0.51272429 54:-0.49729342 55:0.040173968 56:-0.22002475 57:0.46250395 58:0.74893347 59:1.8562239 60:1.0387786 61:0.688017 62:0.3219341 63:1.2060794 64:-0.75104565 65:1.0496415 66:0.048430133 67:-1.0349988 68:-0.11312977 
-0 -0 -0.001477173794588556 1:-0.16945683 2:-0.33387785 3:0.49713578 4:-0.86860213 5:0.4405884 6:0.9728451 7:-0.63547097 8:-0.52984737 9:-1.6484758 10:-1.1411134 11:-0.45801376 12:-1.2994684 13:0.23340676 14:1.5022564 15:0.85187939 16:0.948514 17:0.87632617 18:-0.17312746 19:-0.34195813 20:0.50514558 21:-0.93179426 22:0.46877882 23:0.99146371 24:-0.72372698 25:-0.54052381 26:-1.6468505 27:-1.1283653 28:-0.44061255 29:-1.3114109 30:0.29764316 31:1.5272584 32:0.82138929 33:0.85180776 34:0.80603749 35:-0.31590926 36:-0.29273888 37:-0.48435413 38:-0.41775415 39:-0.16107438 40:-0.16929316 41:0.53409421 42:1.589995 43:1.4316077 44:0.48117376 45:0.18056869 46:0.64428277 47:-0.49817782 48:0.095131173 49:-0.0032368338 50:-0.0073774486 51:0.59717225 52:-0.32734904 53:-0.30581467 54:-0.4951853 55:-0.39007999 56:-0.23339853 57:-0.20062841 58:0.33187834 59:1.5892148 60:1.4541691 61:0.57948613 62:0.27947315 63:0.54069758 64:-0.44385988 65:0.099709831 66:0.012545289 67:0.092774121 68:0.72137753 
-0 -0 -0.01 1:-0.17968526 2:-0.33387785 3:0.49922521 4:-0.86906736 5:0.42259546 6:0.95394523 7:-0.59616947 8:-0.51035674 9:-1.6350066 10:-1.1324163 11:-0.50000841 12:-1.3243946 13:0.2378583 14:1.4318481 15:0.96004927 16:1.0437438 17:0.91275994 18:-0.17544051 19:-0.34195813 20:0.50502667 21:-0.87706367 22:0.43821606 23:0.98083432 24:-0.63456785 25:-0.53780618 26:-1.6534313 27:-1.1499998 28:-0.46500479 29:-1.3006428 30:0.23966101 31:1.5025484 32:0.85112511 33:0.95489631 34:0.88450362 35:-0.31239933 36:-0.29273888 37:-0.48385865 38:-0.41819434 39:-0.12986802 40:-0.17496952 41:0.63881154 42:1.5740402 43:1.4971932 44:0.49505883 45:0.18655372 46:0.53971604 47:-0.50332135 48:0.037319776 49:0.068900671 50:0.094349424 51:0.54618541 52:-0.32612702 53:-0.30581467 54:-0.4952489 55:-0.431473 56:-0.17236699 57:-0.18349609 58:0.53807078 59:1.5881835 60:1.4305568 61:0.48072046 62:0.18044179 63:0.63902808 64:-0.50104471 65:0.092492528 66:-0.0022250175 67:-0.018098887 68:0.5801545 
-0 -0 -0.01 1:-0.18280515 2:-0.33387785 3:0.50162859 4:-0.84756142 5:0.37414927 6:0.93640379 7:-0.42495825 8:-0.36843083 9:-1.6678937 10:-1.2088801 11:-0.55045101 12:-1.3230954 13:0.22855521 14:1.500928 15:1.201484 16:1.1223016 17:0.83346132 18:-0.18565941 19:-0.34195813 20:0.507113 21:-0.87752679 22:0.42019786 23:0.96200999 24:-0.59525364 25:-0.5183599 26:-1.6399247 27:-1.1412567 28:-0.50703931 29:-1.3255752 30:0.24411577 31:1.4322004 32:0.95950047 33:1.0504717 34:0.92098293 35:-0.3112997 36:-0.29273888 37:-0.4832068 38:-0.42186849 39:-0.080649899 40:-0.19768757 41:0.63942015 42:1.3816323 43:1.2399236 44:0.19480596 45:0.26673283 46:0.54516061 47:-0.50317553 48:0.063595869 49:-0.12986201 50:0.087405815 51:0.53581962 52:-0.32264181 53:-0.30581467 54:-0.49476204 55:-0.43190635 56:-0.14145062 57:-0.18912083 58:0.64311174 59:1.5721788 60:1.4960641 61:0.49459556 62:0.18642322 63:0.53469382 64:-0.50618 65:0.034492006 66:0.069907346 67:0.082596319 68:0.5294984 
-0 -0 -0.01 1:-0.16274308 2:-0.29868015 3:0.50311177 4:-0.8629637 5:0.46015527 6:0.85566407 7:-0.59535018 8:-0.17266188 9:-1.774474 10:-1.188989 11:-0.48138818 12:-1.3738532 13:0.24888488 14:1.2887413 15:1.1392051 16:1.3253773 17:1.0579037 18:-0.1887764 19:-0.34195813 20:0.50951282 21:-0.8561183 22:0.37168367 23:0.94453865 24:-0.42398704 25:-0.37675696 26:-1.672903 27:-1.2181246 28:-0.55752981 29:-1.3242758 30:0.23480595 31:1.5012211 32:1.2013939 33:1.1293145 34:0.84158517 35:-0.30931715 36:-0.29567716 37:-0.48281955 38:-0.40882878 39:-0.015715665 40:-0.19190565 41:1.0172841 42:1.3301011 43:1.2574011 44:0.32804541 45:0.48782045 46:0.52308096 47:-0.53351659 48:0.70431467 49:-0.044153652 50:-0.0005793733 51:1.0779031 52:-0.32154992 53:-0.30581467 54:-0.49412152 55:-0.43552335 56:-0.092689878 57:-0.21163228 58:0.64372224 59:1.3791678 60:1.2391011 61:0.19455812 62:0.26655399 63:0.5401263 64:-0.50603442 65:0.060854059 66:-0.12884117 67:0.075723129 68:0.51919985 
-0 -0 -0.01 1:-0.21418359 2:-0.39723374 3:0.51105268 4:-0.74213097 5:0.37878401 6:0.75177153 7:-0.46770711 8:-0.051568136 9:-1.727784 10:-1.1393147 11:-0.27851466 12:-1.3396657 13:-0.0065807542 14:1.0549795 15:0.98418026 16:1.4343995 17:1.0834404 18:-0.19656906 19:-0.39114709 20:0.51852297 21:-0.8109792 22:0.42708257 23:0.79191678 24:-0.56190868 25:-0.091907918 26:-1.7656424 27:-1.1874702 28:-0.37902818 29:-1.3525863 30:0.1331538 31:1.1996447 32:1.1369549 33:1.4325619 34:1.1238063 35:-0.31197408 36:-0.35947217 37:-0.48554102 38:-0.26826739 39:-0.10733236 40:0.098332455 41:0.78070885 42:1.6141463 43:1.1032621 44:0.15031597 45:0.29717674 46:0.37460364 47:-0.46772499 48:1.1371417 49:0.030414379 50:0.20845002 51:1.2241512 52:-0.32242447 53:-0.37507832 54:-0.49658324 55:-0.40229753 56:-0.091536289 57:0.0097433455 58:0.9316718 59:1.5572711 60:1.1761959 61:0.27862041 62:0.11472823 63:0.41694698 64:-0.55904148 65:0.95786335 66:-0.043765575 67:0.203106 68:1.188981 
-0.00457564885840232 -0 -0.003104384493870523 1:-0.40332819 2:-0.53802461 3:0.51834404 4:-0.4732911 5:0.20035368 6:0.38691293 7:-0.3621073 8:0.18066398 9:-1.5871536 10:-0.79220589 11:0.48987558 12:-1.106606 13:-0.49183353 14:0.32650233 15:0.63770037 16:1.3586489 17:0.828548 18:-0.40388796 19:-0.54574093 20:0.52183624 21:-0.55143343 22:0.21999718 23:0.43309916 24:-0.35807158 25:0.14525713 26:-1.6490564 27:-0.8215583 28:0.44290677 29:-1.1040778 30:-0.48168368 31:0.28391478 32:0.61381711 33:1.3291526 34:0.85597427 35:-0.37591232 36:-0.47878842 37:-0.50560896 38:-0.37159551 39:0.012394359 40:-0.13887071 41:1.2790166 42:0.88097916 43:1.7979749 44:0.027044236 45:0.37471061 46:0.75491878 47:0.49641098 48:1.0037052 49:-0.33801574 50:0.096769304 51:0.72247204 52:-0.38823911 53:-0.48986076 54:-0.51689948 55:-0.31747387 56:-0.026805572 57:-0.15774136 58:1.291862 59:0.87544079 60:1.7040459 61:0.035643615 62:0.4225752 63:0.75374095 64:0.50310172 65:0.82526332 66:-0.35838243 67:0.11919839 68:0.63807428 
-0 -0.006751673287764953 -0 1:-0.38051919 2:-0.5873014 3:0.5002591 4:-0.4784371 5:0.30917813 6:0.4008191 7:-0.71804445 8:-0.027118399 9:-1.7254242 10:-0.80796798 11:0.78942248 12:-0.81405874 13:0.31273728 14:0.72256482 15:0.39382927 16:0.83373244 17:0.44344422 18:-0.39021952 19:-0.59492988 20:0.50944796 21:-0.44071785 22:0.28096504 23:0.44707307 24:-0.6532634 25:0.012259045 26:-1.6694357 27:-0.84007682 28:0.78497834 29:-0.90654747 30:0.090719789 31:0.60165313 32:0.25372922 33:0.88509482 34:0.46571241 35:-0.38921394 36:-0.48757889 37:-0.50427941 38:-0.28103397 39:-0.18909171 40:0.16741149 41:0.81937917 42:0.98335689 43:1.6315997 44:-0.098113839 45:-0.13729989 46:1.0144514 47:1.3646246 48:0.55372227 49:-0.48376682 50:-0.42006088 51:-0.4337205 52:-0.39876114 53:-0.49855656 54:-0.51404604 55:-0.22953227 56:-0.2069779 57:0.046615164 58:0.78314932 59:1.0736887 60:1.3930664 61:-0.062343622 62:-0.13514892 63:0.93798087 64:1.2819158 65:0.67196107 66:-0.5234904 67:-0.43738003 68:-0.43872432 
-0.004964044448927329 -0.002372157898337704 -0 1:-0.39883219 2:-0.61545958 3:0.49954999 4:-0.43938905 5:0.25405618 6:0.38128209 7:-0.64526176 8:0.047576057 9:-1.670038 10:-0.86155371 11:0.70285048 12:-0.8351412 13:0.44282617 14:0.9024848 15:0.43388 16:0.81292055 17:0.37469305 18:-0.38630632 19:-0.59492988 20:0.50814535 21:-0.48866642 22:0.30662134 23:0.4110946 24:-0.71716804 25:-0.036221207 26:-1.730593 27:-0.81509401 28:0.78361593 29:-0.81511165 30:0.31904891 31:0.72352484 32:0.39220483 33:0.8396983 34:0.45108047 35:-0.38675245 36:-0.49225048 37:-0.50465926 38:-0.22177207 39:-0.23730662 40:0.19469343 41:0.76586807 42:1.0598551 43:1.3311621 44:-0.20459906 45:-0.34112889 46:1.0000144 47:1.3186771 48:-0.12130478 49:-0.56175455 50:-0.43767635 51:-1.2019414 52:-0.39891536 53:-0.49855656 54:-0.5148276 55:-0.29687946 56:-0.20012396 57:0.15014645 58:0.82423743 59:0.9796442 60:1.6303105 61:-0.098151515 62:-0.13723516 63:1.0083737 64:1.3587764 65:0.55258387 66:-0.48272076 67:-0.42659707 68:-0.44405098 
-0.01 -0 -0 1:-0.35974285 2:-0.562663 3:0.4725552 4:-0.43673729 5:0.28130415 6:0.50612818 7:-0.69479069 8:-0.18090346 9:-1.66698 10:-0.96065571 11:0.58360059 12:-0.77276221 13:0.65471533 14:1.0431493 15:0.43758381 16:0.8497556 17:0.38800162 18:-0.40460226 19:-0.62303785 20:0.5074373 21:-0.4497953 22:0.25142201 23:0.39163567 24:-0.64436181 25:0.038303275 26:-1.6750533 27:-0.86896289 28:0.69696172 29:-0.83619939 30:0.44923189 31:0.90329067 32:0.43233165 33:0.81881089 34:0.38224333 35:-0.37187183 36:-0.46711889 37:-0.45655953 38:-0.21933796 39:-0.22173302 40:0.46167389 41:0.74526215 42:1.2158867 43:1.3279786 44:0.20362172 45:0.12608595 46:0.46601012 47:0.97637984 48:-0.31182193 49:-0.5639291 50:-0.31915075 51:-1.1586901 52:-0.39647121 53:-0.50317785 54:-0.51520084 55:-0.23853936 56:-0.24789082 57:0.17718028 58:0.77056095 59:1.0563822 60:1.330231 61:-0.20456033 62:-0.34094129 63:0.99396886 64:1.3129024 65:-0.12465148 66:-0.56070293 67:-0.4440339 68:-1.2072885 
-0 -0 -0.00493222972968666 1:-0.28212891 2:-0.54858392 3:0.4794081 4:-0.61267069 5:0.37149111 6:0.74007161 7:-0.82447818 8:-0.40683431 9:-1.7032505 10:-1.258012 11:0.18187419 12:-0.64767155 13:1.1340612 14:1.2012978 15:0.69077256 16:0.88376186 17:0.40372757 18:-0.32736256 19:-0.55628142 20:0.48519029 21:-0.57176656 22:0.34136055 23:0.64236642 24:-0.79476435 25:-0.25518918 26:-1.7178606 27:-1.2068211 28:0.34276785 29:-0.70006185 30:0.98659016 31:1.170382 32:0.73523813 33:0.91374469 34:0.39064768 35:-0.38277374 36:-0.46834391 37:-0.45335557 38:-0.033868883 39:-0.35580725 40:0.68499931 41:0.52580519 42:1.4584713 43:1.0408787 44:-0.36829955 45:0.89962386 46:0.092719233 47:0.34508602 48:-0.41488962 49:-0.31393976 50:-0.25493655 51:-1.3710331 52:-0.39714864 53:-0.47952872 54:-0.46561159 55:-0.10554459 56:-0.32686327 57:0.56383351 58:0.5909625 59:1.3191573 60:0.98031506 61:-0.21137313 62:0.43210909 63:0.48543193 64:0.67732505 65:-0.38321444 66:-0.23064142 67:-0.20998208 68:-1.3321239 
