svm_type c_svc
kernel_type linear
nr_class 3
total_sv 117
rho -0.404973 0.620722 0.85478
label 0 1 2
probA -9.01368 -10.7093 -20.0317
probB 4.33315 -5.64337 -15.9202
nr_sv 37 28 52
SV
0.001 0.001 1:1.2420149 2:-1.6484682 3:-2.2188123 4:-0.41572177 5:-0.59884264 6:0.65209222 7:1.6646393 8:1.606006 9:1.6636636 10:1.464168 11:0.67791456 12:-0.53131265 13:0.591207 14:0.2194414 15:0.84468442 16:1.2063818 17:1.4953715 18:1.5064836 19:1.4844626 20:2.110426 21:1.6257533 22:1.6990804 23:0.61604913 24:-0.43640156 25:-1.5726825 26:2.3992414 27:0.52678027 28:-0.82160132 29:-1.7320454 30:0.75835318 31:0.89615144 32:-0.52831967 33:0.051976716 
0.001 0.001 1:0.60857969 2:-1.059176 3:-1.5262613 4:-0.73126162 5:-1.8742609 6:-0.35567584 7:1.3026898 8:1.5966851 9:1.5612056 10:1.2911 11:0.64275888 12:-0.50281371 13:0.35876522 14:0.39539546 15:0.96783147 16:1.2685399 17:1.5317805 18:1.1516565 19:1.4241924 20:2.0895383 21:1.4478076 22:1.6873571 23:0.50342592 24:-0.44271548 25:-1.5165124 26:2.4405608 27:0.56665344 28:-0.83538693 29:-1.6965796 30:0.64162088 31:0.9487169 32:-0.49369437 33:0.076111548 
0.001 0.001 1:0.72831617 2:-0.95738971 3:-1.5324291 4:0.0092307335 5:-1.743192 6:-0.098327841 7:1.453255 8:1.5256892 9:1.5470347 10:1.1545005 11:0.27904531 12:-0.60708514 13:0.60318631 14:0.77617218 15:1.7783896 16:1.4530677 17:1.9037025 18:1.1034371 19:1.4218925 20:1.7569188 21:1.4075195 22:1.4488348 23:0.43469357 24:-0.40847123 25:-1.5528285 26:2.2779781 27:0.49400456 28:-0.83673942 29:-1.8854573 30:0.30389071 31:1.1038435 32:-0.41712688 33:0.18221787 
0.001 0.001 1:0.65610917 2:-0.89578214 3:-1.1594643 4:0.27758571 5:-1.4208659 6:-0.27615384 7:1.1907191 8:1.2483767 9:1.1048221 10:0.91910706 11:0.43306467 12:-0.85756358 13:-0.34133713 14:0.16061456 15:1.3224502 16:1.0912987 17:1.7639747 18:1.1341971 19:1.520171 20:2.001143 21:1.4984736 22:1.3319376 23:0.62580928 24:-0.087641795 25:-1.6447918 26:1.5628917 27:0.69707819 28:-0.78843444 29:-2.8710024 30:-0.44000241 31:0.9652534 32:-0.083795459 33:0.55687547 
0.001 0.001 1:0.66109195 2:-0.72703021 3:-0.89272369 4:0.71718428 5:-0.57939277 6:-0.1524716 7:1.1426312 8:1.2102045 9:1.2955251 10:1.1357361 11:0.77736989 12:-1.1541397 13:-0.4850443 14:0.27224161 15:1.7201632 16:1.3934061 17:1.2637776 18:1.1334961 19:1.5516565 20:1.6609405 21:1.8997765 22:1.4256639 23:0.5764778 24:-0.089753103 25:-1.832917 26:1.0579783 27:0.34845538 28:-0.44509711 29:-2.7703503 30:-0.37639526 31:1.2965506 32:-0.044364334 33:1.3241049 
0 0.001 1:0.781833 2:-0.92256559 3:-0.28553273 4:0.9377772 5:0.16381499 6:0.2631234 7:1.3288927 8:1.4764244 9:1.5567016 10:1.1319348 11:0.7633254 12:-0.84464495 13:-0.17493347 14:0.60027986 15:1.5342701 16:0.6249808 17:0.85287409 18:1.1827759 19:0.15962706 20:1.8968569 21:1.7687591 22:1.2487392 23:0.25793713 24:-0.22046618 25:-1.9124607 26:1.0562373 27:0.30842259 28:-0.1110594 29:-2.1504725 30:-0.5316112 31:1.7881186 32:0.49784018 33:1.3307039 
0.001 0.001 1:0.99145995 2:-1.174354 3:-0.4091944 4:0.058832574 5:-0.071131746 6:1.0568543 7:1.9529861 8:1.7969734 9:1.7302435 10:1.190463 11:0.47662882 12:-0.76605557 13:-0.11598161 14:0.27660821 15:0.810101 16:0.34697441 17:0.54881898 18:1.090857 19:0.088021402 20:2.6255979 21:1.7772646 22:1.4521212 23:0.32515341 24:0.46115921 25:-1.3776677 26:1.1115232 27:-0.43400671 28:0.0274069 29:-2.0492077 30:-0.56282823 31:1.416702 32:0.3924877 33:1.2997687 
0 0.001 1:1.0569346 2:-1.1931038 3:-0.27525298 4:-0.32614986 5:1.0665408 6:1.6493105 7:2.139387 8:2.1395682 9:1.8802879 10:1.4388336 11:0.63369876 12:0.052741725 13:0.24442185 14:0.35292786 15:0.8734932 16:0.62179219 17:0.4193665 18:1.0525414 19:0.16801997 20:2.7877324 21:1.7306079 22:1.2877858 23:0.11437487 24:-0.099189989 25:-2.0613351 26:-0.18267407 27:-1.066364 28:-0.83101119 29:-2.6478302 30:-0.53602549 31:1.4495151 32:0.73232659 33:1.1277686 
0 0.001 1:0.79674334 2:-0.91453196 3:-0.25507419 4:-1.0877095 5:0.48677 6:1.4236853 7:1.959858 8:2.1743077 9:1.899621 10:1.7039398 11:0.7960572 12:-0.21129708 13:-0.16198063 14:0.33448141 15:1.0704671 16:0.10493811 17:-0.19867125 18:1.1286744 19:0.18044231 20:2.3469501 21:1.4724667 22:1.4393135 23:0.2160123 24:-0.14298312 25:-2.1377142 26:-0.5143172 27:-1.2149159 28:-0.6993029 29:-2.1003611 30:-0.47688723 31:0.92130933 32:1.236709 33:1.4741777 
0.001 0.001 1:0.67190591 2:-0.70292229 3:-0.24129171 4:-1.0831641 5:0.88970172 6:1.2132766 7:1.4562729 8:2.275758 9:1.768514 10:1.4217223 11:0.39179861 12:-0.51611604 13:-0.74502207 14:-0.23045847 15:0.81682549 16:0.14192389 17:-0.63532482 18:1.1541736 19:0.17424892 20:2.3489848 21:1.3921117 22:1.6131637 23:0.53693973 24:-0.30953243 25:-1.6776147 26:0.66997514 27:-0.12696364 28:-0.4021704 29:-1.36792 30:-1.5080849 31:1.1159384 32:1.2000096 33:1.4705185 
0.0003317806339303781 0.001 1:0.69919194 2:-0.61988585 3:-0.49021411 4:-1.3223352 5:1.4991795 6:1.4804298 7:1.9785009 8:2.7472127 9:1.6775058 10:1.1867193 11:0.34679834 12:-0.61206479 13:-0.14564199 14:0.20227203 15:1.0541797 16:0.44617823 17:-0.29291399 18:1.1447862 19:0.16356985 20:2.1367776 21:1.2701208 22:1.5735177 23:0.56769353 24:0.073797245 25:-1.7857451 26:0.17371174 27:-0.17380887 28:-0.36320699 29:-1.1281506 30:-0.72291805 31:1.3065033 32:1.5370792 33:1.9237617 
0 0.001 1:0.68945009 2:-0.71363849 3:-0.51838826 4:-1.4172821 5:1.5611094 6:1.6514917 7:1.757769 8:2.3099916 9:1.583013 10:1.3015875 11:0.26880985 12:-0.34999689 13:0.305173 14:0.5035275 15:1.180524 16:0.90257858 17:-0.76814515 18:1.144182 19:0.1599535 20:2.1392929 21:1.2170103 22:1.1391187 23:0.96981309 24:1.1541315 25:-1.6371684 26:0.36440512 27:-0.3220019 28:0.00040702779 29:-0.34435329 30:-0.12426416 31:1.5076332 32:2.0659631 33:1.4066256 
0 0.001 1:0.65343734 2:-0.77792158 3:-0.47353806 4:-1.9137695 5:0.67836577 6:1.0424138 7:1.4713035 8:2.2499281 9:1.5325748 10:1.5962457 11:0.33168911 12:-0.15331336 13:0.48615739 14:0.77082608 15:1.302179 16:0.98247762 17:-1.1031248 18:1.1502813 19:0.17062581 20:1.707724 21:1.2199668 22:1.1555939 23:0.89653251 24:1.1303838 25:-1.6094611 26:0.81316807 27:-0.2543731 28:-0.16442931 29:-0.63149969 30:-0.71197182 31:1.4060728 32:2.0982093 33:1.4024186 
0 0.001 1:0.15333205 2:-0.070772325 3:-0.51602772 4:-1.8068099 5:0.43998386 6:0.79890852 7:1.2575348 8:1.8766929 9:1.3829345 10:1.5099888 11:0.57679218 12:0.6123737 13:0.6018178 14:0.83020163 15:1.202805 16:0.67758467 17:-1.3771204 18:1.0018901 19:0.16515687 20:1.7078127 21:1.1082465 22:1.1647563 23:1.2135015 24:1.7907657 25:-0.78739294 26:0.8669635 27:-0.10458692 28:-0.24751034 29:-0.61442567 30:-0.68624186 31:1.3102035 32:2.1531347 33:1.2076145 
0 0.001 1:0.070610784 2:-0.033272679 3:-0.2248441 4:-0.92061439 5:0.81475681 6:1.1779882 7:1.7021451 8:2.2123303 9:1.3563963 10:1.3832393 11:0.27969153 12:0.29487544 13:0.17133953 14:0.91123302 15:1.014565 16:1.1321504 17:-0.76098259 18:1.0252178 19:0.18692569 20:0.61258201 21:1.2071276 22:1.5750803 23:1.5889805 24:1.7729326 25:-0.77190632 26:0.91357071 27:0.19980391 28:0.26369997 29:-0.35634898 30:-0.73734079 31:1.4679554 32:2.1057396 33:1.2718824 
0.001 0.001 1:-0.47365993 2:0.55869507 3:0.35988369 4:-1.3126313 5:0.21916488 6:0.71653409 7:1.4021753 8:1.9246701 9:1.6172275 10:1.8245293 11:0.68758729 12:0.32431826 13:0.36091951 14:0.81021863 15:0.63865156 16:0.51716135 17:-1.1773595 18:0.68077132 19:-0.18937223 20:0.73022425 21:0.67616228 22:0.77536778 23:1.267183 24:1.5656545 25:-0.039915512 26:-0.37484166 27:0.50750944 28:0.29333966 29:-0.24085197 30:-0.76914055 31:1.2273505 32:1.6828385 33:0.90406959 
0.001 0.001 1:-1.0283605 2:0.96316459 3:0.73109712 4:-0.34909297 5:0.63583732 6:0.75310183 7:1.2657262 8:1.7918926 9:1.6421808 10:1.882993 11:0.46809511 12:0.13160096 13:0.30858175 14:0.65693661 15:0.70542043 16:0.26172685 17:-1.2655709 18:-0.78109153 19:-0.54504081 20:0.16181013 21:0.50887628 22:0.79614146 23:1.1571529 24:1.5220443 25:-0.019769072 26:-0.42703797 27:0.22247525 28:0.1570985 29:-0.32575424 30:-0.77695857 31:1.2659931 32:1.5919484 33:0.85402952 
0.001 0.001 1:-0.90947454 2:0.89887798 3:0.7419099 4:-0.049642142 5:-0.13881924 6:-0.22990671 7:0.38467322 8:1.4214423 9:1.8698442 10:2.080624 11:0.97156345 12:0.033472122 13:-0.22831811 14:0.496023 15:0.19198332 16:-0.052128455 17:-0.94912838 18:-0.82375735 19:-0.54069172 20:-0.12256273 21:0.51255704 22:0.38628184 23:0.4816695 24:1.3912046 25:0.2989681 26:-0.15820984 27:-0.32987585 28:0.26452173 29:0.60468458 30:-0.8699698 31:1.9243206 32:1.9888203 33:0.85141438 
0.001 0.001 1:-0.90504681 2:0.72209242 3:0.69949639 4:0.44403145 5:0.021763176 6:0.099706374 7:0.017630763 8:0.68068052 9:1.7574426 10:1.7354219 11:0.71255413 12:-0.2768664 13:-0.65194133 14:0.6010252 15:0.39297514 16:0.0020741802 17:-0.82329334 18:-0.82760539 19:-0.54260322 20:0.12698759 21:0.37068741 22:0.040792153 23:0.98948949 24:1.5620185 25:0.055598267 26:-1.222028 27:-0.50904802 28:0.32834334 29:0.95778796 30:-0.82430422 31:2.104126 32:1.996371 33:0.76833762 
0.001 0.001 1:-0.79210177 2:0.62566074 3:0.66142322 4:0.5115621 5:1.0496068 6:0.32245816 7:-0.50825316 8:0.47477217 9:1.5665392 10:1.5854763 11:0.7681764 12:-0.30126024 13:-0.46190623 14:0.79510532 15:0.92856138 16:0.70722896 17:-0.2691647 18:-0.83710449 19:-0.52670135 20:0.15698707 21:-0.26673755 22:0.13841869 23:0.96878767 24:1.634831 25:-0.30903951 26:-1.2716942 27:-0.46565371 28:0.30645393 29:1.0898002 30:-0.78844944 31:1.7919088 32:1.9048054 33:0.96333224 
0.001 0.001 1:-0.71990533 2:0.72209242 3:0.55786419 4:-0.36157459 5:0.52615357 6:0.22907251 7:-0.62832817 8:0.40656995 9:1.3324433 10:1.3545735 11:1.0996065 12:-0.41565564 13:-0.41492812 14:1.2171404 15:0.70640981 16:0.7798273 17:-0.60542895 18:-0.81904591 19:-0.45703621 20:0.38754484 21:-0.34368395 22:0.1270229 23:0.90822136 24:1.5812223 25:-0.63595936 26:-1.5989856 27:-0.43769586 28:0.22853202 29:1.1371254 30:-0.52002976 31:1.6938284 32:1.894872 33:0.86624521 
0.001 0.001 1:-0.72333692 2:0.67387658 3:0.48042335 4:-0.32697956 5:1.1172943 6:0.72130562 7:-0.85048195 8:0.10733714 9:1.1815659 10:1.5378269 11:1.5040174 12:-0.3424302 13:-0.30897068 14:1.0901676 15:0.19154103 16:0.74322991 17:-0.18802085 18:-0.81867092 19:-0.51094633 20:0.3722587 21:-0.9125268 22:-0.63044514 23:1.0349371 24:1.5917728 25:-0.18344967 26:-1.6566741 27:-0.1402873 28:0.21105316 29:1.1142653 30:-0.39936982 31:1.8361304 32:1.8769064 33:1.800017 
0.001 0.001 1:-0.68169138 2:0.57476937 3:0.62662434 4:-0.67888208 5:0.89405617 6:0.83642008 7:-0.44429198 8:0.17359928 9:0.97601048 10:1.5762156 11:1.6429628 12:-0.27253911 13:-0.42338394 14:1.0307873 15:0.062572271 16:0.67109673 17:-0.3817292 18:-0.81832208 19:-0.43762338 20:0.32161858 21:-0.69983208 22:-0.67723197 23:1.5726172 24:1.5960068 25:-0.23549288 26:-1.6658303 27:-0.41367559 28:0.20373676 29:1.1137557 30:-0.40744894 31:1.6124919 32:1.8349755 33:1.5726503 
0.001 0.001 1:-0.62692305 2:0.53994525 3:0.4910077 4:-0.57239143 5:1.2373803 6:1.2059882 7:0.0055723117 8:0.17853439 9:1.0367607 10:1.5677216 11:1.6932532 12:-0.10012847 13:0.047036245 14:1.245732 15:-0.11214062 16:0.81673458 17:-0.076888682 18:-0.84773904 19:-0.51539231 20:0.52208998 21:-0.38875182 22:-0.29405071 23:1.6275291 24:1.5895548 25:-0.46855894 26:-1.6642924 27:-0.31504185 28:0.13021112 29:0.89715035 30:-0.55949815 31:1.7235587 32:1.6989307 33:1.1589737 
0.001 0.001 1:-0.26564537 2:0.065834534 3:0.43138511 4:-0.25144047 5:0.30064147 6:0.82594369 7:-0.12927419 8:0.18270505 9:1.0202083 10:1.5146763 11:1.6577554 12:0.32951557 13:0.39799506 14:1.3027364 15:-0.44250619 16:0.70395157 17:0.48336316 18:-0.50369649 19:-0.53635157 20:0.68652937 21:-0.70259939 22:-0.23679052 23:1.525025 24:1.5906115 25:-0.49137914 26:-1.5855376 27:-0.32214112 28:-0.30903227 29:0.87922422 30:-0.51078771 31:1.2983452 32:1.640912 33:0.59001676 
0.001 0.001 1:-0.5308996 2:0.42476726 3:0.8940503 4:-0.68609689 5:-0.56003966 6:0.26931066 7:-0.28569003 8:-0.21413672 9:0.63073105 10:1.3439968 11:1.3400245 12:-0.2179703 13:-0.05227058 14:1.4255382 15:0.43277989 16:1.3472988 17:1.0042444 18:-0.67870053 19:-1.312293 20:0.1924504 21:-0.34396875 22:0.3284212 23:1.6905799 24:1.7299031 25:-0.089466768 26:-1.161762 27:-0.46208277 28:-0.50816704 29:0.51525162 30:-0.38158569 31:0.38391962 32:1.1179067 33:0.79177327 
0.001 0.001 1:-0.51207649 2:0.60423187 3:0.31016013 4:0.31921518 5:0.13101147 6:0.10260075 7:-0.6995009 8:-0.76858314 9:0.57062586 10:1.3822435 11:1.4268459 12:-0.4267832 13:-0.47729568 14:1.6208217 15:0.7969935 16:1.4963882 17:1.3588987 18:-0.67645019 19:-0.5360031 20:-0.60729114 21:0.020430059 22:-0.022957899 23:1.2637905 24:0.7858006 25:-0.39562954 26:-1.0729025 27:-0.38589115 28:-0.83082148 29:0.40272168 30:-0.56082781 31:0.34936397 32:1.1048582 33:0.83299388 
0.001 0.001 1:-0.26826233 2:0.25601533 3:-0.04597633 4:0.40189694 5:-0.39403837 6:-0.20373146 7:-0.61344127 8:-0.65498663 9:0.74949644 10:1.5957597 11:1.7279708 12:-0.22641037 13:-0.47699423 14:1.3664001 15:0.69393022 16:1.2644247 17:1.3491371 18:-0.65932153 19:-0.58501184 20:-0.72240628 21:-0.37556728 22:-0.28613925 23:1.2874858 24:0.89342463 25:-0.18045445 26:-1.0157696 27:-0.84774709 28:-0.59220106 29:0.40271745 30:-0.32798021 31:0.2956611 32:0.85894691 33:0.82550174 
0.0006682193660696219 0.001 1:-0.19084674 2:0.14351288 3:-0.092730186 4:0.24093446 5:-0.36181544 6:0.25221705 7:-0.37998677 8:-0.48447439 9:0.84331765 10:1.4983033 11:1.5262492 12:0.017772642 13:0.14008257 14:1.758123 15:1.5044399 16:1.5931297 17:1.6929429 18:-0.71486272 19:-0.61803929 20:-0.53229156 21:-0.37320078 22:-0.16659825 23:1.340034 24:0.98122356 25:-0.24044847 26:-1.1241398 27:-0.49422061 28:-0.72129587 29:0.21976327 30:-1.1995798 31:-0.30725477 32:0.31324427 33:0.18965722 
0 0.001 1:-0.0291165 2:-0.017201905 3:-0.060672575 4:-0.021612593 5:-0.38262003 6:0.3663038 7:0.087958667 8:-0.32932189 9:1.0670551 10:1.9790957 11:2.2307604 12:0.58410936 13:0.68860536 14:2.1818868 15:1.8832997 16:1.9268532 17:2.0347458 18:-0.7271144 19:-0.63516486 20:-0.51011338 21:-0.38027211 22:-0.28158908 23:1.2394987 24:1.0365709 25:-0.42942805 26:-2.2468292 27:-1.6185849 28:-1.0483167 29:-0.5330952 30:-1.0870252 31:-0.60940526 32:0.073316961 33:-0.15755368 
0.001 0.001 1:0.0063707447 2:-0.16720401 3:-0.096385211 4:-0.28747846 5:-0.12212719 6:0.56390806 7:-0.32141031 8:-0.91956922 9:0.79708607 10:1.7211226 11:1.9885914 12:0.76860976 13:0.3483526 14:1.8518248 15:1.0925199 16:1.3016436 17:1.736685 18:-0.73840702 19:-0.61042123 20:-0.5347288 21:-0.12644718 22:-0.01241932 23:0.93272965 24:0.21860549 25:0.15833101 26:-0.75750421 27:-1.0740681 28:-1.1486159 29:-0.8317795 30:-1.5441686 31:-0.18481915 32:-0.1462796 33:-0.49875271 
0.001 0.001 1:-0.24293902 2:0.1274421 3:0.066872553 4:-0.53555981 5:0.45285367 6:1.1632122 7:0.460621 8:-0.2344544 9:0.62999489 10:1.2053355 11:1.4344439 12:-0.11192298 13:-0.52087165 14:1.4632312 15:0.68312477 16:0.50857555 17:1.5101121 18:-0.65357162 19:-0.54992342 20:-0.31160573 21:-0.21343278 22:-0.43575691 23:0.93251317 24:-0.19268919 25:0.66687973 26:1.1259569 27:0.64280785 28:-1.0841676 29:-1.2654226 30:-2.0896703 31:-0.73687246 32:-0.781816 33:-0.13137361 
0.001 0.001 1:-0.38949301 2:0.15958717 3:0.17370588 4:-0.2732292 5:0.75374613 6:1.4429916 7:0.26645336 8:-0.57780284 9:0.31838096 10:0.79049921 11:1.2963719 12:0.5734567 13:-0.1544528 14:1.5839583 15:0.73311861 16:0.3999077 17:2.2117044 18:-0.57776393 19:-0.4953253 20:-0.18227499 21:-0.4106739 22:-0.71453125 23:1.0474532 24:-0.17837136 25:1.5781721 26:0.88068803 27:0.65628153 28:-0.42439637 29:-1.1449609 30:-2.2511519 31:-0.76240013 32:-0.86138481 33:0.074791147 
0.001 0.001 1:-0.045715203 2:-0.33595594 3:0.088117384 4:-0.50929789 5:1.0952317 6:1.9213716 7:0.42343969 8:-0.18763281 9:0.77047248 10:0.95526636 11:1.6721632 12:0.95625227 13:-0.22600702 14:1.3790527 15:0.53970343 16:0.42595546 17:2.3626887 18:-0.47908682 19:-0.47229742 20:-0.060890277 21:-0.17959905 22:-0.51087314 23:0.82766782 24:-0.70185834 25:1.4020449 26:1.0598467 27:1.9091792 28:0.38335679 29:-1.1842115 30:-2.1055733 31:-0.88986674 32:-0.88675557 33:-0.02341497 
0.001 0.001 1:0.057943853 2:-0.53952846 3:0.046465333 4:-1.2704607 5:0.55145776 6:1.3848209 7:-0.32373142 8:-0.65744137 9:0.52438682 10:0.78671407 11:1.5194802 12:1.0758795 13:0.17560708 14:1.5513104 15:0.94714954 16:0.43348651 17:2.4470084 18:-0.52033095 19:-0.49564955 20:0.88289475 21:-0.23514021 22:-0.90247657 23:0.42088941 24:-0.90083359 25:1.978748 26:1.5697286 27:2.4630076 28:0.13871888 29:-1.4358704 30:-2.0515785 31:-1.0694484 32:-0.87729274 33:0.081514044 
0.001 0.001 1:0.22723373 2:-0.66006455 3:-0.13126024 4:-1.2106499 5:0.35333031 6:1.0407674 7:-0.54213789 8:-0.50372135 9:0.39333027 10:0.53016861 11:0.76096983 12:0.50217893 13:-0.10189044 14:1.5491979 15:1.0426957 16:0.82202242 17:2.934441 18:-0.51153475 19:-0.527608 20:0.83457306 21:-0.26095889 22:-0.79367537 23:0.32968467 24:-0.64299505 25:1.3917662 26:1.4410747 27:3.4826878 28:0.22035501 29:-1.5713097 30:-2.0503022 31:-1.0639413 32:-0.66656735 33:0.12977434 
0.001 0.001 1:-0.19842116 2:-0.16184591 3:-0.22286429 4:-1.8159006 5:0.14915501 6:0.89208444 7:-0.99101365 8:-0.69649159 9:0.06814084 10:0.32573957 11:0.81792358 12:-0.032668812 13:-0.38969731 14:1.725328 15:1.0687868 16:1.1805418 17:3.2333041 18:-0.82359218 19:-0.50844502 20:0.75413445 21:-0.22343781 22:-0.83622105 23:0.35950534 24:-0.66803842 25:1.6640909 26:1.5984379 27:3.4907141 28:0.59268078 29:-1.845197 30:-2.1093122 31:-1.0397374 32:-0.43852384 33:0.11459268 
-0.001 0.001 1:0.3463814 2:-0.91721101 3:-1.4758524 4:-1.7449068 5:-1.2745564 6:0.32804767 7:-0.88673787 8:-0.30025386 9:-0.27304374 10:0.032567898 11:0.60566616 12:-0.64846685 13:-1.4333405 14:-0.80344016 15:-0.0895381 16:-1.9376951 17:-0.5912637 18:0.43166565 19:1.1863371 20:0.8394511 21:0.0099058083 22:0.53727204 23:1.2755594 24:-0.19777712 25:0.80875061 26:0.028284082 27:1.8816234 28:-0.070637702 29:-0.65726454 30:-0.74037167 31:1.0440768 32:-0.7377483 33:-0.61319296 
-0.001 0.001 1:-0.49125266 2:-0.19666651 3:-0.55333943 4:-0.81415983 5:-1.6576028 6:0.46726098 7:-0.22236683 8:0.047302877 9:-0.41391633 10:-0.19754015 11:0.81969419 12:-0.74381542 13:-1.4850855 14:-0.86667643 15:-0.37186772 16:-1.9028968 17:-0.58535275 18:-0.4874658 19:0.77452459 20:0.74685936 21:-0.12172737 22:0.44211813 23:1.0321513 24:0.00018180508 25:0.63712184 26:-0.26520476 27:1.4027252 28:-0.039882987 29:-0.64580063 30:-0.75814735 31:0.5404786 32:-0.67318644 33:-0.60664473 
-0.001 0.001 1:-0.55844733 2:-0.13237989 3:-0.45990786 4:0.3609168 5:-0.73581427 6:1.007136 7:-0.062138355 8:-0.029835044 9:-0.78329157 10:-0.52331953 11:0.090113694 12:-1.6615626 13:-1.8056805 14:-1.5627904 15:-0.38217005 16:-1.959754 17:-1.306541 18:-0.46659374 19:0.82479436 20:-0.29308904 21:-1.1070438 22:-0.40677987 23:0.93233333 24:0.15240562 25:1.0976871 26:0.76458766 27:2.6664413 28:0.81161462 29:-0.34968906 30:-0.63159576 31:0.54416363 32:-0.7039255 33:-0.77673133 
-0.001 0.001 1:-0.48839511 2:-0.10827549 3:0.12748504 4:-0.081423395 5:-0.38561976 6:0.56601592 7:-0.19205957 8:-0.094862992 9:-0.6452506 10:-0.34166215 11:0.36046714 12:-1.3061229 13:-2.01556 14:-1.6586025 15:-0.30960966 16:-1.6670934 17:-1.1105859 18:-0.43865956 19:-0.20317865 20:-0.98840492 21:-1.4060244 22:-0.012254633 23:0.88849881 24:0.1378278 25:1.1094532 26:0.80293582 27:2.2847931 28:0.45964812 29:-0.32433229 30:-0.65461814 31:0.55378047 32:-0.55306083 33:-0.77306963 
-0.001 0.001 1:0.19740039 2:-0.8823869 3:-0.25872922 4:-0.013964891 5:0.1213833 6:0.57669156 7:0.11451862 8:0.10338595 9:-0.59068608 10:-0.43787899 11:0.20076786 12:-1.7211657 13:-2.1293179 14:-1.6009457 15:-0.28064324 16:-1.7310081 17:-1.3744157 18:0.060451613 19:-0.048402347 20:-0.93376814 21:-1.6632597 22:-0.010480547 23:0.97369422 24:0.10576419 25:1.0282753 26:0.55262242 27:2.0918545 28:0.17245935 29:-0.59747059 30:-0.5070319 31:0.61056199 32:-0.68147472 33:-1.1048976 
-0.001 0.001 1:0.082458859 2:-0.71899307 3:-0.23565688 4:-0.525423 5:0.45386971 6:0.75486363 7:0.12305839 8:0.24298464 9:-0.5460502 10:-0.42926697 11:-0.14241135 12:-1.7685774 13:-1.8109675 14:-1.6138593 15:-1.2406553 16:-2.1428664 17:-1.5496012 18:0.027993218 19:-0.058870414 20:-0.47031762 21:-1.3827071 22:-0.096276449 23:0.97028882 24:0.17125739 25:1.0409136 26:0.5414618 27:1.7469196 28:0.11106195 29:-0.11178667 30:-0.5284834 31:-0.97357622 32:-0.8908158 33:-1.1095362 
-0.001 0.001 1:0.0068244918 2:-0.68953057 3:0.073954163 4:-1.0313618 5:0.79254911 6:0.72494456 7:-0.010814815 8:0.095270214 9:-0.80437029 10:-0.77271933 11:-0.26188168 12:-1.9182245 13:-1.9096627 14:-1.7259436 15:-1.4625711 16:-1.6042514 17:-1.4511214 18:0.051537139 19:0.055355961 20:0.084660007 21:-1.166695 22:-0.13449724 23:0.78685595 24:-0.077507585 25:0.3191152 26:-0.11447817 27:1.6318815 28:-0.015356437 29:-0.088506271 30:-0.51636832 31:-1.0833806 32:-0.93695648 33:-1.1687367 
-0.001 0.001 1:-0.23555877 2:-0.4323841 3:0.28137681 4:-1.0628184 5:0.8740257 6:0.97896822 7:0.16943269 8:-0.019313029 9:-0.89274026 10:-0.65422375 11:0.062590702 12:-1.4004863 13:-2.4036445 14:-2.4428719 15:-1.3953981 16:-1.2754766 17:-1.4818916 18:-0.022533473 19:-0.1855859 20:0.089416274 21:-1.1184683 22:0.084937052 23:1.0032651 24:-0.12830597 25:0.35306126 26:-0.050709424 27:2.1009513 28:0.41535642 29:-0.18101626 30:0.61452275 31:-1.1565812 32:-1.0121973 33:-1.1740968 
-0.001 0.001 1:-0.25656621 2:-0.34666861 3:0.19852958 4:-0.89150262 5:1.0616541 6:1.4633152 7:0.43766901 8:-0.29064731 9:-1.104842 10:-0.77450944 11:0.16894738 12:-0.67852817 13:-1.9357044 14:-2.1056707 15:-0.86847828 16:-0.93985167 17:-1.3716676 18:-0.017251417 19:-0.2000393 20:0.040410645 21:-1.043457 22:0.18114385 23:0.46924026 24:0.11187012 25:-0.07753792 26:-0.39967022 27:1.9229613 28:0.11712362 29:-1.414438 30:0.092028673 31:-1.1180046 32:-1.0391523 33:-0.98019311 
-0.001 0.001 1:-0.54817998 2:-0.0038101805 3:0.43663921 4:-1.1807445 5:1.3426128 6:1.4536253 7:0.30032067 8:-0.37735532 9:-1.1784639 10:-0.72990469 11:0.49174457 12:-0.64791611 13:-1.622602 14:-1.6225653 15:-0.65977614 16:-1.0538663 17:-1.5355929 18:-0.3679284 19:-0.37710463 20:0.3786796 21:-0.9493338 22:0.17521697 23:0.39890497 24:0.16385015 25:-0.17938139 26:-0.42957326 27:0.92852851 28:0.099249734 29:-0.94376286 30:0.72295207 31:-1.1361996 32:-1.0182441 33:-1.1256737 
-0.001 0.001 1:-0.41045191 2:-0.0011311314 3:0.30505832 4:-0.79846761 5:1.5483848 6:1.5483428 7:0.48461597 8:-0.35975277 9:-0.80224296 10:-0.48375434 11:0.035987708 12:-1.3110338 13:-2.1179429 14:-1.8617673 15:-0.92411354 16:-0.76709211 17:-1.1708618 18:-0.41709562 19:-0.4077222 20:0.21159429 21:-0.96697165 22:0.069253856 23:0.26009859 24:0.16125152 25:0.6396026 26:0.87976161 27:-0.075482962 28:-0.96447415 29:-1.4311526 30:0.47895806 31:-1.0929741 32:-1.2290304 33:-0.97195639 
-0.001 0.001 1:-0.23699599 2:-0.15916686 3:0.34716725 4:-0.53956403 5:2.1834087 6:1.883902 7:0.35928254 8:-0.42153071 9:-0.48854931 10:-0.5752915 11:-0.34421266 12:-0.98472436 13:-1.7617412 14:-1.6995628 15:-0.85037815 16:-0.52646793 17:-1.0974535 18:-0.51256463 19:-0.3700334 20:0.17456445 21:-1.6605481 22:-0.3151422 23:0.20580492 24:0.10834749 25:0.61477592 26:0.84351416 27:-0.18757658 28:-0.98859406 29:-1.8650943 30:0.43722645 31:-1.1446107 32:-1.2778492 33:-0.88914558 
-0.001 0.001 1:-0.081468365 2:-0.36006034 3:0.23317617 4:-0.9705409 5:2.3874872 6:1.8000279 7:0.43336646 8:-0.32625111 9:-0.21521825 10:-0.58814305 11:-0.70318636 12:-0.63106533 13:-1.0711287 14:-1.3483411 15:-0.85976926 16:-0.5358694 17:-1.2469655 18:-0.59765507 19:-0.38882325 20:-0.21902936 21:-1.6846622 22:-0.29513412 23:0.18675965 24:0.12928524 25:0.65212957 26:0.8371678 27:-0.021337435 28:-0.91076098 29:-0.45378559 30:1.0281377 31:-1.137181 32:-1.2670714 33:-0.84039582 
-0.001 0.001 1:-0.16854349 2:-0.041309827 3:0.58603834 4:-1.1398365 5:3.1494675 6:1.8659799 7:0.48978077 8:-0.2878167 9:-0.56027658 10:-0.704717 11:-0.66634845 12:-0.36231003 13:-1.0780547 14:-1.2205607 15:-0.70053119 16:-0.12092682 17:-0.80117178 18:-0.61676034 19:-0.51413063 20:-0.27173017 21:-1.3287042 22:-0.34168364 23:0.1901379 24:0.16928742 25:0.36985282 26:0.5065285 27:-0.006103792 28:-0.75553359 29:-0.45908435 30:1.0580056 31:-1.3534536 32:-1.7988089 33:-1.3927881 
-0.001 0.001 1:-0.22567342 2:0.02297679 3:0.60933912 4:-1.0231008 5:1.9989735 6:0.66726673 7:-0.182614 8:-0.32611986 9:-0.51700538 10:-0.73858185 11:-0.45852459 12:-0.35498246 13:-1.5370209 14:-1.2817292 15:-0.0793157 16:0.327683 17:-0.13168069 18:-0.60190407 19:-0.5140056 20:-0.28624252 21:-0.24774317 22:-0.43464018 23:0.29839068 24:0.14713902 25:0.66723479 26:0.27004503 27:0.73617009 28:-0.7497259 29:-0.33729744 30:1.1383076 31:-2.6038141 32:-1.9848737 33:-1.3216694 
-0.001 0.001 1:-0.38806846 2:0.21315759 3:0.029484698 4:-0.63227438 5:0.72186188 6:-0.082293404 7:-0.24477229 8:-0.29297386 9:-0.35896757 10:-0.45922923 11:-0.25855027 12:-0.028753396 13:-1.459638 14:-1.4695629 15:-0.85020585 16:0.47492098 17:0.24653842 18:-0.62291888 19:0.60771458 20:-0.36311422 21:0.89786525 22:-1.005992 23:0.28628855 24:0.12270732 25:0.89505674 26:0.10082713 27:0.85313977 28:-0.66719167 29:-0.23016776 30:1.1145759 31:-2.0401876 32:-1.9339177 33:-0.93700669 
-0.001 0.001 1:-0.67674026 2:0.56405317 3:0.13784095 4:0.48223389 5:0.7207007 6:0.33053306 7:0.66320647 8:0.51007136 9:-0.096111688 10:-0.4672039 11:-0.57002665 12:-0.57542223 13:-1.7521895 14:-1.7102303 15:-1.1506076 16:0.1992968 17:0.28586571 18:-0.5669373 19:0.64008719 20:0.43754535 21:0.89907278 22:-1.5154396 23:-1.4748199 24:-1.5391305 25:-0.72530615 26:0.11252968 27:0.68673801 28:-0.27091651 29:0.013583669 30:1.1458818 31:-1.7648359 32:-1.3099419 33:-1.0456517 
-0.001 0.001 1:-0.6312347 2:0.38190952 3:0.2128451 4:0.89275676 5:0.77513132 6:0.62075742 7:1.0960086 8:0.51969202 9:-0.26945154 10:-0.54875573 11:-0.58718949 12:-0.41576634 13:-1.5064503 14:-1.6248641 15:-1.2468638 16:0.21780665 17:-0.0052839174 18:-0.59450638 19:0.66477103 20:0.31221068 21:0.91582776 22:-1.1632121 23:-1.7285094 24:-1.5398675 25:-0.34121755 26:0.24744729 27:0.70582822 28:-0.38868564 29:0.035309432 30:1.1001367 31:-1.8069095 32:-1.3180379 33:-0.94733208 
-0.001 0.001 1:-0.34769974 2:0.02297679 3:-0.44483089 4:0.72093598 5:0.61783893 6:0.62222559 7:1.2928153 8:0.61408272 9:-0.20733826 10:-0.46363696 11:-1.1806556 12:-1.3099667 13:-1.4529753 14:-1.1713225 15:-0.83907845 16:0.17901216 17:-0.17093058 18:-0.46867199 19:0.95727117 20:0.33112579 21:0.87236854 22:-1.1622522 23:-1.4826422 24:-1.3761528 25:-0.31242667 26:0.068090184 27:0.67727212 28:0.65512044 29:-0.029310704 30:1.1966612 31:-1.7315959 32:-1.2939373 33:-0.92840681 
-0.001 0.001 1:-0.32341055 2:-0.11363007 3:-0.49295538 4:0.61440927 5:-0.071325278 6:0.15547559 7:1.0491422 8:0.40594168 9:-0.37894909 10:-0.356284 11:-0.72741048 12:-0.35665889 13:-1.1587612 14:-1.3686331 15:-1.0246572 16:0.41371656 17:-0.42962818 18:-0.4833474 19:0.92999087 20:0.31767749 21:0.93567952 22:-1.1675981 23:-1.5310847 24:-1.3082263 25:-0.047212206 26:-0.066789694 27:0.99030556 28:1.0536636 29:-0.30841169 30:1.235428 31:-1.7129686 32:-1.2870125 33:-0.65251882 
-0.001 0.001 1:-0.034460164 2:-0.52077864 3:-0.99415062 4:0.50326507 5:0.23213147 6:0.20904257 7:0.91879208 8:0.62482443 9:0.034340364 10:-0.022405058 11:-0.82359946 12:-0.67864694 13:-1.1547325 14:-1.4339317 15:-0.75758612 16:0.50067326 17:-0.59367956 18:-0.28307077 19:1.1237787 20:0.21404277 21:0.80755263 22:-1.2288219 23:-1.4727525 24:-1.1596038 25:0.83021253 26:-0.27170921 27:0.9422032 28:1.1063608 29:-0.30773878 30:1.2136684 31:-1.1621619 32:-1.1982534 33:-0.68126075 
-0.001 0.001 1:-0.034550914 2:-0.40291808 3:-1.2121576 4:0.07059272 5:0.36963531 6:0.16857371 7:0.67328784 8:0.35823214 9:0.1324063 10:0.098267636 11:-0.54369581 12:-0.27141204 13:-1.0072668 14:-1.3959742 15:-0.65783291 16:0.59457209 17:-0.59417676 18:-0.28301696 19:1.001641 20:-0.0044446307 21:0.78945761 22:-1.2095974 23:-1.5889945 24:-1.3789185 25:0.86296037 26:-0.3093606 27:1.2629084 28:1.1983259 29:-0.31366975 30:1.2255905 31:-0.97133062 32:-1.0391023 33:-0.68182967 
-0.001 0.001 1:0.046220293 2:-0.41363428 3:-1.2942434 4:-0.24188084 5:0.76893832 6:0.38064985 7:0.82958393 8:0.89025592 9:0.57656897 10:0.54105227 11:0.054212041 12:0.31287673 13:-0.8081688 14:-1.0496681 15:-0.83762058 16:0.26771193 17:-0.15162257 18:-0.31315308 19:0.94936508 20:-0.20694539 21:0.91968 22:-1.0573721 23:-1.6095372 24:-1.7428894 25:0.19502725 26:-1.6031487 27:-0.16622355 28:0.19216468 29:-0.61455623 30:0.76642003 31:-0.81990019 32:-0.65641037 33:-1.1290901 
-0.001 0.001 1:-0.29835526 2:-0.11630912 3:-0.90117593 4:-0.68624119 5:1.145066 6:0.88805747 7:0.63253341 8:0.7474399 9:0.78844011 10:0.58353786 11:-0.056010583 12:0.28478573 13:-0.29906604 14:-0.82854455 15:-1.0613211 16:-0.091581617 17:-0.31187706 18:-0.20983721 19:0.98006425 20:-0.16079494 21:0.92014527 22:-1.4496615 23:-1.4088625 24:-1.5579646 25:0.68585496 26:-1.5094561 27:-0.089163057 28:0.21352515 29:-0.42355401 30:0.85339362 31:-0.80176654 32:-0.5965522 33:-1.0936189 
-0.001 0.001 1:-0.9204721 2:0.67655563 3:-0.42609889 4:-0.79561776 5:0.66496374 6:0.77227185 7:0.53379041 8:1.0581915 9:1.0205213 10:0.56126329 11:-0.067589453 12:0.36565132 13:-0.55745418 14:-1.1357231 15:-1.7652381 16:-0.48196413 17:-0.37445752 18:-0.90383665 19:0.94334037 20:-0.24406272 21:1.1076644 22:-1.4221269 23:-1.5041764 24:-0.97495336 25:0.65006051 26:-1.5103766 27:-0.096992598 28:0.18836297 29:-0.62576165 30:0.5564048 31:-1.442336 32:-0.76726757 33:-1.0737176 
-0.001 0.001 1:-1.1174638 2:0.78905457 3:-0.38117254 4:-0.23203262 5:-0.15589836 6:0.87008296 7:0.64075746 8:0.83527672 9:0.88865325 10:0.64513132 11:0.24425774 12:0.53555332 13:-0.9156074 14:-1.1491737 15:-1.6729496 16:-0.35854407 17:-0.44405191 18:-0.87758033 19:0.9335542 20:-0.64747941 21:1.0695599 22:-1.3938933 23:-1.5436789 24:-0.93823014 25:0.93496031 26:-1.6642266 27:0.2145161 28:0.37208824 29:-1.0202259 30:0.54116319 31:-1.4665271 32:-0.85459136 33:-0.98224575 
-0.001 0.001 1:-1.1907091 2:1.0890588 3:-0.39465045 4:0.48504767 5:-1.1378751 6:0.39170302 7:0.44662684 8:0.45942677 9:0.90934194 10:0.77703232 11:-0.0022049977 12:0.64880767 13:-0.24593243 14:-0.65372546 15:-1.1505948 16:-0.33871654 17:-0.48975817 18:-0.83799891 19:0.92339446 20:-1.3660718 21:1.1551701 22:-1.3328642 23:-1.6848452 24:-0.71876647 25:0.90886295 26:-2.070038 27:0.5313365 28:0.40271529 29:-0.26975041 30:1.0298304 31:-0.76250353 32:-0.83379918 33:-0.94695757 
-0.001 0.001 1:-1.0702192 2:0.99530614 3:-0.47803069 4:1.356525 5:-2.0167965 6:-0.43204129 7:0.078815756 8:0.42442207 9:0.99875694 10:0.76975964 11:-0.23175211 12:0.88591661 13:0.50301339 14:0.1745078 15:-1.0528887 16:-0.42190068 17:-0.50321849 18:-0.79204259 19:0.97312569 20:-0.33431179 21:1.2801306 22:-0.88837871 23:-2.1258537 24:-0.70691961 25:0.71244241 26:-2.0705252 27:0.001606338 28:0.81354829 29:-0.071013597 30:-0.45744757 31:-0.82996452 32:-0.8477483 33:-0.94203764 
-0.001 -0.001 1:1.3003224 2:-0.89042404 3:-2.8183125 4:-0.59147462 5:0.4249852 6:-0.61682009 7:0.10860261 8:0.37632489 9:1.079059 10:0.6304841 11:0.23076568 12:0.50538249 13:1.3437594 14:0.71113543 15:1.8290082 16:-0.40319629 17:0.90574055 18:0.91051704 19:3.0693751 20:2.9739492 21:0.59497092 22:3.2503901 23:0.86188877 24:-0.9742337 25:0.39658519 26:2.0712109 27:-0.21963761 28:-1.0257747 29:0.094342716 30:-1.6913774 31:-0.70051401 32:-0.057398976 33:1.1830587 
-0.001 -0.001 1:0.24214408 2:0.15690812 3:-1.4587956 4:-0.49302849 5:0.082338406 6:-1.2963174 7:0.016165372 8:0.1733189 9:0.88433399 10:0.12868497 11:0.015210473 12:0.5282557 13:0.8563511 14:0.50246095 15:1.1730735 16:-0.80785232 17:0.22703211 18:-0.58133114 19:1.7681703 20:2.9607208 21:0.44242295 22:2.9470246 23:0.88155499 24:-0.92491563 25:0.32555687 26:2.4876884 27:-0.048387396 28:-1.0150266 29:0.046443488 30:-1.655168 31:-0.40161217 32:0.26205482 33:2.154719 
-0.001 -0.001 1:0.20839795 2:0.17565794 3:-1.4239967 4:1.4390985 5:0.054179633 6:-0.78375023 7:-0.077325733 8:-0.11619375 9:0.49595974 10:-0.10684488 11:-0.11053287 12:-0.042523533 13:0.82767851 14:0.32724778 15:0.66832582 16:-0.70777336 17:0.29996208 18:-0.57249383 19:1.791302 20:0.42238334 21:0.43546614 22:2.5303638 23:0.90141666 24:-1.2510373 25:0.0014306679 26:2.2153537 27:0.06593723 28:-0.54059965 29:0.070079638 30:-1.1928782 31:0.23902096 32:0.20770028 33:2.1815243 
-0.001 -0 1:0.1593595 2:0.17029985 3:-1.4094528 4:0.69250962 5:-1.2394789 6:-1.7287543 7:-0.55496497 8:-0.75774875 9:0.072532965 10:-0.2675267 11:-0.053666401 12:0.41815823 13:1.1830502 14:0.1717014 15:0.28474249 16:-0.021493338 17:0.89823885 18:-0.58807207 19:1.7877077 20:0.1467037 21:-0.20183171 22:1.7741934 23:0.84839543 24:-1.4040218 25:-1.5991257 26:1.4755286 27:0.15167395 28:-0.76518851 29:0.25568161 30:-1.269302 31:0.13714394 32:0.74694725 33:1.8583855 
-0.001 -0 1:1.5234352 2:-1.0189973 3:-2.1185276 4:1.5103087 5:-0.74916791 6:-1.9273024 7:-0.91415354 8:-0.88571638 9:0.25092326 10:-0.06369195 11:-0.11765758 12:0.72585062 13:1.7044716 14:0.29113387 15:0.58499284 16:0.37608463 17:0.69534451 18:1.4548757 19:2.0629948 20:-0.83697639 21:-0.11050881 22:1.5356304 23:0.86674238 24:-1.0939356 25:-1.9329253 26:0.99954814 27:0.37199081 28:-1.1086352 29:0.49856348 30:-1.2562102 31:0.13967871 32:0.39073097 33:2.1035258 
-0.001 -0 1:1.3654932 2:-0.90649482 3:-1.5673803 4:0.5367418 5:-0.5357515 6:-1.4319861 7:-0.97512079 8:-1.0038335 9:0.21006839 10:-0.12017589 11:-0.089003695 12:0.83360865 13:2.0911896 14:0.60871437 15:0.72381231 16:0.41038295 17:0.99375658 18:1.4496788 19:1.7470862 20:-0.085639891 21:-0.12221422 22:0.88714212 23:0.91661542 24:-1.1023735 25:-1.9907178 26:0.92333324 27:0.35532543 28:-1.0168679 29:0.91649526 30:-1.2288201 31:0.24331179 32:0.38924564 33:2.0179514 
-0.001 -0 1:1.4077297 2:-0.95471066 3:-1.0262844 4:0.19569758 5:-0.13988367 6:-1.5507291 7:-0.97026954 8:-1.1553199 9:0.034208699 10:-0.12830671 11:-0.53078871 12:1.3730661 13:2.5894278 14:0.696617 15:0.60419958 16:0.67487356 17:1.0701338 18:1.4725813 19:1.4714439 20:-0.41601365 21:-0.22869424 22:0.99329583 23:0.91618991 24:-1.2605609 25:-1.5904575 26:0.91951632 27:-0.061309019 28:-1.1698139 29:0.88950352 30:-1.1919882 31:0.096125457 32:0.70831096 33:2.049004 
-0.001 -0 1:1.9721636 2:-1.522574 3:-1.7088602 4:-0.028141999 5:-0.47962749 6:-1.6937072 7:-1.3528739 8:-1.07597 9:0.3912576 10:0.032650708 11:-0.55062209 12:0.60755576 13:2.1179277 14:0.86914948 15:1.1849149 16:0.63849761 17:0.37723509 18:1.8872812 19:1.8281053 20:-0.41013246 21:-0.4138774 22:0.87459816 23:0.709019 24:-1.3158622 25:-0.57994667 26:1.0913059 27:-0.031607407 28:-0.78228171 29:0.68595162 30:-0.89213438 31:0.78149072 32:0.6700646 33:1.180751 
-0.001 -0 1:1.8888493 2:-1.4020344 3:-1.6490853 4:-0.69987718 5:-0.86112565 6:-1.7781161 7:-1.7472863 8:-1.3039289 9:0.20231096 10:0.20114148 11:-0.23551018 12:1.0681652 13:1.7985697 14:0.15641511 15:0.92348127 16:0.51170109 17:0.13454472 18:1.9265336 19:1.8540843 20:-0.16193879 21:-0.33951394 22:0.83600219 23:0.48372713 24:-1.4771126 25:-0.25874587 26:0.52266928 27:0.093752263 28:-0.64511747 29:1.1420425 30:-0.32088204 31:0.60123082 32:0.75745733 33:1.2484443 
-0.001 -0 1:1.6225462 2:-1.0832839 3:-1.4769185 4:-0.93158091 5:-1.1676789 6:-1.7432157 7:-1.5910381 8:-1.3495137 9:0.015735942 10:-0.13513268 11:-0.33262783 12:1.2448714 13:1.6480791 14:0.1483135 15:1.3054522 16:0.89715808 17:-0.078032988 18:1.8957575 19:1.8389773 20:-0.32817463 21:-0.31725731 22:0.85007923 23:0.5203077 24:-1.5487734 25:-0.95663845 26:-0.10547616 27:0.17048273 28:-0.6419496 29:1.2943089 30:-0.31775679 31:0.4938134 32:0.60008045 33:1.2091791 
-0.001 -0 1:1.4231972 2:-0.89846119 3:-0.25157146 4:-0.56106418 5:0.19623145 6:-0.97369906 7:-1.3552603 8:-1.677684 9:-0.42653706 10:-0.49654884 11:-1.0049022 12:0.85483005 13:1.4396224 14:-0.23564883 15:0.71666285 16:0.97542956 17:-0.31146795 18:1.9080264 19:0.44829896 20:-0.49767473 21:-0.49113438 22:0.73207453 23:0.24623879 24:-1.4162417 25:-0.79978487 26:0.52943656 27:-0.42502266 28:-0.2571434 29:1.6527005 30:0.48264405 31:0.97533233 32:0.60708729 33:0.94757032 
-0.001 -0 1:1.4532816 2:-0.93863989 3:-0.73235949 4:0.14551856 5:0.059792034 6:-1.0767746 7:-1.1174205 8:-0.95286247 9:-0.11678713 10:-0.96643022 11:-1.7381226 12:-0.31935963 13:-0.029167285 14:-0.55797165 15:0.51677853 16:1.1261126 17:-0.28435988 18:1.9643249 19:0.62674227 20:-0.66436102 21:-0.44844141 22:0.26037772 23:-0.80889584 24:-1.2129425 25:-0.34073142 26:-0.57772813 27:-0.64132574 28:-0.46928219 29:1.0208994 30:0.47661232 31:1.0953196 32:0.55023919 33:0.78592028 
-0.001 -0 1:1.9858541 2:-1.5627527 3:-1.3434339 4:-0.46777664 5:-0.28106459 6:-0.95263092 7:-1.5427629 8:-1.5519302 9:-0.31027991 10:-0.97176323 11:-1.6284478 12:0.45134688 13:0.83450019 14:-0.33460993 15:1.0740032 16:1.9316094 17:0.26579822 18:1.9132939 19:0.69716961 20:-1.0016049 21:-0.0018151839 22:0.10599802 23:-0.9621202 24:-0.72193676 25:-0.092625353 26:-0.7757047 27:-0.86143558 28:-1.0744912 29:0.055953664 30:0.44932165 31:0.51095044 32:0.0094959451 33:0.76012458 
-4.051680721648914e-05 -0 1:1.807502 2:-1.5145369 3:-1.3568357 4:-0.94507261 5:-0.53265501 6:-1.1057918 7:-1.9936658 8:-1.5189174 9:-0.39847599 10:-1.3303608 11:-1.7425523 12:0.06989486 13:0.51492942 14:-0.07414534 15:1.1962528 16:1.8709315 17:0.21169011 18:1.8861116 19:0.69343782 20:-0.72419801 21:-0.10070705 22:0.0096297681 23:-1.3984 24:-0.68485221 25:-0.521278 26:-0.7077905 27:-0.80705604 28:-1.0494107 29:-0.15471064 30:0.87659712 31:0.49511496 32:-0.0099290794 33:0.78298934 
-0.001 -0 1:2.0545747 2:-1.8279328 3:-1.4223215 4:-0.93331247 5:0.15089679 6:-0.92894106 7:-1.9479426 8:-1.8168344 9:-0.40217418 10:-1.3435567 11:-1.8094285 12:-0.35397573 13:0.2555973 14:0.086250855 15:1.0956017 16:2.052077 17:0.69707629 18:1.7935805 19:0.64735502 20:-0.72484766 21:-0.42495205 22:-0.3845351 23:-1.5439873 24:-0.23211504 25:-0.51299849 26:-0.76630454 27:-0.83893525 28:-0.73378255 29:0.014975492 30:1.0832607 31:0.50013252 32:-0.058461547 33:0.37527877 
-0.0004952399975143162 -0.001 1:2.1142899 2:-1.8520407 3:-1.1507837 4:-1.1234949 5:0.9420035 6:-0.70817129 7:-2.2978119 8:-2.2746461 9:-0.55169273 10:-1.0346193 11:-1.6423776 12:-0.77213374 13:-0.017415368 14:0.1227811 15:1.0578019 16:1.5137857 17:0.2425996 18:1.7702729 19:0.71350593 20:-0.59119632 21:-0.61353898 22:-0.64420991 23:-1.3747535 24:-0.13846984 25:-0.45453271 26:-0.78796545 27:-0.60204362 28:-0.76607411 29:0.18395012 30:1.0875231 31:0.46459777 32:-0.13679963 33:-0.10658153 
-0 -0.001 1:2.0536841 2:-1.7502545 3:-0.85472666 4:-0.50457219 5:0.34123462 6:-1.138815 7:-2.1855124 8:-1.5077295 9:-0.087170933 10:-0.90036337 11:-1.7582574 12:-1.1765706 13:0.5677894 14:0.21318588 15:0.36343809 16:1.076688 17:-0.26751232 18:1.7917382 19:0.8635611 20:0.31989483 21:0.34632688 22:-0.8699495 23:-1.3612188 24:1.0232984 25:0.84592904 26:-0.25966966 27:-1.3632241 28:-1.1041965 29:0.25731712 30:1.3039915 31:-0.33021379 32:-0.86584301 33:-1.8125752 
-0 -0.0008586469905253701 1:2.1314436 2:-2.0422215 3:-1.118726 4:-1.1627435 5:0.40301942 6:-0.81250525 7:-2.2093288 8:-1.6520894 9:-0.045770359 10:-0.86620375 11:-1.9288955 12:-1.0152722 13:0.72686445 14:0.39366117 15:0.47535028 16:0.67942955 17:-0.88629668 18:1.7690341 19:0.75137889 20:-0.27509845 21:0.36201043 22:-0.44944675 23:-1.3621947 24:1.0408988 25:0.76359108 26:-0.25917913 27:-1.0344926 28:-1.3592781 29:0.1952121 30:1.0053057 31:-0.57581585 32:-0.1423514 33:-1.0280631 
-0 -0.001 1:2.0867316 2:-2.0207926 3:-1.0008515 4:-1.2575822 5:1.4384107 6:-0.098799751 7:-1.569275 8:-1.102751 9:-0.11782885 10:-1.1358646 11:-2.1930077 12:-1.3683591 13:0.77166429 14:0.67424643 15:0.72775606 16:0.30617306 17:-1.2801088 18:1.7771827 19:0.73132388 20:-0.20231976 21:0.38834834 22:-0.32026462 23:-0.58331758 24:1.1271651 25:0.87080512 26:-0.55431718 27:-1.4931028 28:-1.3838587 29:0.27158477 30:1.1898834 31:-0.59423575 32:-0.70765453 33:-1.2551357 
-0.001 -0.001 1:0.83540049 2:-1.0109601 3:-0.27631902 4:-1.350978 5:0.85796262 6:-0.14531954 7:-0.95869011 8:-0.46272705 9:-0.14825657 10:-1.1544156 11:-2.055056 12:-1.2626608 13:0.71564311 14:0.65389632 15:0.51019214 16:0.38877978 17:-0.70487046 18:0.059566164 19:0.21702064 20:-0.26341705 21:0.4812523 22:-0.33592329 23:-0.074313363 24:1.16864 25:0.8586141 26:-0.57388128 27:-1.8048419 28:-1.3500481 29:0.16124802 30:1.1846325 31:-0.63216682 32:-0.69964056 33:-1.1427412 
-0.001 -0.001 1:1.1595574 2:-1.5064997 3:-0.2527898 4:-0.65355808 5:0.7779859 6:0.11322396 7:-0.68352531 8:-0.34304546 9:-0.19310195 10:-1.1563476 11:-1.910434 12:-1.3000932 13:0.60272875 14:0.71896283 15:0.72310314 16:0.30780336 17:-0.78848799 18:0.20065798 19:0.21376302 20:-0.91741264 21:0.48628329 22:-0.31067021 23:-0.18149865 24:1.1543175 25:0.83298971 26:-0.57822387 27:-1.5032282 28:-1.410118 29:-0.098569898 30:1.2653585 31:-0.26919694 32:-0.68606898 33:-1.2265196 
-0.0006472556917820458 -0.001 1:0.70651098 2:-0.8529244 3:-0.13651434 4:-1.174684 5:0.4131798 6:0.12658424 7:-0.90666545 8:-0.30528424 9:-0.10735367 10:-1.2701182 11:-1.7410682 12:-2.0359104 13:-0.4984985 14:0.10262275 15:0.19642087 16:-0.63440049 17:-1.0668251 18:0.14610519 19:0.24116377 20:-0.67051296 21:0.59725469 22:-0.3348556 23:-0.0097532676 24:1.1572261 25:0.6298706 26:-0.62076889 27:-1.4619082 28:-1.3413167 29:1.0794078 30:2.0684834 31:-0.14938255 32:-0.60097502 33:-1.4119196 
-0 -0.001 1:-0.051713107 2:-0.10827549 3:0.5919016 4:-0.72404681 5:1.1119722 6:0.62499412 7:-0.64403812 8:-0.37406509 9:-0.48860066 10:-1.6006646 11:-1.7726461 12:-1.4574056 13:-0.39981335 14:-0.030716868 15:-0.33431972 16:-1.204575 17:-0.90646079 18:-0.77275122 19:-0.54690845 20:-0.3853255 21:1.0884104 22:0.34169238 23:0.036244748 24:1.2020429 25:-0.4299076 26:-0.90487123 27:-1.421774 28:-1.5310041 29:1.0974947 30:1.8770907 31:-1.0673757 32:-0.69694784 33:-1.3227283 
-0 -0.001 1:-0.03771237 2:0.020297741 3:0.50608467 4:-0.42492065 5:1.3937051 6:0.5942466 7:-0.42405085 8:-0.55179383 9:-0.61522285 10:-1.6573412 11:-2.0149198 12:-2.1428296 13:-0.20722064 14:0.43908313 15:-0.49346676 16:-0.6963767 17:-0.69855149 18:-0.78353188 19:-0.57124077 20:-0.71177946 21:0.96397023 22:0.35492747 23:0.0060209708 24:1.3904019 25:0.10837596 26:-0.90542747 27:-1.9721372 28:-1.8469206 29:0.87364847 30:1.2938587 31:-1.0866924 32:-0.43477402 33:-1.3514283 
-0.001 -0.001 1:-0.20740113 2:0.15958717 3:0.55938711 4:0.038667171 5:0.99735339 6:0.61139264 7:-0.22087748 8:-0.33887927 9:-0.42399817 10:-1.3774593 11:-1.6333844 12:-2.1656349 13:-0.25409271 14:0.47178186 15:-0.36909097 16:-0.62963214 17:-0.62242841 18:-0.71785595 19:-0.57861814 20:-0.21154028 21:1.3402297 22:0.35398746 23:0.18171738 24:1.6316377 25:0.88167606 26:0.028713462 27:-1.0571813 28:-1.8783364 29:0.92292736 30:1.2833542 31:-0.90663166 32:-0.3688669 33:-1.3507953 
-0.001 -0.001 1:-0.10806006 2:0.052442809 3:0.13837397 4:0.27448334 5:0.12409274 6:-0.10947539 7:-0.48012331 8:-0.37336485 9:-0.36450658 10:-1.0652284 11:-1.0491619 12:-1.5136163 13:0.42935252 14:1.3507267 15:0.59127282 16:-0.57507901 17:-0.46793044 18:-0.71426893 19:-0.43936948 20:-0.086528957 21:1.1031052 22:0.67613832 23:0.57516396 24:1.688137 25:0.64180076 26:-0.37407073 27:-0.57625258 28:-1.7082709 29:0.77367401 30:0.88384044 31:-0.69766086 32:-0.32391901 33:-1.1226514 
-0.001 -0 1:-0.31246997 2:0.44351708 3:0.72614761 4:0.7744699 5:0.46644923 6:0.019743925 7:-0.35454819 8:-0.46253653 9:-0.49714145 10:-1.1366766 11:-0.78860262 12:-0.59698814 13:0.67077861 14:1.0401832 15:0.08397048 16:-0.67501622 17:-0.22993402 18:-0.82766611 19:-0.78335982 20:-0.245644 21:0.89728966 22:0.43805831 23:0.58046344 24:1.5743304 25:0.19964952 26:-0.46326786 27:-0.53766653 28:0.48459827 29:1.0612872 30:1.0614647 31:0.17157925 32:-0.27188367 33:-1.1841562 
-0.001 -0 1:-0.50027062 2:0.56137412 3:0.87729811 4:1.020459 5:0.24442069 6:-0.066479191 7:-0.68008719 8:-0.43780733 9:-0.57020275 10:-1.066172 11:-0.75957955 12:-0.47844371 13:0.63254872 14:1.1445385 15:0.4965793 16:-0.6633335 17:-0.42478541 18:-0.73736667 19:-0.70823142 20:-0.047448473 21:1.0323362 22:0.55711127 23:0.75204323 24:1.5868509 25:0.34412237 26:-0.75084947 27:-0.60786417 28:0.36887529 29:1.1029129 30:0.80146143 31:-0.49649826 32:-0.27917977 33:-1.1683943 
-0.001 -0 1:-0.50105571 2:0.57744842 3:0.81980762 4:0.95862801 5:-0.13857733 6:0.084489913 7:-0.5754173 8:-0.54600864 9:-0.75435564 10:-1.1697753 11:-0.46955049 12:-0.18145499 13:1.143456 14:1.2974776 15:0.30163521 16:-1.3322637 17:-0.72338363 18:-0.7367159 19:-0.74419332 20:-0.085049348 21:0.88137528 22:0.68746194 23:0.83439855 24:1.4977746 25:0.37271629 26:-0.40767555 27:-0.82925754 28:0.3861381 29:0.84620211 30:0.82506274 31:-0.54140916 32:0.24535243 33:-0.77973036 
-0.001 -0 1:-0.7018483 2:0.77298379 3:1.2314548 4:1.0470816 5:0.091676281 6:0.14003891 7:-0.096484692 8:-0.30109077 9:-0.74773723 10:-1.0074587 11:-0.32617591 12:-0.36529731 13:0.7373021 14:1.0555335 15:0.17990561 16:-0.98646876 17:-0.56071293 18:-0.63431818 19:-0.93202173 20:-0.078258396 21:0.71218864 22:0.6798484 23:0.64692711 24:1.2695407 25:0.37755002 26:-0.052372945 27:-0.97429007 28:0.42782346 29:1.1407601 30:1.2021271 31:-0.54741223 32:0.7758289 33:-0.57803751 
-0.001 -0 1:-1.0053144 2:1.2122739 3:1.5364209 4:1.3953046 5:-0.18125094 6:0.028584364 7:-0.14304625 8:-0.33982344 9:-0.60263938 10:-1.0471211 11:-0.42953838 12:-0.91447045 13:0.2425332 14:0.77901446 15:-0.20140454 16:-1.1439628 17:-0.96718496 18:-0.92617525 19:-1.2853086 20:-0.035149332 21:0.53893392 22:0.53662162 23:0.65171829 24:1.3438305 25:-0.015812113 26:0.0042310115 27:-0.80534227 28:0.82632511 29:1.3481328 30:1.427227 31:-0.25202309 32:0.71032229 33:-0.79759772 
-0.0008871661058301816 -0 1:-1.2158108 2:1.4292417 3:1.5576657 4:1.9123902 5:-0.195669 6:0.16903513 7:0.025584812 8:-0.50624524 9:-0.95105515 10:-0.85182909 11:-0.19709303 12:-0.12693365 13:0.52039301 14:0.43327148 15:-0.56838558 16:-1.105709 17:-0.71743208 18:-0.95447059 19:-1.2924549 20:-0.50018764 21:0.53820604 22:0.57459955 23:0.57756634 24:1.3384532 25:-0.13486937 26:-0.50404982 27:-0.94766615 28:1.4467669 29:1.4956851 30:1.094311 31:-0.11775366 32:0.742914 33:-0.65815668 
-0.001 -0 1:-1.3972126 2:1.7104925 3:1.5933022 4:1.5890945 5:-0.42829337 6:0.4616505 7:0.74802063 8:0.045841466 9:-0.72396767 10:-0.78468612 11:-0.22434495 12:-0.22164856 13:0.85276294 14:0.40269194 15:-0.81713226 16:-1.4412021 17:-1.0768995 18:-0.98912028 19:-1.2772585 20:-0.12206855 21:0.52007505 22:0.22623478 23:-0.051226132 24:0.89363196 25:0.056388078 26:-0.21717148 27:-0.91238161 28:1.5769892 29:1.3458862 30:1.0462798 31:-0.0063608648 32:0.70529067 33:-0.62296275 
-0 -0.001 1:-1.5846882 2:1.6140644 3:1.6188874 4:2.4174993 5:-1.475103 6:0.28091964 7:0.83299592 8:0.211635 9:-0.78188426 10:-0.9119335 11:-0.06326215 12:0.53166529 13:0.93320377 14:-0.10972069 15:-1.2962324 16:-1.5282258 17:-0.6740545 18:-0.98249071 19:-1.2644199 20:-0.29487367 21:0.39827902 22:0.46640205 23:-0.36153494 24:0.63897905 25:0.35242164 26:-0.24726905 27:0.48150538 28:1.8091092 29:1.0074252 30:0.95393383 31:-0.19521237 32:0.75268944 33:-0.60095852 
-0.001 -0.001 1:-1.3207699 2:1.2953104 3:1.4574571 4:2.3732364 5:-0.45398462 6:0.81836168 7:0.84140069 8:0.11958683 9:-0.59825057 10:-0.91001091 11:-0.14089989 12:1.0799481 13:1.0530608 14:-0.25329015 15:-0.9758601 16:-1.252546 17:-0.40354279 18:-0.9346271 19:-1.2818655 20:-0.27593195 21:-0.15091323 22:-0.13381259 23:-0.35654661 24:0.56023534 25:0.84485203 26:-0.23511955 27:0.28731559 28:2.242981 29:1.2002697 30:0.77389441 31:0.39606948 32:0.9888713 33:-0.48107038 
-0.001 -0 1:-1.1819803 2:1.1694162 3:1.3583907 4:1.567919 5:-1.2817171 6:0.1449992 7:0.50319356 8:-0.26475944 9:-1.0120915 10:-0.78214266 11:-0.16502317 12:0.99343552 13:1.4168035 14:0.0036950142 15:-0.51389246 16:-0.85283876 17:0.18009074 18:-0.86995077 19:-1.2697169 20:-0.87546633 21:-0.55667097 22:0.014897901 23:-0.39609181 24:-0.11965941 25:-0.99837459 26:-0.55002923 27:0.28164145 28:2.255099 29:1.0471987 30:0.72542181 31:0.28805678 32:1.0449421 33:-0.097152206 
-0.001 -0 1:-1.1405289 2:1.1962031 3:1.3088956 4:1.7975665 5:-1.6836328 6:-0.36390804 7:0.64664298 8:0.16986872 9:-0.81918833 10:-0.6691419 11:0.10003526 12:1.5534502 13:1.3818613 14:0.41987049 15:-0.033284706 16:-0.34051377 17:0.94183776 18:-0.84741543 19:-1.2276371 20:-0.96645078 21:-0.59697885 22:-0.21183119 23:-0.45895192 24:0.047230567 25:-0.70648046 26:-0.34774585 27:-0.29950877 28:2.1227618 29:1.0553044 30:0.88314811 31:0.052108945 32:0.58997271 33:-0.82248848 
-0.001 -0 1:-0.88181074 2:1.3676341 3:1.1845486 4:1.6094763 5:-1.4963914 6:-0.35837097 7:0.52161874 8:0.05038447 9:-0.64665999 10:-0.38832064 11:0.60482586 12:1.8701647 13:0.020239441 14:-0.33638052 15:-0.67236985 16:-0.69014499 17:1.152224 18:-0.6263254 19:-1.2161224 20:-0.73469951 21:-0.98283447 22:-0.24794668 23:-0.6548052 24:-0.13251025 25:-0.57007634 26:0.0074389984 27:-0.54941684 28:2.0066884 29:1.1935965 30:0.96327702 31:0.4193387 32:0.68000637 33:-0.85687518 
-0.001 -0.001 1:-1.4841252 2:1.9221022 3:1.3706503 4:1.4548989 5:-1.4275428 6:-0.38988404 7:0.62306389 8:0.18361228 9:-0.98179257 10:-0.48036166 11:0.4085684 12:1.1498473 13:-0.57272681 14:-0.65297582 15:-1.2243843 16:-0.64733045 17:0.84579618 18:-0.91096061 19:-1.2297718 20:-0.6789845 21:-0.9675916 22:-0.27449783 23:-0.62315187 24:-0.047623615 25:0.40121339 26:0.0099768927 27:-0.50203575 28:2.4486296 29:0.90009046 30:0.69536728 31:-0.22027561 32:0.68012565 33:-0.51491973 
-0.001 -0 1:-1.3331519 2:1.6140644 3:1.2610757 4:1.7118545 5:-1.5090677 6:-0.40354844 7:0.78130004 8:0.10018604 9:-1.1421697 10:-0.492907 11:0.18204368 12:1.9505168 13:0.81496836 14:0.06568535 15:-0.70806699 16:-0.12983862 17:0.89400892 18:-0.9115402 19:-1.2260488 20:-1.0837437 21:-0.90789632 22:-0.25194358 23:-0.86838685 24:-0.025688214 25:0.75903468 26:0.03759967 27:-0.14961278 28:2.0942469 29:0.4753555 30:0.035458327 31:-0.17198229 32:0.19576177 33:-0.55631009 
-0 -0.001 1:-1.3025314 2:1.5417406 3:1.3076011 4:1.2326105 5:-2.211005 6:-0.8027944 7:0.77147996 8:0.31466244 9:-1.1717884 10:-0.22822015 11:0.65082419 12:1.5453688 13:0.55550482 14:-0.47898604 15:-1.1791562 16:-0.13147852 17:0.75484588 18:-0.91196265 19:-1.207006 20:-1.1325903 21:-1.9446426 22:-1.0820816 23:-0.87353635 24:-0.12173171 25:0.78067971 26:-0.35004238 27:0.0090860463 28:2.2814168 29:0.61639746 30:0.39756381 31:0.096665828 32:0.19792412 33:-0.54445361 
-0 -0.00014135300947463 1:-1.129086 2:1.4935283 3:1.6471377 4:0.78940456 5:-1.5183088 6:-1.2184523 7:0.2920509 8:0.16669116 9:-1.3408607 10:-0.9064629 11:-0.0810029 12:2.1875616 13:0.68657902 14:-1.2196055 15:-2.2929357 16:-1.2651994 17:0.11004428 18:-0.82947064 19:-1.5804496 20:-1.7610004 21:-2.1343876 22:-0.73690324 23:-1.2042056 24:-0.82174455 25:-0.65079977 26:-0.07185182 27:-0.55554822 28:2.1082307 29:0.73829855 30:-0.26015893 31:-0.92766462 32:-0.0082639105 33:0.07593737 
-0 -0.001 1:-1.2985912 2:1.678351 3:1.6350304 4:1.101337 5:-1.2697665 6:-0.92113882 7:0.23533829 8:-0.13981036 9:-1.5932439 10:-0.98431421 11:-0.036623376 12:0.93287599 13:0.092223407 14:-1.0052624 15:-2.2465723 16:-1.1690487 17:0.39265866 18:-0.79885863 19:-1.5906905 20:-1.3078752 21:-2.065331 22:-0.91238878 23:-1.2076612 24:-0.81066568 25:-0.74982323 26:0.0006066564 27:-0.48375202 28:1.1341454 29:0.54192937 30:-0.28943268 31:-1.0407685 32:-0.043170811 33:0.41760811 
-0 -0.001 1:-1.2592059 2:1.5792403 3:1.592693 4:1.1988091 5:-0.48770741 6:-0.73258475 7:0.26070938 8:-0.4573001 9:-1.6908515 10:-0.79362595 11:0.34011439 12:1.1410923 13:0.25293678 14:-0.83734756 15:-2.261871 16:-1.0407531 17:0.25310409 18:-0.82465812 19:-1.6297357 20:-1.1423002 21:-1.965719 22:-1.1233084 23:-1.26009 24:-0.61698737 25:-0.46891992 26:-0.13877846 27:-0.5965579 28:1.0090545 29:0.42949987 30:-0.46773024 31:-1.039974 32:-0.064328851 33:0.59012285 
-0 -0.001 1:-1.3065961 2:1.5979936 3:1.6013737 4:1.2066733 5:-0.97516384 6:-0.9050939 7:0.23857609 8:-0.47530017 9:-1.8551989 10:-0.77356779 11:0.22634405 12:1.1747048 13:0.0583233 14:-0.84391901 15:-1.9832838 16:-0.40435749 17:0.52295654 18:-0.78778275 19:-1.6251637 20:-1.1378443 21:-1.6384195 22:-1.349944 23:-1.2848912 24:-0.6283409 25:0.00098471124 26:-0.23308976 27:-0.57787453 28:1.0215528 29:0.32601335 30:-0.47888469 31:-0.72278544 32:-0.69797721 33:0.21211441 
-0 -0.001 1:-1.0456915 2:1.3837049 3:1.3556494 4:1.0571463 5:-0.76092493 6:-0.99944435 7:0.068331566 8:-0.45670406 9:-1.8066627 10:-0.69530019 11:0.56281437 12:1.6948298 13:0.50957082 14:-0.47486585 15:-1.9719386 16:-0.93894294 17:0.29884333 18:-0.84592256 19:-1.5724691 20:-1.1269633 21:-1.7060642 22:-1.354082 23:-1.3465019 24:-0.63123453 25:0.12467281 26:0.14215753 27:-0.012549002 28:1.0635364 29:0.10913579 30:-0.71887489 31:-0.71891581 32:-1.466641 33:0.087172627 
-0 -0.001 1:-1.0980307 2:1.5470987 3:1.5936829 4:0.7840656 5:-1.1945313 6:-1.8116007 7:-0.021113926 8:-0.21453165 9:-1.7991566 10:-0.50823891 11:0.73638628 12:1.4110479 13:0.44646025 14:-0.26010355 15:-1.1667845 16:-1.0947631 17:0.02013461 18:-0.83018849 19:-1.5287828 20:-0.99223133 21:-1.4508303 22:-1.465799 23:-1.3134244 24:-0.95893355 25:0.26093465 26:0.053262271 27:0.35630412 28:0.13008524 29:-0.26028252 30:-0.87363463 31:-0.61741676 32:-1.5798039 33:0.13831155 
-0.0009298213976569674 -0.001 1:-0.55055213 2:0.8774491 3:1.2073925 4:1.182648 5:0.27712745 6:-1.2467669 7:0.031006543 8:0.19761129 9:-1.5594517 10:-0.3233832 11:0.99611121 12:1.1361498 13:0.12078126 14:-0.45154651 15:-0.38571414 16:-1.0620865 17:-0.20362042 18:-0.6179808 19:-1.5108112 20:-1.1450733 21:0.24177808 22:-0.9845721 23:-1.4798323 24:-1.0694995 25:0.26237989 26:0.07726785 27:-0.022167313 28:0.17793493 29:0.23572616 30:-1.2490257 31:-0.47208463 32:-1.6036959 33:0.00079042235 
-0.001 -0.001 1:0.038909689 2:0.38994666 3:0.22274412 4:0.36506532 5:-0.021007195 6:-1.5456639 7:0.29771215 8:0.37233206 9:-1.3843079 10:-0.30503646 11:0.57308507 12:0.98100657 13:-0.16910132 14:-0.15298341 15:0.41829135 16:-0.31159328 17:0.055155663 18:-0.18636896 19:0.050877689 20:-0.64319546 21:0.56774865 22:-1.2402172 23:-1.2598366 24:-0.94209576 25:0.90899008 26:0.094605031 27:-0.98923329 28:0.018006402 29:-0.11915968 30:-0.95168991 31:0.5806319 32:-0.32484589 33:0.14626702 
-0.001 -0.001 1:-0.16275874 2:0.60958996 3:0.31008398 4:0.031163766 5:-0.26253399 6:-1.5843185 7:-0.19127788 8:0.35853981 9:-1.0983971 10:-0.094477552 11:0.79366802 12:0.88190586 13:-0.55100801 14:-0.48592251 15:-0.17821941 16:-0.7148641 17:-0.42374207 18:-0.17995296 19:0.064823766 20:-0.389133 21:0.51036262 22:-1.2774725 23:-0.92351966 24:-0.94984733 25:2.9691921 26:1.6286278 27:-0.26695569 28:-0.17364502 29:-0.70312334 30:-0.79721921 31:0.053327552 32:-0.54561189 33:0.31829968 
-0.001 -0.001 1:-0.37523902 2:0.81316249 3:0.39102755 4:-0.36806792 5:-0.13117477 6:-1.335832 7:-0.17069055 8:0.23486491 9:-0.92577435 10:-0.096940171 11:0.48576213 12:0.30618125 13:-1.240123 14:-0.86951996 15:-0.98892319 16:-1.4013239 17:-0.94992104 18:-0.17592312 19:0.072401238 20:0.07653191 21:0.45871386 22:-1.5366866 23:-0.93662448 24:-0.91216379 25:3.2273542 26:1.6322034 27:0.44691691 28:0.62489512 29:-0.12494106 30:-0.58415278 31:0.89812774 32:-0.17720177 33:-0.19917002 
-0.001 -0.001 1:-0.38087604 2:0.76227112 3:0.59654653 4:-0.19440737 5:0.113255 6:-1.2927204 7:-0.38693486 8:-0.15748701 9:-1.0679959 10:-0.11087233 11:0.25837271 12:-0.28245411 13:-1.5492182 14:-1.480615 15:-1.5384464 16:-1.6584917 17:-1.1620566 18:-0.17768206 19:0.064453904 20:0.20562147 21:0.39874128 22:-1.5640713 23:-0.84201366 24:-1.1589951 25:3.0092597 26:1.6064276 27:0.91054541 28:0.68749413 29:0.013755466 30:-0.72515376 31:1.1075419 32:-0.11948114 33:-0.51121067 
