svm_type c_svc
kernel_type linear
nr_class 2
total_sv 57
rho 0.59437
label 0 1
probA -9.43245
probB -5.22664
nr_sv 28 29
SV
0.001 1:0.1090014 2:-0.79328136 3:-0.35935659 4:-1.8138387 5:-0.24350674 6:0.74524224 7:-1.1714368 8:-1.1791835 9:-0.82333711 10:-0.40110749 11:0.93379318 12:-0.87475118 13:-0.8950832 14:-0.59079198 15:0.16332943 16:-1.9164874 17:-0.53934428 18:1.0896996 19:0.5604375 20:-0.058448687 21:-0.59854783 22:0.45415064 23:2.0648345 24:0.72037975 25:-0.20876224 26:-0.27693703 27:0.6154516 28:-0.56231216 29:0.14870952 30:-1.4375564 31:0.22405272 32:-0.6218353 33:-0.86945727 
0.001 1:-0.99440357 2:0.38103817 3:0.58056282 4:-0.88566359 5:-0.46532631 6:0.83472874 7:-0.41997114 8:-0.71902212 9:-0.99457917 10:-0.85854767 11:1.3452374 12:-0.99208265 13:-0.94215047 14:-0.64245108 15:-0.045435126 16:-1.8797255 17:-0.53075077 18:-0.93824198 19:0.0040313284 20:-0.14672874 21:-0.70106409 22:0.33873871 23:1.7872357 24:1.0179927 25:-0.42314481 26:-0.56796819 27:0.27607497 28:-0.51381478 29:0.15783242 30:-1.4607032 31:-0.1046135 32:-0.55379981 33:-0.86478945 
0.001 1:-1.0829183 2:0.48581037 3:0.6757573 4:0.28616602 5:0.068475184 6:1.1817611 7:-0.23873777 8:-0.8211519 9:-1.4435848 10:-1.5061764 11:-0.05729704 12:-2.1214192 13:-1.2337642 14:-1.211122 15:-0.053053036 16:-1.9397909 17:-1.5792356 18:-0.89219054 19:0.071951579 20:-1.1382502 21:-1.4684311 22:-0.69088739 23:1.6733966 24:1.2468471 25:0.1521501 26:0.45320073 27:1.1716218 28:0.82891925 29:0.39347611 30:-1.2959124 31:-0.10220851 32:-0.58619272 33:-0.98603342 
0.001 1:-0.99063935 2:0.52509492 3:1.2742334 4:-0.15495189 5:0.27127044 6:0.89820853 7:-0.3856908 8:-0.90724821 9:-1.2757848 10:-1.1450531 11:0.4624263 12:-1.6840317 13:-1.4246708 14:-1.2893929 15:0.0006006936 16:-1.6306168 17:-1.2943503 18:-0.83055749 19:-1.3169585 20:-1.8011876 21:-1.701278 22:-0.21236879 23:1.6234048 24:1.2249307 25:0.16684726 26:0.49122776 27:0.90116246 28:0.27390019 29:0.41365486 30:-1.3258913 31:-0.095932219 32:-0.42721105 33:-0.98342322 
0.001 1:-0.087249438 2:-0.73652617 3:0.88073188 4:-0.087679785 5:0.56487247 6:0.90507085 7:-0.038922235 8:-0.64476873 9:-1.2094572 10:-1.336326 11:0.15542284 12:-2.1947639 13:-1.5281451 14:-1.2422918 15:0.022019499 16:-1.698138 17:-1.6779139 18:0.2706651 19:-1.1078379 20:-1.749095 21:-1.9016135 22:-0.21021701 23:1.7205673 24:1.176726 25:0.065447374 26:0.24301048 27:0.76443428 28:-0.1789703 29:0.19629316 30:-1.13371 31:-0.058874565 32:-0.56253402 33:-1.2199623 
0.001 1:-0.23866049 2:-0.47023232 3:0.90423957 4:-0.59772462 5:0.75741309 6:1.0196001 7:-0.029262958 8:-0.45994153 9:-1.1551986 10:-1.3192059 11:-0.50429965 12:-2.2531065 13:-1.2385732 14:-1.2528413 15:-0.68784758 16:-2.1332354 17:-1.9326038 18:0.19904995 19:-1.1219814 20:-1.3072259 21:-1.6831184 22:-0.31427863 23:1.7166836 24:1.275189 25:0.081233946 26:0.23194332 27:0.51999225 28:-0.27578838 29:0.5827973 30:-1.1616434 31:-1.09274 32:-0.78313833 33:-1.223269 
0.001 1:-0.33829271 2:-0.42221532 3:1.2196925 4:-1.1022654 5:0.95354003 6:1.0003681 7:-0.18068605 8:-0.65551387 9:-1.4692077 10:-2.0019674 11:-0.73396758 12:-2.4372552 13:-1.3283465 14:-1.3444054 15:-0.85193999 16:-1.564229 17:-1.7894309 18:0.25099649 19:-0.96764844 20:-0.77809168 21:-1.5148876 22:-0.36063653 23:1.5074845 24:0.90119387 25:-0.82036889 26:-0.41850379 27:0.43846919 28:-0.47513865 29:0.6013237 30:-1.1458675 31:-1.1644022 32:-0.83176153 33:-1.2654692 
0.001 1:-0.65758118 2:-0.0031265411 3:1.4310289 4:-1.133635 5:1.0007226 6:1.1636548 7:0.023190714 8:-0.80722087 9:-1.5766285 10:-1.7664057 11:-0.11020682 12:-1.8001509 13:-1.777673 14:-1.93008 15:-0.8022699 16:-1.216903 17:-1.8341655 18:0.087569514 19:-1.2931887 20:-0.77355689 21:-1.4773285 22:-0.094485259 23:1.754292 24:0.8248232 25:-0.77796665 26:-0.35526905 27:0.77088087 28:0.20405622 29:0.52770484 30:0.32673677 31:-1.2121756 32:-0.91105055 33:-1.2692901 
0.001 1:-0.68525402 2:0.13656972 3:1.3466185 4:-0.96279267 5:1.1093769 6:1.4749936 7:0.32659104 8:-1.1664646 9:-1.8344554 10:-2.005526 11:0.094251633 12:-0.91174322 13:-1.352034 14:-1.6546129 15:-0.41264663 16:-0.86234032 17:-1.6739186 18:0.099223671 19:-1.3127169 20:-0.8202805 21:-1.4189095 22:0.022203713 23:1.1452545 24:1.1859057 25:-1.3158308 26:-0.70130764 27:0.64474619 28:-0.26622968 29:-0.45384429 30:-0.35363559 31:-1.1869991 32:-0.93945576 33:-1.1310684 
0.001 1:-1.0693932 2:0.69534902 3:1.5892209 4:-1.2512353 5:1.2720782 6:1.468765 7:0.17123725 8:-1.2812651 9:-1.9239488 10:-1.9168546 11:0.71479204 12:-0.87407347 13:-1.0672357 14:-1.2599533 15:-0.25832485 16:-0.98278828 17:-1.9122381 18:-0.67449856 19:-1.5519526 20:-0.4977636 21:-1.3456061 22:0.015015015 23:1.0650394 24:1.2640529 25:-1.4430441 26:-0.73096027 27:-0.059969931 28:-0.29441517 29:-0.079284006 30:0.4679294 31:-1.1988738 32:-0.91742266 33:-1.2347723 
0.001 1:-0.88796574 2:0.69971524 3:1.4551573 4:-0.87001474 5:1.3912393 6:1.5296495 7:0.37969244 8:-1.2579595 9:-1.4666217 10:-1.4275233 11:-0.16134801 12:-1.6900749 13:-1.5177984 14:-1.4553628 15:-0.45378532 16:-0.67983275 17:-1.3819812 18:-0.78297951 19:-1.5933204 20:-0.6570683 21:-1.3593425 22:-0.11350737 23:0.9067354 24:1.2601461 25:-0.42004608 26:0.56741021 27:-0.77147411 28:-1.9718107 29:-0.46714563 30:0.15020948 31:-1.1706633 32:-1.1395499 33:-1.125197 
0.001 1:-0.65947441 2:0.44215385 3:1.4980607 4:-0.61182657 5:1.7589773 6:1.7453473 7:0.23792863 8:-1.3397528 9:-1.0853016 10:-1.6094934 11:-0.89223941 12:-1.2885338 13:-1.1937969 14:-1.3228544 15:-0.39926275 16:-0.42563128 17:-1.275258 18:-0.99361922 19:-1.5423985 20:-0.69237379 21:-1.8995017 22:-0.57974032 23:0.84481528 24:1.1806098 25:-0.45105724 26:0.53146629 27:-0.85091053 28:-2.0098456 29:-0.81247366 30:0.09586812 31:-1.2043632 32:-1.1909954 33:-1.0661664 
0.001 1:-0.45459979 2:0.11474433 3:1.3819188 4:-1.0416126 5:1.8771578 6:1.691433 7:0.32172446 8:-1.2136036 9:-0.75304552 10:-1.6350415 11:-1.582325 12:-0.85333769 13:-0.56561487 14:-1.0359336 15:-0.40620687 16:-0.43556323 17:-1.492623 18:-1.18136 19:-1.5677858 20:-1.0676392 21:-1.9182818 22:-0.55547257 23:0.82309479 24:1.2120877 25:-0.40439856 26:0.52517307 27:-0.73310327 28:-1.8871099 29:0.31063676 30:0.86533072 31:-1.1995143 32:-1.1796377 33:-1.0314158 
0.001 1:-0.56930278 2:0.63423334 3:1.7414389 4:-1.2104403 5:2.3184154 6:1.733827 7:0.38553431 8:-1.1627169 9:-1.1724919 10:-1.8667831 11:-1.5115083 12:-0.52262006 13:-0.57191475 14:-0.93154691 15:-0.28846058 16:0.002792595 17:-0.84451487 18:-1.2235132 19:-1.7370905 20:-1.117886 21:-1.6410608 22:-0.61193235 23:0.82694757 24:1.2722273 25:-0.75699222 26:0.19730256 27:-0.72230777 28:-1.6423305 29:0.30642004 30:0.9042236 31:-1.3406615 32:-1.7399843 33:-1.4251813 
0.001 1:-0.64455933 2:0.73900553 3:1.7651794 4:-1.0940272 5:1.6521722 6:0.96329268 7:-0.37500698 8:-1.2134299 9:-1.1198923 10:-1.9341042 11:-1.1119909 12:-0.5136031 13:-0.98939105 14:-0.98151688 15:0.17088824 16:0.47671535 17:0.12881112 18:-1.1907348 19:-1.7369216 20:-1.1317225 21:-0.79920553 22:-0.7246791 23:0.95040625 24:1.2389293 25:-0.38553054 26:-0.0372006 27:-0.19628692 28:-1.6331723 29:0.40333728 30:1.0087899 31:-2.1566917 32:-1.9360601 33:-1.3744853 
0.001 1:-0.8584803 2:1.0489559 3:1.174384 4:-0.70428074 5:0.91260554 6:0.48147449 7:-0.44531381 8:-1.1695449 9:-0.9277845 10:-1.378769 11:-0.72756334 12:-0.11216097 13:-0.91900347 14:-1.1349623 15:-0.39913535 16:0.63226128 17:0.67867727 18:-1.2371012 19:-0.22134824 20:-1.2050146 21:0.092997305 22:-1.4176702 23:0.93660417 24:1.2021985 25:-0.10095672 26:-0.20500146 27:-0.11339502 28:-1.5030233 29:0.48859039 30:0.9778874 31:-1.7888488 32:-1.8823625 33:-1.1002836 
0.001 1:-1.2387441 2:1.6208339 3:1.2847847 4:0.40714788 5:0.9119331 6:0.74683986 7:0.58169498 8:-0.10632156 9:-0.60826183 10:-1.3946221 11:-1.3263408 12:-0.78486591 13:-1.1851086 14:-1.3315688 15:-0.62126311 16:0.34108492 17:0.73585245 18:-1.1135853 19:-0.17760911 20:-0.44163903 21:0.093937736 22:-2.0355779 23:-1.0718811 24:-1.2962209 25:-2.1249621 26:-0.19339691 27:-0.23131752 28:-0.87813356 29:0.68256621 30:1.0186528 31:-1.6091444 32:-1.2248148 33:-1.1777297 
0.001 1:-1.1788002 2:1.3239822 3:1.3612041 4:0.81653638 5:0.9434535 6:0.93339644 7:1.0712347 8:-0.09358391 9:-0.81897049 10:-1.556742 11:-1.3593344 12:-0.58840088 13:-0.96158396 14:-1.2618313 15:-0.69243836 16:0.3606392 17:0.31257049 18:-1.1744128 19:-0.14425839 20:-0.56113728 21:0.10698656 22:-1.6083621 23:-1.3612054 24:-1.2973289 25:-1.6451947 26:-0.0596091 27:-0.21778903 28:-1.0638447 29:0.69985544 30:0.95908516 31:-1.6366031 32:-1.2333464 33:-1.1076439 
0.001 1:-0.80530308 2:0.73900553 3:0.69111876 4:0.64519039 5:0.85236655 6:0.93434018 7:1.2938414 8:0.031388379 9:-0.74346676 10:-1.3875312 11:-2.5002047 12:-1.6887618 13:-0.91294299 14:-0.89132316 15:-0.39090735 16:0.31965572 17:0.071748466 18:-0.89677594 19:0.25094303 20:-0.54310298 21:0.0731404 22:-1.6071978 23:-1.0808022 24:-1.0511991 25:-1.6092318 26:-0.23746427 27:-0.23802564 28:0.58214221 29:0.64843115 30:1.0847759 31:-1.5874507 32:-1.2079491 33:-1.0941533 
0.001 1:-0.77330723 2:0.51636821 3:0.64208623 4:0.53895803 5:0.45327624 6:0.6343127 7:1.0182244 8:-0.24418815 9:-0.95207365 10:-1.1741204 11:-1.6288931 12:-0.51566604 13:-0.64532546 14:-1.0525105 15:-0.52813087 16:0.56760338 17:-0.30435377 18:-0.92915529 19:0.2140842 20:-0.55592504 21:0.12244716 22:-1.6136818 23:-1.1360492 24:-0.94907785 25:-1.2779507 26:-0.37121466 27:-0.01619092 28:1.2106084 29:0.42632437 30:1.1352565 31:-1.5752939 32:-1.2006517 33:-0.89749019 
0.001 1:-0.39267647 2:-0.14718903 3:0.13143418 4:0.42812095 5:0.62900598 6:0.66874562 7:0.87078618 8:0.045610287 9:-0.44968677 10:-0.51039024 11:-1.8138053 12:-0.91188938 13:-0.64166096 14:-1.1058544 15:-0.33064903 16:0.65946664 17:-0.54285653 18:-0.48727146 19:0.47591397 20:-0.65473384 21:0.022661604 22:-1.6879399 23:-1.0695232 24:-0.72563763 25:-0.18195403 26:-0.57441818 27:-0.050279203 28:1.2937071 29:0.42685988 30:1.1069219 31:-1.2158177 32:-1.1071171 33:-0.91797849 
0.001 1:-0.39279602 2:0.0448962 3:-0.090686272 4:-0.0033558268 5:0.70863352 6:0.64273218 7:0.59309795 8:-0.30735507 9:-0.33047967 10:-0.27050059 11:-1.2757228 12:-0.41076527 13:-0.50752597 14:-1.0748461 15:-0.25688795 16:0.75866374 17:-0.54357937 18:-0.48715274 19:0.31089185 20:-0.86304701 21:0.008569155 22:-1.6646227 23:-1.2020934 24:-1.0553569 25:-0.14104849 26:-0.61175428 27:0.17699217 28:1.4387277 29:0.42214004 30:1.1224465 31:-1.0912744 32:-0.9394031 33:-0.91838403 
0.001 1:-0.28639711 2:0.027431299 3:-0.17432087 4:-0.31496595 5:0.93986718 6:0.77905499 7:0.76988343 8:0.39703875 9:0.20943612 10:0.60972715 11:-0.12631383 12:0.30823299 13:-0.32642618 14:-0.79194097 15:-0.38982935 16:0.4133604 17:0.099819022 18:-0.55364409 19:0.24026099 20:-1.056118 21:0.10998669 22:-1.4799889 23:-1.2255216 24:-1.6025535 25:-0.97536792 26:-1.8947082 27:-0.83577847 28:-0.14789678 29:0.18269651 30:0.52453176 31:-0.99244546 32:-0.53612113 33:-1.2372077 
0.001 1:-0.74030222 2:0.51200198 3:0.22616316 4:-0.75809842 5:1.1576802 6:1.1052172 7:0.54700089 8:0.20795187 9:0.46698269 10:0.69418581 11:-0.33820413 12:0.27366552 13:0.13665437 14:-0.61130031 15:-0.55524144 16:0.033793613 17:-0.1331637 18:-0.32569134 19:0.28173911 20:-1.0121166 21:0.11034904 22:-1.9557958 23:-0.99665888 24:-1.3245363 25:-0.36227196 26:-1.8018001 27:-0.78116867 28:-0.11421328 29:0.33469486 30:0.63778553 31:-0.98061079 32:-0.47304239 33:-1.2119225 
0.001 1:-1.559809 2:1.8041866 3:0.7102042 4:-0.86717276 5:0.87965621 6:1.0307901 7:0.43531333 8:0.61938364 9:0.74909624 10:0.64990539 11:-0.36046317 12:0.37317492 13:-0.098375829 14:-0.86224127 15:-1.0757427 16:-0.37861634 17:-0.22414503 18:-1.856909 19:0.23212091 20:-1.0915069 21:0.2563894 22:-1.9223991 23:-1.1053612 24:-0.4480328 25:-0.40698303 26:-1.802713 27:-0.78671716 28:-0.15389173 29:0.17377931 30:0.25105773 31:-1.3986694 32:-0.6529428 33:-1.1977361 
0.001 1:-1.8193037 2:1.9875337 3:0.75597824 4:-0.30514494 5:0.40430054 6:1.0936632 7:0.55630305 8:0.32424689 9:0.5887999 10:0.8166297 11:0.23902713 12:0.58224832 13:-0.42415247 14:-0.87322933 15:-1.0075013 16:-0.24823227 17:-0.32532342 18:-1.7989779 19:0.21889867 20:-1.4761378 21:0.22671354 22:-1.8881546 23:-1.1504124 24:-0.39282284 25:-0.051112919 26:-1.9552746 27:-0.56596297 28:0.13582626 29:-0.14013282 30:0.23121067 31:-1.4144573 32:-0.74496489 33:-1.1325316 
0.001 1:-1.9157889 2:2.4764706 3:0.74224603 4:0.40995388 5:-0.16435551 6:0.78615998 7:0.33672319 8:-0.17337446 9:0.61394869 10:1.0788405 11:-0.23476909 12:0.72161379 13:0.18498477 14:-0.46848673 15:-0.62125358 16:-0.22728596 17:-0.39177253 18:-1.7116468 19:0.20517169 20:-2.1612677 21:0.29338698 22:-1.8141326 23:-1.3114079 24:-0.062879518 25:-0.083711294 26:-2.3576877 27:-0.34144458 28:0.18412232 29:0.45709078 30:0.86753497 31:-0.95498634 32:-0.72305403 33:-1.1073769 
0.001 1:-1.757069 2:2.3236757 3:0.65729252 4:1.2790231 5:-0.67333294 6:0.25665611 7:-0.079305504 8:-0.21972031 9:0.72263988 10:1.0643829 11:-0.67604696 12:1.0133889 13:0.86622688 14:0.20811529 15:-0.54900624 16:-0.3151638 17:-0.41134154 18:-1.6102503 19:0.27236432 20:-1.1775534 21:0.39070659 22:-1.2750173 23:-1.8143633 24:-0.045068866 25:-0.32906141 26:-2.3581709 27:-0.7168439 28:0.83196846 29:0.61524425 30:-1.0691431 31:-0.9990138 32:-0.73775366 33:-1.1038698 
-0.0008118988100790837 1:0.84674073 2:-0.73652617 3:-0.95837581 4:0.11715836 5:-0.4510931 6:-1.4381742 7:-1.5704128 8:-1.0939757 9:-1.134195 10:-0.16426274 11:1.1730805 12:0.49268034 13:0.97998213 14:0.34126495 15:-1.2264425 16:0.0042952521 17:0.85549595 18:1.7031345 19:1.8198001 20:0.94019283 21:1.8473564 22:-0.19235468 23:-1.0920405 24:-0.68871539 25:-0.59280397 26:-0.03102544 27:1.7233771 28:-1.430549 29:-0.81242066 30:1.1272594 31:-0.096315766 32:-0.48901283 33:0.78681529 
-0.001 1:0.77669682 2:-0.27378661 3:-0.93921278 4:0.4793125 5:-0.61359828 6:-1.3937242 7:-1.409924 8:-0.79793507 9:-0.87209157 10:0.21878363 11:0.89612956 12:0.19059078 13:0.81314721 14:0.18381714 15:-1.8055648 16:-0.67230063 17:0.32320631 18:1.7683516 19:1.8353609 20:0.88103944 21:1.7887928 22:-0.16689742 23:-1.1876621 24:-0.87680392 25:-0.39314489 26:0.11502559 27:1.5830957 28:-1.5927766 29:-0.90182024 30:1.0102976 31:-0.36100474 32:-0.90084565 33:0.60106044 
-0.001 1:1.0851792 2:-0.81947297 3:-1.4217797 4:0.49017676 5:-0.73928763 6:-1.5276675 7:-1.6972345 8:-0.5454723 9:-0.66140606 10:0.029360998 11:-0.64827371 12:-0.37648115 13:1.0779345 14:0.44740603 15:-1.521407 16:-0.53345594 17:0.54374307 18:1.7049385 19:1.7291171 20:0.88715007 21:1.808286 22:-0.45913661 23:-1.3532696 24:-0.72831316 25:-0.14712088 26:-0.023925813 27:1.5853664 28:-0.68053877 29:-0.95145082 30:1.2325278 31:-0.35681737 32:-0.81076398 33:0.57573303 
-0.001 1:0.77644939 2:-0.51825506 3:-1.1621091 4:-0.49156421 5:-0.71956286 6:-1.4055883 7:-1.5830718 8:-0.44263183 9:-0.49421051 10:0.49301889 11:0.040311128 12:-0.02468404 13:1.1131437 14:0.21137189 15:-1.9459412 16:-0.85130949 17:0.45924943 18:1.9264046 19:1.8692792 20:1.3335557 21:1.8102705 22:-0.26004077 23:-1.1702046 24:-0.76181519 25:-0.21770544 26:-0.50058657 27:1.312149 28:-0.84027112 29:-0.99642846 30:1.837074 31:-0.065387239 32:-1.3223337 33:0.47874475 
-0.001 1:-0.11853915 2:0.48144414 3:0.21584461 4:-0.65877315 5:0.062507322 6:-1.0239546 7:-1.4952074 8:-0.72799867 9:-0.76179284 10:0.26417311 11:-0.74483656 12:-0.34560932 13:0.97926929 14:0.030961143 15:-2.3613711 16:-1.3675192 17:-0.57005271 18:1.3664774 19:-0.17195116 20:1.25347 21:2.1888508 22:0.61635531 23:-1.1477848 24:-0.84124676 25:-0.59987279 26:-0.56325425 27:1.199684 28:-0.82477026 29:-1.0015025 30:1.8334921 31:-0.20074196 32:-1.4204477 33:0.46643488 
-0.001 1:0.47557055 2:-0.27815284 3:-0.079979802 4:-0.7244264 5:0.51724164 6:-0.84357272 7:-1.092515 8:-0.29764355 9:-0.21784261 10:0.69547205 11:-0.47399492 12:0.28684859 13:1.6426836 14:0.56714467 15:-1.389859 16:-0.74479139 17:-0.25630996 18:1.2345847 19:-0.16308758 20:1.2695857 21:1.6394885 22:-0.13555207 23:-0.93991889 24:-1.435319 25:-2.2296311 26:-0.36359571 27:1.1344824 28:-1.1438351 29:-1.9184223 30:0.33550913 31:0.46773964 32:-0.27901933 33:0.3447312 
-0.001 1:0.54427447 2:-0.22140338 3:-0.17688111 4:-1.3862831 5:1.3280584 6:-0.16814014 7:0.077452113 8:0.028594884 9:-0.71190092 10:0.43209498 11:0.075891413 12:1.517976 13:1.5811591 14:0.67281865 15:-1.0137293 16:-0.48815641 17:0.21736039 18:1.3007153 19:-0.14576376 20:0.25792264 21:0.94688717 22:0.27102849 23:0.42611535 24:-0.92836365 25:-0.54863431 26:0.14942572 27:1.2045164 28:-0.37711693 29:-1.98341 30:0.35787399 31:0.93663765 32:0.11945233 33:0.51925003 
-0.001 1:0.32482116 2:0.057989138 3:-0.32816818 4:-1.9703632 5:1.0857016 6:-0.0086620665 7:0.056079545 8:-0.0043776942 9:-0.79445788 10:-0.30888809 11:-0.81425876 12:0.81208247 13:1.5862781 14:0.7716575 15:-1.0146398 16:-0.57457305 17:0.16146119 18:1.3675418 19:-0.2196247 20:0.63833778 21:0.814611 22:0.26476223 23:0.42484914 24:-0.96678677 25:-0.72458967 26:-0.058185949 27:0.9225604 28:0.56923163 29:-1.9993249 30:0.13323455 31:0.93748099 32:0.21927032 33:0.55433409 
-0.001 1:-0.25379242 2:0.41159601 3:0.20288823 4:-1.5646441 5:0.60308921 6:0.095149005 7:0.33934365 8:0.016103573 9:-0.70948509 10:-0.060174429 11:-1.3716718 12:0.095296698 13:1.5051684 14:0.73606304 15:-1.3293562 16:-0.95645692 17:0.41060557 18:0.33549593 19:-1.0214841 20:0.85597019 21:0.79754877 22:0.19335891 23:0.43116855 24:-0.95129535 25:-0.48918412 26:0.28814811 27:0.50610061 28:0.31348503 29:-2.0278139 30:0.055894062 31:0.91862924 32:0.065887741 33:0.58542215 
-0.001 1:-0.51625067 2:0.49017086 3:0.58001974 4:-1.088667 5:0.33389097 6:0.0042199437 7:0.57215638 8:0.076875626 9:-0.72586542 10:0.15729553 11:-0.60158683 12:0.67168978 13:1.7257566 14:0.72658202 15:-1.2520586 16:-0.79613468 17:0.42340176 18:0.24574738 19:-1.5213641 20:0.75594287 21:0.96213671 22:0.15068008 23:0.60603847 24:-0.80731626 25:-0.55074155 26:0.34454837 27:0.49361352 28:0.67689792 29:-1.7471837 30:0.036313166 31:0.98567523 32:0.13220884 33:0.58620299 
-0.001 1:-1.2050719 2:1.4942363 3:1.274311 4:-0.40680855 5:0.10086415 6:-0.12117574 7:0.67885668 8:-0.03023636 9:-0.9103573 10:-0.37852762 11:-1.456288 12:-0.40261363 13:1.203812 14:0.87425345 15:-0.79822355 16:-0.64022155 17:0.80263624 18:-0.64911996 19:-2.1600537 20:0.46671036 21:0.82731662 22:-0.25153912 23:0.73077264 24:-0.76478137 25:-0.080852826 26:1.6211123 27:0.96038098 28:0.20685133 29:-1.3612693 30:-0.19599376 31:0.93905254 32:0.12192129 33:0.5463266 
-0.001 1:-0.56458778 2:0.93545125 3:0.60779449 4:0.7645534 5:0.13274878 6:-0.073173232 7:1.0948139 8:0.54149715 9:0.005653844 10:0.15610319 11:-1.2945614 12:-0.68582383 13:0.64474238 14:0.88478797 15:-0.62908427 16:-0.22150837 17:1.6606803 18:0.17716224 19:-0.77146288 20:-0.10731231 21:0.78341383 22:-0.48845642 23:0.2241931 24:-0.63395143 25:2.2046735 26:2.066196 27:1.0812997 28:-0.23649424 29:-1.7671648 30:-0.17014838 31:1.096624 32:0.27660658 33:0.12702726 
-0.001 1:-0.42491697 2:0.45961302 3:0.49103191 4:0.52780597 5:0.58412093 6:0.36469378 7:1.4025834 8:0.37721864 9:-0.092743906 10:0.23075301 11:-0.36158977 12:0.1483288 13:0.72108608 14:1.0216975 15:0.045925617 16:0.43748222 17:1.4982685 18:0.21184727 19:-0.75791515 20:-0.1813996 21:1.1863477 22:0.39123663 23:-0.15548827 24:-0.39768329 25:2.1392826 26:2.0513348 27:0.97973352 28:0.64138151 29:-1.6992143 30:-0.53202768 31:0.76236587 32:0.39458644 33:0.10159046 
-0.001 1:-0.10097743 2:-0.14718903 3:0.20925004 4:-0.071455338 5:0.73651156 6:0.40600249 7:1.5835975 8:1.075148 9:0.53916869 10:0.25204259 11:-1.1842896 12:-0.55719068 13:0.72302158 14:0.93021151 15:-0.13131262 16:0.26193967 17:2.0526978 18:-0.084303534 19:-0.90336277 20:0.53288912 21:1.0039536 22:0.26407882 23:-0.26112374 24:-1.6267987 25:0.21072564 26:2.016854 27:1.5078321 28:1.0716272 29:-1.6982733 30:-0.72392906 31:0.77761586 32:0.45897135 33:-0.098283917 
-0.001 1:-0.20314229 2:-0.16464819 3:0.34928756 4:-0.28190549 5:0.68319305 6:0.50638241 7:1.1574539 8:1.0938068 9:0.53547046 10:0.43805108 11:-0.93352463 12:-0.61775635 13:0.41173783 14:1.0666459 15:0.26871764 16:0.9355583 17:2.2186799 18:-0.27043118 19:-0.92109198 20:0.21872657 21:0.9950868 22:0.27597844 23:0.041888492 24:-1.6338902 25:0.21565513 26:1.989689 27:1.6612968 28:0.99490698 29:-1.4384785 30:-0.66696851 31:1.3715281 32:1.023205 33:-0.04192051 
-0.0001881011899209163 1:0.026461062 2:-0.43094203 3:0.46248132 4:-0.97347707 5:0.83827343 6:0.58551475 7:1.1735954 8:1.7217414 9:0.96646051 10:1.1398715 11:0.45319565 12:0.16478625 13:0.53538567 14:1.4320329 15:1.3224683 16:1.3334295 17:1.7303897 18:-0.52205873 19:-0.84985939 20:1.1195952 21:0.87266694 22:0.14455634 23:0.0068190775 24:-1.0657003 25:0.77941908 26:2.2230226 27:1.1843006 28:0.39713632 29:-1.5242196 30:-1.2610743 31:1.2580782 32:0.81503662 33:-0.78595539 
-0.001 1:0.43477578 2:-0.67977671 3:-0.071523243 4:-1.4304957 5:0.81193638 6:0.56760397 7:1.1302494 8:1.6016086 9:0.67347574 10:0.48784049 11:0.18367237 12:-0.0024302028 13:0.8611718 14:1.3560086 15:1.2558822 16:1.0280096 17:0.69360326 18:-0.60751251 19:-0.55366087 20:0.70283642 21:0.90485684 22:0.23377317 23:0.056969157 24:-1.0015832 25:0.86025758 26:1.5901307 27:1.1510675 28:0.33849462 29:-0.82717539 30:-1.4239203 31:1.2903069 32:0.91734626 33:-0.48055237 
-0.001 1:0.11900965 2:-0.033684381 3:0.049816746 4:-1.0483757 5:0.095456648 6:0.54256798 7:1.7035135 8:1.9869133 9:0.94196601 10:-0.038867272 11:-0.52145823 12:-0.44183125 13:0.54443511 14:1.1889716 15:0.91001039 16:0.6671771 17:-0.3855336 18:-0.56489548 19:-0.53394631 20:1.0574214 21:0.81858471 22:0.24791603 23:-0.44115871 24:-1.2103433 25:1.0323218 26:0.46859992 27:0.38127821 28:0.60322907 29:-0.72040371 30:-1.8747857 31:1.1578535 32:0.98018897 33:-0.13330502 
-0.001 1:-0.016682873 2:0.14966839 3:0.21258612 4:-0.15261355 5:-0.44655416 6:0.43246083 7:1.8249662 8:2.0086452 9:0.86330559 10:0.16622812 11:-0.038651261 12:-0.50881479 13:0.23494929 14:1.0812934 15:0.75025855 16:0.49608929 17:-0.70009881 18:-0.46621442 19:-0.44787909 20:1.113484 21:0.048129806 22:0.10986408 23:-0.5150528 24:-1.2533157 25:1.3219766 26:0.26479837 27:0.046441403 28:0.6509198 29:-0.6209646 30:-1.5609883 31:1.3264815 32:1.1996397 33:-0.15557237 
-0.001 1:0.21106617 2:0.17149378 3:0.16006235 4:0.03632392 5:-0.38995753 6:0.2386577 7:1.7369416 8:2.0877566 9:1.0621847 10:0.43946851 11:0.090535192 12:-0.050973584 13:0.68031015 14:1.1482221 15:0.89804042 16:0.98924113 17:0.035902376 18:-0.67988578 19:-0.47923946 20:1.1425182 21:-0.01119436 22:0.30263924 23:-0.54977974 24:-1.1559567 25:1.322462 26:0.14967152 27:0.095023467 28:1.2123371 29:-0.064587747 30:-1.484508 31:1.2459 32:1.0684125 33:0.19743737 
-0.001 1:0.78774204 2:-0.09480006 3:-1.6155824 4:0.94251868 5:-1.1163557 6:-1.0045743 7:-0.66023644 8:0.09245255 9:1.2849252 10:1.4735353 11:1.6080656 12:0.73359729 13:0.11368478 14:0.56302337 15:0.70912479 16:-0.37487174 17:-0.95401218 18:0.41756601 19:1.1696124 20:0.68555679 21:-0.28173996 22:1.2281442 23:-0.40981244 24:0.69800531 25:-0.69067397 26:-0.82578045 27:-2.2467428 28:-1.1132044 29:1.6198764 30:0.45727736 31:0.33188356 32:0.83731919 33:1.3778959 
-0.001 1:0.60654252 2:-0.12099741 3:-1.558326 4:1.8855152 5:-1.4357624 6:-1.2170364 7:-0.52936086 8:0.34237751 9:1.3033147 10:1.2719126 11:1.587249 12:1.4181793 13:0.070373723 14:0.070687117 15:0.22977666 16:-0.73244059 17:-1.3844325 18:0.57032121 19:1.2160895 20:-0.58764768 21:-0.200417 22:1.2248978 23:-0.32098589 24:1.0380825 25:-0.64578188 26:-1.1977338 27:-2.2735608 28:-0.065368884 29:1.6561627 30:0.64180829 31:-0.075172262 32:0.90888305 33:1.6404508 
-0.001 1:0.34773729 2:-0.14718903 3:-1.1889528 4:2.3680756 5:-1.6316092 6:-1.2088596 7:-0.87597673 8:-0.79752367 9:0.57112811 10:0.73267263 11:0.52986835 12:0.70277127 13:-0.9474554 14:-0.13667097 15:0.81597813 16:0.059710873 17:0.27601974 18:0.56722278 19:1.0255286 20:-0.65554036 21:-0.39288913 22:1.2200746 23:0.014014609 24:0.84951336 25:0.94457167 26:-0.40557931 27:-0.97838003 28:0.95488433 29:1.3044318 30:0.54919786 31:0.24943087 32:1.1776527 33:1.6906983 
-0.001 1:0.373111 2:-0.28251906 3:-1.1628849 4:1.7620511 5:-1.2579033 6:-1.2775839 7:-1.8310187 8:-1.5167246 9:0.24551755 10:0.59885562 11:0.16767063 12:0.50416671 13:-1.0337749 14:-0.26730559 15:0.77665362 16:0.27297883 17:1.3150836 18:0.54706897 19:1.0399195 20:-0.787261 21:-0.48369951 22:1.2140564 23:1.0072213 24:1.2299761 25:0.77928578 26:-0.42852778 27:-0.98618823 28:1.3291771 29:1.3758199 30:0.41537349 31:0.26646249 32:1.1101446 33:1.3732798 
-0.001 1:0.37045604 2:-0.68414294 3:-1.1798756 4:1.207542 5:-1.3443673 6:-1.2671691 7:-1.7729818 8:-1.1745589 9:0.57878025 10:0.7736305 11:-0.018591233 12:0.49858968 13:-0.86392852 14:-0.15178106 15:1.096906 16:0.49560222 17:1.0380921 18:0.54971805 19:1.0254861 20:-0.96283536 21:-0.51436109 22:1.2313851 23:1.0519076 24:1.5122143 25:0.32195078 26:-0.43612609 27:-0.89135653 28:1.334628 29:1.3336367 30:0.27214248 31:-0.017579975 32:0.84981893 33:1.5175344 
-0.001 1:0.24251435 2:-0.72343323 3:-1.2867851 4:1.0552264 5:-1.3376709 6:-1.0327987 7:-1.7881431 8:-1.4088801 9:0.72547446 10:0.92985542 11:0.024236426 12:0.44964442 13:-1.171915 14:-0.27138838 15:1.3662316 16:0.372858 17:0.62311433 18:0.62537938 19:0.98003792 20:-0.97210219 21:-0.51945641 22:1.3291272 23:1.0383238 24:1.1765546 25:0.77319035 26:-0.31601821 27:-0.86328918 28:1.2469244 29:0.7961543 30:0.094150459 31:0.062899696 32:0.78768735 33:1.2987946 
-0.001 1:-0.16889737 2:-0.30434445 3:-0.90476587 4:1.1575016 5:-1.2692787 6:-1.0198156 7:-1.3594874 8:-0.71024519 9:0.65489499 10:0.520987 11:0.1379787 12:0.6231624 13:-1.4831446 14:-0.80689299 15:0.83648902 16:-0.081836572 17:0.51961957 18:0.61968751 19:1.0968275 20:-0.88449959 21:-0.62050086 22:1.3126053 23:1.0938045 24:1.3491177 25:0.64566355 26:-0.1615889 27:-0.82375148 28:1.3664279 29:0.484022 30:-0.69185999 31:0.33736416 32:0.50916134 33:1.2767481 
-0.001 1:-1.2769451 2:1.2846919 3:0.092565041 4:1.7319046 5:-0.84864241 6:-0.47585907 7:-0.69880459 8:-0.47512108 9:0.8568211 10:0.5922679 11:-0.09699084 12:0.35074826 13:-1.7522312 14:-0.92959009 15:0.045005558 16:-1.2268966 17:-1.1287366 18:-1.4901609 19:0.39196535 20:-0.572862 21:-0.62103925 22:0.46802417 23:0.53523636 24:1.1933144 25:1.084839 26:0.019070637 27:-0.89591465 28:1.2215791 29:0.086525527 30:-0.97280698 31:0.47609075 32:-0.041409798 33:0.98632985 
-0.001 1:-1.8933315 2:2.026824 3:0.21762902 4:2.2318047 5:-0.83334451 6:-0.352061 7:-0.48507891 8:-0.52364037 9:0.96733625 10:0.6372238 11:-0.014183822 12:0.44263999 13:-1.3231181 14:-0.92254089 15:0.5135136 16:-0.89465188 17:-1.0531493 18:-2.3395061 19:0.44870766 20:-1.0651599 21:-0.61035691 22:0.46192287 23:0.61817963 24:1.1029928 25:1.5905984 26:0.022057577 27:-0.88128819 28:1.2226419 29:0.50284874 30:-0.96711726 31:0.19799478 32:-0.1177855 33:0.97918093 
