svm_type c_svc
kernel_type linear
nr_class 3
total_sv 33
rho 1.21834 0.0675649 -0.447751
label 0 1 2
probA -3.26537 -4.67283 -4.58235
probB -1.10264 -0.228193 0.0587138
nr_sv 14 11 8
SV
0 0.003561179399615119 1:-0.78018921 2:-0.78369072 3:-0.43889529 4:1.7940302 5:-0.88948985 6:-1.8513694 7:1.049523 8:0.56964194 9:0.94230851 10:-0.94774595 11:0.73766138 12:1.0022738 13:-0.30502746 14:1.050623 15:-0.63003518 16:1.7345094 17:0.49012371 18:-0.67860313 19:0.88619667 20:1.0362059 21:1.1768375 22:0.098940052 23:-0.57232154 24:-0.34347511 25:-0.84040323 26:-1.0923587 27:0.14248907 28:0.082570942 29:-0.96635619 30:-0.93455443 31:-0.038155436 32:-0.2858714 33:-0.14991944 
0.08679656961015589 0 1:-0.80244072 2:-0.86417895 3:0.76470141 4:1.0070486 5:-1.1506767 6:-1.2504344 7:1.2786645 8:0.063761126 9:0.99700345 10:-0.976724 11:0.72386356 12:0.80483871 13:-0.80056357 14:1.0029183 15:-0.6171649 16:1.4296268 17:0.66762901 18:-0.74086656 19:-0.81714656 20:-0.90402841 21:-0.70578504 22:-0.40442284 23:-1.0492253 24:-0.55824746 25:-0.41863757 26:-1.1275149 27:-0.24607535 28:-0.89756898 29:-1.0834525 30:-1.1392883 31:-0.60834096 32:0.92541874 33:-0.58268239 
0.02265619893279625 0 1:-0.80199806 2:-0.86417895 3:0.77614967 4:1.1482479 5:-1.1258778 6:-1.3693223 7:1.2893246 8:0.13736677 9:0.92247847 10:-0.97176105 11:0.70225326 12:0.70440396 13:-0.63905716 14:1.148034 15:-0.62471395 16:1.5395486 17:0.45903439 18:-0.74091983 19:-0.83320091 20:-0.4651722 21:-0.39693759 22:-0.13743269 23:-0.8965394 24:-0.2915873 25:-0.22640211 26:-1.0820979 27:0.20435863 28:-0.71334742 29:-1.2467443 30:-0.8544999 31:-0.57695429 32:0.95604119 33:-0.78300379 
0.07812489623959823 0 1:-0.7946741 2:-0.86417895 3:0.69661955 4:0.075552967 5:-0.91564946 6:-0.16571347 7:1.1052463 8:-0.41579671 9:1.3390772 10:-0.060009577 11:1.0769482 12:0.37697884 13:-2.6315199 14:-1.5198686 15:-1.4371248 16:-0.16308987 17:-0.15570857 18:-0.73812945 19:-0.77516537 20:-0.73243871 21:-0.48314922 22:-0.44289933 23:-0.3680412 24:-0.91126193 25:-0.76580283 26:0.28646065 27:-0.20323523 28:-0.53258114 29:1.0133374 30:1.0460735 31:0.099775097 32:0.15138325 33:-0.27112953 
0 0.01480467859277405 1:-0.79583574 2:-0.86417895 3:0.68328642 4:0.18587944 5:-0.92218625 6:-0.42586111 7:1.1023651 8:-0.14941314 9:1.4123305 10:0.030362756 11:0.79704501 12:0.38087361 13:-2.5147551 14:-1.3880225 15:-1.1800355 16:-0.012266427 17:0.022995875 18:-0.73775706 19:-0.77850492 20:-0.60965084 21:-0.57700846 22:-0.2558154 23:-0.52022973 24:-0.75505459 25:-0.83367553 26:-0.035414378 27:0.11550189 28:-0.40728476 29:0.63661444 30:0.031926228 31:-0.18051559 32:0.16470377 33:-0.054203287 
0 0.008842087476041663 1:-0.79692878 2:-0.86417895 3:0.68388896 4:0.20034621 5:-0.94109383 6:-0.50282267 7:1.1056014 8:-0.12719348 9:1.4002884 10:-0.022314655 11:0.71720534 12:0.4211363 13:-2.3141727 14:-1.0945356 15:-0.91889325 16:0.14763012 17:0.093293347 18:-0.73730206 19:-0.77862582 20:-0.61621139 21:-0.49410869 22:-0.32252155 23:-0.50108673 24:-0.77815621 25:-0.81901832 26:-0.0050498959 27:-0.31231235 28:-0.32725798 29:0.54991765 30:-0.34115114 31:-0.64560289 32:-0.33667236 33:-0.20525431 
0.0382280885090377 0 1:-0.79627857 2:-0.86417895 3:0.6935193 4:0.28737281 5:-0.97851818 6:-0.62703002 7:1.1370823 8:-0.060579353 9:1.4072461 10:-0.071664391 11:0.71138356 12:0.65382332 13:-1.9848113 14:-0.77402405 15:-0.73619572 16:0.28496652 17:0.084667798 18:-0.73669381 19:-0.77435524 20:-0.68037071 21:-0.39325213 22:-0.4172769 23:-0.58853094 24:-1.0172232 25:-0.90333669 26:-0.15370767 27:-0.24454219 28:-0.35025067 29:0.33762371 30:-0.4960814 31:-0.71640511 32:-0.60896245 33:-0.19665096 
0.04504773798739831 0 1:-0.80146756 2:-0.86417895 3:0.74521929 4:0.53151863 5:-1.1821853 6:-0.97490559 7:1.2929555 8:0.11684189 9:1.2882871 10:-0.88377845 11:0.93819712 12:1.3358792 13:-0.81235096 14:0.81010545 15:-0.52933795 16:0.59421378 17:0.39276413 18:-0.73971923 19:-0.81562519 20:-1.4168843 21:-1.229545 22:-1.2462863 23:-0.6842163 24:-1.1860032 25:-1.4908062 26:-1.4965566 27:-1.3751226 28:-1.2134302 29:-1.2701758 30:-1.4403624 31:-1.325099 32:-1.9020451 33:-1.1745901 
0.09545075641620178 0 1:-0.8014067 2:-0.86417895 3:0.74926197 4:0.58136737 5:-1.1740132 6:-0.97269773 7:1.2770799 8:0.11682756 9:1.2935644 10:-0.91210288 11:0.92311905 12:1.2759318 13:-0.8136815 14:0.81466075 15:-0.48883582 16:0.61493416 17:0.37226998 18:-0.73968588 19:-0.81413676 20:-1.1679837 21:-1.1395596 22:-1.2437297 23:-0.59348684 24:-1.1859888 25:-1.5145657 26:-1.5056084 27:-1.3423389 28:-1.1799601 29:-1.2671233 30:-1.448291 31:-1.3367961 32:-1.8910751 33:-1.2364234 
0.07959127903789517 0 1:-0.80191179 2:-0.86417895 3:0.74150105 4:0.63308706 5:-1.1428184 6:-0.91358309 7:1.2348809 8:0.16076626 9:1.2669824 10:-1.1218302 11:0.7614635 12:1.1292638 13:-0.83384293 14:1.0162729 15:-0.42021537 16:0.62803708 17:0.57227164 18:-0.74242661 19:-0.8189106 20:-1.1798795 21:-1.1619742 22:-1.1751898 23:-0.5870542 24:-1.2394068 25:-1.3872033 26:-1.4397384 27:-1.2629022 28:-1.1767008 29:-1.2102447 30:-1.4006656 31:-1.6136508 32:-1.2421027 33:-1.3473456 
0.164468946542442 0 1:-0.80114264 2:-0.86417895 3:0.73666528 4:0.55610969 5:-1.182904 6:-0.81077789 7:1.2912677 8:-0.24226487 9:1.268904 10:-0.81410885 11:0.59828244 12:1.1030871 13:-0.77341414 14:0.47385555 15:-0.51330538 16:0.80604243 17:0.89446596 18:-0.74137668 19:-0.79107555 20:-1.2320644 21:-1.5084762 22:-1.4740812 23:-1.0510265 24:-1.2840167 25:-1.3959937 26:-1.1166931 27:-1.6497327 28:-1.1795055 29:-1.3617535 30:-1.0431058 31:-1.4274378 32:-1.6673656 33:-1.4741718 
0.03192914505347848 0 1:-0.80108215 2:-0.86417895 3:0.7503898 4:0.71915736 5:-1.164021 6:-1.047329 7:1.2157743 8:-0.22334781 9:1.1728776 10:-0.78436619 11:0.42426142 12:0.94140891 13:-0.54487833 14:0.63248233 15:-0.48379856 16:1.0811059 17:0.74651357 18:-0.74142874 19:-0.81229577 20:-0.86217339 21:-1.0300315 22:-0.90677376 23:-1.000144 24:-1.2400031 25:-0.64492296 26:-0.94854732 27:-1.2303741 28:-1.0858424 29:-0.73957189 30:-0.75139384 31:-1.0412201 32:-0.74707808 33:-1.2223825 
0.04557716648644709 0 1:-0.7993759 2:-0.86417895 3:0.75665725 4:0.62192117 5:-1.0613562 6:-0.83881661 7:1.2021164 8:0.11206148 9:1.1947134 10:-0.8819508 11:0.58581115 12:0.35422213 13:-1.0146735 14:0.14369019 15:-1.0181224 16:1.1274324 17:0.63153531 18:-0.73904957 19:-0.80335027 20:-0.75128826 21:-0.25611868 22:-0.56691069 23:0.55573156 24:-0.83976289 25:-0.88519856 26:-0.75117798 27:-0.98740925 28:-0.7178917 29:-0.31051943 30:-1.0246134 31:-0.52198351 32:-0.67889949 33:0.020387774 
0 0.02342540770143634 1:-0.79898922 2:-0.86417895 3:0.74703721 4:0.90995625 5:-1.0258623 6:-1.1443198 7:1.1369686 8:0.17969267 9:1.0316038 10:-0.87763446 11:0.67634497 12:0.35737533 13:-0.90629178 14:0.60651129 15:-1.2610378 16:1.3244815 17:0.3651344 18:-0.74047068 19:-0.79935796 20:-0.046785211 21:-0.13034245 22:0.025591193 23:0.45462601 24:-0.54608387 25:-0.33979403 26:-0.8048578 27:-0.81781847 28:-0.77703087 29:-0.55647785 30:-0.7614203 31:-0.080315697 32:0.15877964 33:0.25256211 
-0.441253985725246 0 1:-0.7889696 2:-0.86232865 3:0.75826917 4:-0.43280254 5:-0.9154791 6:-0.51106438 7:0.80200318 8:-0.71356882 9:0.78516743 10:-0.77527869 11:0.9648343 12:1.1653242 13:-0.67378079 14:0.50336902 15:-0.21516988 16:0.74934412 17:0.3281323 18:-0.74243656 19:-0.81930817 20:-1.3778095 21:-0.91910368 22:-1.3304883 23:-0.55828173 24:-0.99639774 25:-1.3001468 26:-1.4437712 27:-1.3960567 28:-0.55850683 29:-1.0967601 30:-1.5089657 31:-0.99655808 32:-0.89028404 33:-0.87367344 
-0 0.004068472024937709 1:0.49817023 2:-0.10555422 3:-1.352078 4:-2.2189618 5:0.25309155 6:1.6579615 7:-0.46901861 8:-2.290592 9:-1.2129345 10:-0.89392644 11:-0.015652772 12:-0.86912084 13:0.77917177 14:0.73540997 15:2.2268381 16:0.36014817 17:0.19242965 18:0.76517133 19:0.55544442 20:-0.083212181 21:0.44008986 22:0.33119398 23:0.60521914 24:1.0938549 25:0.95200582 26:1.2404566 27:1.3861459 28:0.48581112 29:1.2172435 30:2.8985032 31:1.5790134 32:2.1822087 33:2.5300572 
-0 0.009693357894433569 1:-0.59187998 2:-0.60236091 3:0.2416298 4:-0.83236998 5:-0.32265863 6:0.12599749 7:0.23232679 8:-1.2062046 9:0.09470518 10:-1.168073 11:0.33108308 12:2.0727192 13:0.73357828 14:-0.11440297 15:-0.57863572 16:0.77160345 17:-0.73538504 18:-0.43180013 19:-0.08952458 20:0.20606228 21:0.94420987 22:0.49835345 23:0.27208279 24:-0.23891999 25:0.71909109 26:0.57877093 27:1.214653 28:-0.64165577 29:1.1879884 30:0.43631406 31:-0.93812419 32:0.79350972 33:-0.57353819 
-0 0.02661366501433771 1:-0.74152798 2:-0.81838392 3:0.63896111 4:-0.4519667 5:-0.57207399 6:-0.35387245 7:0.42467718 8:-0.86109318 9:0.57890834 10:-0.84800693 11:0.51333997 12:1.7250602 13:-0.062319699 14:0.26947673 15:-0.45794727 16:0.75811294 17:-0.20813253 18:-0.56275229 19:-0.45053859 20:0.15017643 21:-0.020547378 22:0.077390777 23:-0.30368366 24:-0.76261047 25:-0.0060736496 26:0.21086081 27:-0.61066478 28:-0.50512916 29:0.66889844 30:0.11420046 31:-1.0795773 32:-0.068667221 33:-0.56689037 
-0 0.00752169075814928 1:-0.78639755 2:-0.86232865 3:0.75814557 4:-0.22781163 5:-0.61874907 6:-0.55382218 7:0.42894593 8:-0.7299706 9:0.71899235 10:-0.68780025 11:0.58924875 12:1.4988688 13:-0.43060261 14:0.057633013 15:-0.62246643 16:0.75926079 17:0.011002473 18:-0.74174784 19:-0.79729046 20:-0.32455165 21:-0.45690928 22:-0.6117565 23:-0.32520494 24:-1.068477 25:-0.85960343 26:-0.5276467 27:-0.54549969 28:-0.63037114 29:-0.86319982 30:-0.040826114 31:-1.2294371 32:-0.14139886 33:-0.8318789 
-0.246616799090205 0 1:-0.78720974 2:-0.8632538 3:0.75307291 4:-0.14042028 5:-0.64305517 6:-0.58275708 7:0.4485186 8:-0.68134989 9:0.72881333 10:-0.64290099 11:0.57415397 12:1.5017541 13:-0.50900627 14:-0.1351294 15:-0.57814567 16:0.83378597 17:0.18152522 18:-0.7421604 19:-0.79703263 20:-0.50207649 21:-0.65807855 22:-0.6347565 23:-0.28521408 24:-0.9909142 25:-0.8426214 26:-0.63660975 27:-0.33243656 28:-0.6726099 29:-0.91334446 30:-0.01217142 31:-1.0871157 32:-0.066272165 33:-1.0286017 
-0 0.005251726043520737 1:-0.64990243 2:-0.40992926 3:-0.25743292 4:-0.37315062 5:-0.18672465 6:-0.070339225 7:0.08116521 8:-0.29538286 9:0.017585059 10:0.036901166 11:-0.049739794 12:-0.35837342 13:0.51499835 14:-0.81504138 15:0.30107227 16:-0.90547615 17:-1.8458219 18:-0.52193275 19:1.513837 20:0.82217713 21:1.4626571 22:0.89630209 23:1.9764604 24:0.65324491 25:0.806713 26:1.9039337 27:1.8064673 28:-0.19803645 29:1.2528936 30:-0.23628984 31:1.5768332 32:0.12089706 33:-0.20375776 
-0 0.01531587389122343 1:-0.63402517 2:-0.037092957 3:0.10271602 4:0.039390378 5:0.11258247 6:-0.11763224 7:-0.43509998 8:-0.25965827 9:-0.18039513 10:1.0358644 11:-0.021467402 12:-1.6445763 13:0.71555613 14:-2.741502 15:0.90665973 16:-0.57289171 17:-2.2696447 18:-0.58404614 19:-0.038791796 20:1.2715409 21:0.95834851 22:1.3053212 23:1.8642676 24:1.3126253 25:-0.34489169 26:2.0184493 27:1.3234686 28:1.4349434 29:1.0054133 30:2.0508553 31:1.0773546 32:1.5528614 33:1.9549344 
-0 0.01753865494282932 1:-0.62071393 2:0.15672639 3:0.11303645 4:0.52314421 5:0.19615285 6:-0.46062633 7:-0.63450657 8:0.0023965433 9:-0.2651072 10:1.3388681 11:0.093050031 12:-1.8920172 13:0.62780198 14:-3.0411702 15:1.5714663 16:-0.50893968 17:-2.5396767 18:-0.59027804 19:-0.033913175 20:1.760131 21:0.66536943 22:1.7952377 23:1.5407437 24:1.7276215 25:-0.25227391 26:1.7512439 27:1.4369505 28:1.1901446 29:0.85948275 30:1.8861905 31:2.0733836 32:1.6218756 33:2.0069646 
-0 0.02969888049207256 1:1.2432103 2:0.18679382 3:-4.5002668 4:-1.8343493 5:0.65907148 6:1.55776 7:-0.96025623 8:-1.2833002 9:-1.1981206 10:-0.67695217 11:1.293589 12:-0.28895815 13:0.17633424 14:0.23692687 15:1.6786282 16:-0.82316466 17:-0.9952709 18:1.7284204 19:3.584863 20:-0.36995887 21:0.5052271 22:-0.1559178 23:0.26156839 24:0.67176509 25:0.58276547 26:0.21224113 27:-0.035306988 28:1.9368479 29:0.20144274 30:-0.51810327 31:0.018108339 32:-0.16581654 33:-0.80188158 
-0 0.003655961118955563 1:0.3416157 2:-0.025528578 3:-2.8228008 4:-1.8807624 5:0.46961805 6:1.3089318 7:-0.6993742 8:-2.1016954 9:-0.25913957 10:-0.53283444 11:0.14031785 12:-0.73784811 13:-1.1167939 14:1.0312596 15:-0.15155253 16:0.065746637 17:-0.18606996 18:0.39129613 19:2.4564074 20:-0.59877717 21:1.2317498 22:0.20889319 23:1.1383284 24:0.40192317 25:-0.20646775 26:0.79595485 27:0.40018596 28:2.8296629 29:0.75045637 30:0.70573879 31:-0.43636214 32:0.8476662 33:-0.32880224 
-0.02117957737267824 -0.0326180457325493 1:0.018825579 2:0.53835157 3:0.15840719 4:-1.6438755 5:0.79395149 6:2.6027892 7:-1.0871801 8:-1.7598164 9:1.0656997 10:-0.038263354 11:-1.7413384 12:0.40412943 13:0.6666537 14:-0.67899229 15:-0.0087597302 16:-0.6330057 17:-1.3091409 18:-0.36697217 19:-0.30124336 20:1.5370771 21:-0.044588355 22:1.1012527 23:0.95118098 24:-0.049156005 25:0.33397911 26:-0.04604354 27:-0.80678968 28:-0.96015645 29:-1.2032911 30:-0.84280838 31:-0.78523856 32:0.12145096 33:-0.23770862 
-0.00377663221820847 -0 1:1.0127502 2:1.4648913 3:0.044285094 4:0.26866105 5:1.3695628 6:0.44971214 7:-1.0334987 8:1.5552966 9:-1.4012268 10:1.0964454 11:-1.1559661 12:-0.92917041 13:0.15732138 14:1.1451826 15:-0.98882599 16:-0.8550819 17:1.2754549 18:0.50116682 19:-0.12244747 20:0.48822024 21:-0.47007785 22:0.10836682 23:-0.45617077 24:0.080571011 25:0.23047476 26:-0.16919182 27:-0.37362751 28:-0.3553609 29:0.62801165 30:0.05481852 31:-0.32715587 32:-0.88214285 33:0.57573348 
-0 -0.00361071187442965 1:0.45518947 2:1.6827647 3:0.033295177 4:0.68656685 5:1.3433183 6:0.2625754 7:-1.038737 8:1.7249505 9:-1.2862822 10:1.524212 11:-1.1429027 12:-1.0525845 13:0.46155729 14:0.5444853 15:-0.47819843 16:-0.95346713 17:1.0031016 18:0.038370124 19:-0.14350236 20:0.28127616 21:-0.37245891 22:-0.020870551 23:-0.63901007 24:-0.088332198 25:0.0071233917 26:-0.45999124 27:0.12439462 28:-0.45101157 29:1.4761787 30:-0.24035514 31:-0.055631504 32:-0.0020280933 33:0.82589861 
-0.02540997309638786 -0 1:0.2785998 2:1.4995846 3:0.10135129 4:0.69260967 5:1.3041233 6:0.44640726 7:-1.0471138 8:1.490193 9:-1.1585882 10:1.5292978 11:-1.1690712 12:-1.2926806 13:0.5642291 14:0.35769392 15:-0.56060393 16:-0.78215798 17:1.076981 18:-0.34865494 19:-0.34358077 20:0.26685621 21:-0.57937067 22:-0.88489184 23:-0.526214 24:-0.23005021 25:0.028858332 26:-0.62678249 27:0.057458751 28:-0.90795089 29:0.91208393 30:0.027170654 31:0.11274827 32:0.87954415 33:0.627977 
-0 -0.04774109375432067 1:0.26145261 2:0.8501279 3:-0.57040349 4:-1.0928496 5:1.0670855 6:1.5015665 7:-1.1341522 8:0.25494371 9:-0.29887691 10:0.99119947 11:-1.3456064 12:-1.2606269 13:1.7849323 14:-0.43533342 15:-0.45241133 16:-0.49358905 17:-0.70323083 18:0.23375808 19:1.1160859 20:0.1554769 21:0.12504111 22:0.67836547 23:-0.42502275 24:0.21945445 25:1.1012187 26:0.50976804 27:0.60174289 28:0.49633875 29:0.10153837 30:0.22760042 31:0.065405615 32:1.2616132 33:-0.081633043 
-0 -0.03242324845255661 1:0.60738316 2:1.0929803 3:-0.85123345 4:-0.63577943 5:1.169265 6:1.1846033 7:-1.2206642 8:0.35636853 9:-0.39228442 10:1.1511153 11:-1.3760025 12:-0.52011552 13:0.86901066 14:-0.0068693723 15:-0.63462013 16:-0.64725033 17:-0.24830863 18:0.54284336 19:1.1890868 20:1.5779949 21:0.73738263 22:1.4640053 23:-0.56070705 24:0.50475889 25:1.2463996 26:1.087319 27:0.097135312 28:1.3449051 29:0.83954997 30:0.56663076 31:-0.38976145 32:0.43337875 33:0.97703174 
-0 -0.002965182366603598 1:2.6158453 2:2.4140974 3:-1.9121981 4:1.8901415 5:1.529008 6:-0.77931565 7:-1.1986587 8:2.0608168 9:-1.6488232 10:1.9109089 11:-1.5800905 12:1.1245897 13:-0.18825469 14:1.0615334 15:0.048111673 16:-1.8449146 17:0.57153838 18:2.747462 19:2.2665541 20:2.1405265 21:0.03980552 22:1.3640762 23:-0.76724086 24:0.75661995 25:0.38755714 26:0.36230637 27:0.48745154 28:1.1147488 29:0.62088535 30:-0.25690008 31:0.68729663 32:-0.44466663 33:0.19628342 
-0.0002671704825926034 -0 1:0.4382768 2:1.2636708 3:-0.056962216 4:0.17172005 5:1.3084808 6:0.60054155 7:-0.99640007 8:1.2741298 9:-1.2526822 10:1.6117488 11:-1.3734484 12:-0.68675516 13:0.67860471 14:0.61675602 15:-0.26692707 16:-0.91180433 17:1.2410738 18:-0.25554987 19:-0.35766472 20:-0.029975478 21:-0.83443408 22:-0.5520912 23:-0.57872383 24:-0.33386728 25:-0.18888245 26:-0.85842343 27:-0.60813539 28:-0.49883197 29:-0.75832922 30:0.22375383 31:0.45328799 32:-0.29470164 33:-0.085524152 
